{"learner":{"attributes":{"scikit_learn":"{\"_estimator_type\": \"regressor\"}"},"feature_names":["prdy_vrss_x","acml_vol_x","acml_tr_pbmn_x","stck_oprc_x","stck_hgpr_x","stck_lwpr_x","stck_clpr","sale_account","sale_cost","sale_totl_prfi","bsop_prti","op_prfi","thtr_ntin","cras","fxas","total_aset","flow_lblt","fix_lblt","total_lblt","total_cptl","grs","bsop_prfi_inrt","ntin_inrt","roe_val","eps_x","sps","bps_x","rsrv_rate","lblt_rate","bram_depn","crnt_rate","quck_rate","equt_inrt","totl_aset_inrt","cptl_ntin_rate","sale_ntin_rate","sale_totl_rate","payout_rate","ebitda","lstg_stqt","cpta","papr","sbst_pric","marg_rate","prdy_ctrt","prdy_vrss_vol_rate","stck_mxpr","stck_llam","stck_sdpr","wghn_avrg_stck_prc","hts_frgn_ehrt","frgn_ntby_qty","pgtr_ntby_qty","pvt_scnd_dmrs_prc","pvt_frst_dmrs_prc","pvt_pont_val","pvt_frst_dmsp_prc","pvt_scnd_dmsp_prc","dmrs_val","dmsp_val","stck_sspr","aspr_unit","hts_avls","per","pbr","vol_tnrt","d250_hgpr","d250_hgpr_vrss_prpr_rate","d250_lwpr","d250_lwpr_vrss_prpr_rate","stck_dryy_hgpr","dryy_hgpr_vrss_prpr_rate","stck_dryy_lwpr","dryy_lwpr_vrss_prpr_rate","w52_hgpr","w52_hgpr_vrss_prpr_ctrt","w52_lwpr","w52_lwpr_vrss_prpr_ctrt","whol_loan_rmnd_rate","frgn_hldn_qty","last_ssts_cntg_qty","aspr_acpt_hour","askp1","askp10","bidp1","bidp10","askp_rsqn1","askp_rsqn2","askp_rsqn3","askp_rsqn4","askp_rsqn5","askp_rsqn6","askp_rsqn7","askp_rsqn8","askp_rsqn9","askp_rsqn10","bidp_rsqn1","bidp_rsqn2","bidp_rsqn3","bidp_rsqn4","bidp_rsqn5","bidp_rsqn6","bidp_rsqn7","bidp_rsqn8","bidp_rsqn9","bidp_rsqn10","total_askp_rsqn","total_bidp_rsqn","ntby_aspr_rsqn","prdy_clpr_vrss_oprc_rate","lwpr_vrss_prpr","prdy_clpr_vrss_lwpr_rate","hgpr_vrss_prpr","prdy_clpr_vrss_hgpr_rate","oprc_vrss_prpr","prdy_vol"],"feature_types":["float","float","float","float","float","float","float","float","float","float","float","float","float","float","float","float","float","float","float","float","float","float","float","float","float","float","float","float","float","float","float","float","float","float","float","float","float","float","float","float","float","float","float","float","float","float","float","float","float","float","float","float","float","float","float","float","float","float","float","float","float","float","float","float","float","float","float","float","float","float","float","float","float","float","float","float","float","float","float","float","float","float","float","float","float","float","float","float","float","float","float","float","float","float","float","float","float","float","float","float","float","float","float","float","float","float","float","float","float","float","float","float","float","float","float","float"],"gradient_booster":{"model":{"cats":{"enc":[],"feature_segments":[],"sorted_idx":[]},"gbtree_model_param":{"num_parallel_tree":"1","num_trees":"400"},"iteration_indptr":[0,1,2,3,4,5,6,7,8,9,10,11,12,13,14,15,16,17,18,19,20,21,22,23,24,25,26,27,28,29,30,31,32,33,34,35,36,37,38,39,40,41,42,43,44,45,46,47,48,49,50,51,52,53,54,55,56,57,58,59,60,61,62,63,64,65,66,67,68,69,70,71,72,73,74,75,76,77,78,79,80,81,82,83,84,85,86,87,88,89,90,91,92,93,94,95,96,97,98,99,100,101,102,103,104,105,106,107,108,109,110,111,112,113,114,115,116,117,118,119,120,121,122,123,124,125,126,127,128,129,130,131,132,133,134,135,136,137,138,139,140,141,142,143,144,145,146,147,148,149,150,151,152,153,154,155,156,157,158,159,160,161,162,163,164,165,166,167,168,169,170,171,172,173,174,175,176,177,178,179,180,181,182,183,184,185,186,187,188,189,190,191,192,193,194,195,196,197,198,199,200,201,202,203,204,205,206,207,208,209,210,211,212,213,214,215,216,217,218,219,220,221,222,223,224,225,226,227,228,229,230,231,232,233,234,235,236,237,238,239,240,241,242,243,244,245,246,247,248,249,250,251,252,253,254,255,256,257,258,259,260,261,262,263,264,265,266,267,268,269,270,271,272,273,274,275,276,277,278,279,280,281,282,283,284,285,286,287,288,289,290,291,292,293,294,295,296,297,298,299,300,301,302,303,304,305,306,307,308,309,310,311,312,313,314,315,316,317,318,319,320,321,322,323,324,325,326,327,328,329,330,331,332,333,334,335,336,337,338,339,340,341,342,343,344,345,346,347,348,349,350,351,352,353,354,355,356,357,358,359,360,361,362,363,364,365,366,367,368,369,370,371,372,373,374,375,376,377,378,379,380,381,382,383,384,385,386,387,388,389,390,391,392,393,394,395,396,397,398,399,400],"tree_info":[0,0,0,0,0,0,0,0,0,0,0,0,0,0,0,0,0,0,0,0,0,0,0,0,0,0,0,0,0,0,0,0,0,0,0,0,0,0,0,0,0,0,0,0,0,0,0,0,0,0,0,0,0,0,0,0,0,0,0,0,0,0,0,0,0,0,0,0,0,0,0,0,0,0,0,0,0,0,0,0,0,0,0,0,0,0,0,0,0,0,0,0,0,0,0,0,0,0,0,0,0,0,0,0,0,0,0,0,0,0,0,0,0,0,0,0,0,0,0,0,0,0,0,0,0,0,0,0,0,0,0,0,0,0,0,0,0,0,0,0,0,0,0,0,0,0,0,0,0,0,0,0,0,0,0,0,0,0,0,0,0,0,0,0,0,0,0,0,0,0,0,0,0,0,0,0,0,0,0,0,0,0,0,0,0,0,0,0,0,0,0,0,0,0,0,0,0,0,0,0,0,0,0,0,0,0,0,0,0,0,0,0,0,0,0,0,0,0,0,0,0,0,0,0,0,0,0,0,0,0,0,0,0,0,0,0,0,0,0,0,0,0,0,0,0,0,0,0,0,0,0,0,0,0,0,0,0,0,0,0,0,0,0,0,0,0,0,0,0,0,0,0,0,0,0,0,0,0,0,0,0,0,0,0,0,0,0,0,0,0,0,0,0,0,0,0,0,0,0,0,0,0,0,0,0,0,0,0,0,0,0,0,0,0,0,0,0,0,0,0,0,0,0,0,0,0,0,0,0,0,0,0,0,0,0,0,0,0,0,0,0,0,0,0,0,0,0,0,0,0,0,0,0,0,0,0,0,0,0,0,0,0,0,0,0,0,0,0,0,0,0,0,0,0,0,0,0,0,0,0,0,0,0,0,0,0,0,0,0,0,0,0,0,0,0,0,0,0,0,0],"trees":[{"base_weights":[-3.2414337E-5,9.788393E-3,-3.5857253E-3,4.107213E-4,-5.777247E-4],"categories":[],"categories_nodes":[],"categories_segments":[],"categories_sizes":[],"default_left":[0,0,0,0,0],"id":0,"left_children":[1,-1,3,-1,-1],"loss_changes":[3.3052492E0,0E0,9.5161694E-1,0E0,0E0],"parents":[2147483647,0,0,2,2],"right_children":[2,-1,4,-1,-1],"split_conditions":[1.7508E4,9.788393E-3,5.76E4,4.107213E-4,-5.777247E-4],"split_indices":[5,0,6,0,0],"split_type":[0,0,0,0,0],"sum_hessian":[2.299E3,2E1,2.279E3,1.132E3,1.147E3],"tree_param":{"num_deleted":"0","num_feature":"116","num_nodes":"5","size_leaf_vector":"1"}},{"base_weights":[-3.4519183E-4,8.763936E-3,-2.9120657E-3,1.6824055E-2,-5.5462733E-4,1.3874229E-2,4.395001E-3,1.5742786E-4,1.9525357E-3],"categories":[],"categories_nodes":[],"categories_segments":[],"categories_sizes":[],"default_left":[0,0,0,0,0,0,0,0,0],"id":1,"left_children":[1,-1,3,5,-1,7,-1,-1,-1],"loss_changes":[2.1198022E0,0E0,8.937699E-1,5.53447E-1,0E0,5.5074656E-1,0E0,0E0,0E0],"parents":[2147483647,0,0,2,2,3,3,5,5],"right_children":[2,-1,4,6,-1,8,-1,-1,-1],"split_conditions":[1.8238E4,8.763936E-3,5.76E4,2.310134E6,-5.5462733E-4,5.39E4,4.395001E-3,1.5742786E-4,1.9525357E-3],"split_indices":[3,0,6,1,0,4,0,0,0],"split_type":[0,0,0,0,0,0,0,0,0],"sum_hessian":[2.278E3,1.6E1,2.262E3,1.139E3,1.123E3,1.119E3,2E1,1.008E3,1.11E2],"tree_param":{"num_deleted":"0","num_feature":"116","num_nodes":"9","size_leaf_vector":"1"}},{"base_weights":[-2.2782937E-3,1.1347247E-2,-4.7784704E-3,4.3520238E-4,-6.5294915E-4],"categories":[],"categories_nodes":[],"categories_segments":[],"categories_sizes":[],"default_left":[0,0,0,0,0],"id":2,"left_children":[1,-1,3,-1,-1],"loss_changes":[2.6813722E0,0E0,1.1455669E0,0E0,0E0],"parents":[2147483647,0,0,2,2],"right_children":[2,-1,4,-1,-1],"split_conditions":[1.631E4,1.1347247E-2,5.76E4,4.3520238E-4,-6.5294915E-4],"split_indices":[4,0,6,0,0],"split_type":[0,0,0,0,0],"sum_hessian":[2.276E3,1.2E1,2.264E3,1.118E3,1.146E3],"tree_param":{"num_deleted":"0","num_feature":"116","num_nodes":"5","size_leaf_vector":"1"}},{"base_weights":[-1.5546656E-3,8.810713E-3,-4.546968E-3,3.339422E-2,-3.938328E-4,7.5771275E-4,1.4432756E-2],"categories":[],"categories_nodes":[],"categories_segments":[],"categories_sizes":[],"default_left":[0,0,0,0,0,0,0],"id":3,"left_children":[1,-1,3,5,-1,-1,-1],"loss_changes":[2.5638936E0,0E0,1.0348377E0,6.369179E-1,0E0,0E0,0E0],"parents":[2147483647,0,0,2,2,3,3],"right_children":[2,-1,4,6,-1,-1,-1],"split_conditions":[1.7508E4,8.810713E-3,3.825E4,3.4E3,-3.938328E-4,7.5771275E-4,1.4432756E-2],"split_indices":[5,0,3,0,0,0,0],"split_type":[0,0,0,0,0,0,0],"sum_hessian":[2.343E3,1.9E1,2.324E3,5.49E2,1.775E3,5.47E2,2E0],"tree_param":{"num_deleted":"0","num_feature":"116","num_nodes":"7","size_leaf_vector":"1"}},{"base_weights":[-7.106001E-5,1.1026808E-2,-1.852814E-3,1.6152125E-2,-7.4875046E-4,7.932976E-2,8.321156E-3,5.321092E-2,1.0296486E-2,1.0190412E-4,2.8367743E-3,2.4457974E-2,1.1266296E-3],"categories":[],"categories_nodes":[],"categories_segments":[],"categories_sizes":[],"default_left":[0,0,0,0,0,0,0,0,0,0,0,0,0],"id":4,"left_children":[1,-1,3,5,-1,7,9,11,-1,-1,-1,-1,-1],"loss_changes":[1.8787158E0,0E0,1.2079631E0,7.042554E-1,0E0,1.4190416E0,5.6678116E-1,9.2405117E-1,0E0,0E0,0E0,0E0,0E0],"parents":[2147483647,0,0,2,2,3,3,5,5,6,6,7,7],"right_children":[2,-1,4,6,-1,8,10,12,-1,-1,-1,-1,-1],"split_conditions":[1.631E4,1.1026808E-2,7.24E4,6.794967E9,-7.4875046E-4,3.045E4,6.8E4,-1.95E3,1.0296486E-2,1.0190412E-4,2.8367743E-3,2.4457974E-2,1.1266296E-3],"split_indices":[4,0,4,2,0,6,6,0,0,0,0,0,0],"split_type":[0,0,0,0,0,0,0,0,0,0,0,0,0],"sum_hessian":[2.314E3,9E0,2.305E3,1.424E3,8.81E2,1.57E2,1.267E3,1.46E2,1.1E1,1.221E3,4.6E1,1E0,1.45E2],"tree_param":{"num_deleted":"0","num_feature":"116","num_nodes":"13","size_leaf_vector":"1"}},{"base_weights":[-1.0620961E-3,1.0434541E-2,-2.9454553E-3,3.2523225E-4,-5.5426557E-4],"categories":[],"categories_nodes":[],"categories_segments":[],"categories_sizes":[],"default_left":[0,0,0,0,0],"id":5,"left_children":[1,-1,3,-1,-1],"loss_changes":[1.8787111E0,0E0,7.523669E-1,0E0,0E0],"parents":[2147483647,0,0,2,2],"right_children":[2,-1,4,-1,-1],"split_conditions":[1.631E4,1.0434541E-2,6E4,3.2523225E-4,-5.5426557E-4],"split_indices":[4,0,5,0,0],"split_type":[0,0,0,0,0],"sum_hessian":[2.308E3,1E1,2.298E3,1.262E3,1.036E3],"tree_param":{"num_deleted":"0","num_feature":"116","num_nodes":"5","size_leaf_vector":"1"}},{"base_weights":[9.339129E-4,7.6589785E-3,-1.7110629E-3,1.5020428E-2,-4.862043E-4,2.5790543E-4,3.6365099E-3],"categories":[],"categories_nodes":[],"categories_segments":[],"categories_sizes":[],"default_left":[0,0,0,0,0,0,0],"id":6,"left_children":[1,-1,3,5,-1,-1,-1],"loss_changes":[1.9100161E0,0E0,6.976239E-1,6.994419E-1,0E0,0E0,0E0],"parents":[2147483647,0,0,2,2,3,3],"right_children":[2,-1,4,6,-1,-1,-1],"split_conditions":[1.7508E4,7.6589785E-3,5.82E4,2.177607E6,-4.862043E-4,2.5790543E-4,3.6365099E-3],"split_indices":[5,0,5,1,0,0,0],"split_type":[0,0,0,0,0,0,0],"sum_hessian":[2.286E3,1.9E1,2.267E3,1.187E3,1.08E3,1.15E3,3.7E1],"tree_param":{"num_deleted":"0","num_feature":"116","num_nodes":"7","size_leaf_vector":"1"}},{"base_weights":[8.237662E-4,1.088842E-2,-1.1078015E-3,7.558422E-2,-6.3605853E-3,2.385243E-2,6.9410406E-2,9.772017E-6,-1.0499924E-3,5.2381933E-2,8.87701E-3,-2.6305246E-3,1.8794774E-3],"categories":[],"categories_nodes":[],"categories_segments":[],"categories_sizes":[],"default_left":[0,0,0,0,0,0,0,0,0,0,0,0,0],"id":7,"left_children":[1,-1,3,5,7,-1,9,-1,-1,11,-1,-1,-1],"loss_changes":[2.0280998E0,0E0,9.3641526E-1,8.345807E-1,5.455415E-1,0E0,7.488433E-1,0E0,0E0,5.7132375E-1,0E0,0E0,0E0],"parents":[2147483647,0,0,2,2,3,3,4,4,6,6,9,9],"right_children":[2,-1,4,6,8,-1,10,-1,-1,12,-1,-1,-1],"split_conditions":[1.631E4,1.088842E-2,7.2106143E9,-1.95E3,1.05E5,2.385243E-2,2.028533E6,9.772017E-6,-1.0499924E-3,1.16207E5,8.87701E-3,-2.6305246E-3,1.8794774E-3],"split_indices":[4,0,2,0,4,0,1,0,0,1,0,0,0],"split_type":[0,0,0,0,0,0,0,0,0,0,0,0,0],"sum_hessian":[2.335E3,1E1,2.325E3,1.49E2,2.176E3,1E0,1.48E2,1.84E3,3.36E2,1.4E2,8E0,1.9E1,1.21E2],"tree_param":{"num_deleted":"0","num_feature":"116","num_nodes":"13","size_leaf_vector":"1"}},{"base_weights":[1.0906446E-3,9.937423E-3,-5.271016E-4,4.0410532E-4,-5.233006E-4],"categories":[],"categories_nodes":[],"categories_segments":[],"categories_sizes":[],"default_left":[0,0,0,0,0],"id":8,"left_children":[1,-1,3,-1,-1],"loss_changes":[1.5173354E0,0E0,8.2883155E-1,0E0,0E0],"parents":[2147483647,0,0,2,2],"right_children":[2,-1,4,-1,-1],"split_conditions":[1.631E4,9.937423E-3,6.06E4,4.0410532E-4,-5.233006E-4],"split_indices":[4,0,6,0,0],"split_type":[0,0,0,0,0],"sum_hessian":[2.287E3,9E0,2.278E3,1.254E3,1.024E3],"tree_param":{"num_deleted":"0","num_feature":"116","num_nodes":"5","size_leaf_vector":"1"}},{"base_weights":[1.2568918E-3,9.209179E-3,-4.092959E-4,3.464257E-2,-2.8137947E-4,6.617554E-4,5.518549E-3],"categories":[],"categories_nodes":[],"categories_segments":[],"categories_sizes":[],"default_left":[0,0,0,0,0,0,0],"id":9,"left_children":[1,-1,3,5,-1,-1,-1],"loss_changes":[1.4466422E0,0E0,8.954258E-1,7.7709204E-1,0E0,0E0,0E0],"parents":[2147483647,0,0,2,2,3,3],"right_children":[2,-1,4,6,-1,-1,-1],"split_conditions":[1.631E4,9.209179E-3,3.825E4,2.24776E6,-2.8137947E-4,6.617554E-4,5.518549E-3],"split_indices":[4,0,3,1,0,0,0],"split_type":[0,0,0,0,0,0,0],"sum_hessian":[2.286E3,1E1,2.276E3,5.52E2,1.724E3,5.32E2,2E1],"tree_param":{"num_deleted":"0","num_feature":"116","num_nodes":"7","size_leaf_vector":"1"}},{"base_weights":[5.6701474E-4,7.162229E-3,-2.4423553E-3,3.304989E-2,-3.4221428E-4,6.429863E-4,5.503211E-3],"categories":[],"categories_nodes":[],"categories_segments":[],"categories_sizes":[],"default_left":[0,0,0,0,0,0,0],"id":10,"left_children":[1,-1,3,5,-1,-1,-1],"loss_changes":[2.029747E0,0E0,9.381661E-1,7.0333356E-1,0E0,0E0,0E0],"parents":[2147483647,0,0,2,2,3,3],"right_children":[2,-1,4,6,-1,-1,-1],"split_conditions":[1.7508E4,7.162229E-3,3.855E4,2.119111E6,-3.4221428E-4,6.429863E-4,5.503211E-3],"split_indices":[5,0,5,1,0,0,0],"split_type":[0,0,0,0,0,0,0],"sum_hessian":[2.281E3,2.3E1,2.258E3,5.6E2,1.698E3,5.42E2,1.8E1],"tree_param":{"num_deleted":"0","num_feature":"116","num_nodes":"7","size_leaf_vector":"1"}},{"base_weights":[-1.6276295E-3,6.087865E-3,-3.3912924E-3,2.509314E-2,-2.8834704E-4,4.5839587E-4,5.372982E-3],"categories":[],"categories_nodes":[],"categories_segments":[],"categories_sizes":[],"default_left":[0,0,0,0,0,0,0],"id":11,"left_children":[1,-1,3,5,-1,-1,-1],"loss_changes":[1.034077E0,0E0,5.5885625E-1,6.405696E-1,0E0,0E0,0E0],"parents":[2147483647,0,0,2,2,3,3],"right_children":[2,-1,4,6,-1,-1,-1],"split_conditions":[1.7508E4,6.087865E-3,3.735E4,2.177607E6,-2.8834704E-4,4.5839587E-4,5.372982E-3],"split_indices":[5,0,5,1,0,0,0],"split_type":[0,0,0,0,0,0,0],"sum_hessian":[2.316E3,1.6E1,2.3E3,5.3E2,1.77E3,5.14E2,1.6E1],"tree_param":{"num_deleted":"0","num_feature":"116","num_nodes":"7","size_leaf_vector":"1"}},{"base_weights":[-1.8179542E-3,6.6876565E-3,-4.1285455E-3,2.928843E-4,-5.145098E-4],"categories":[],"categories_nodes":[],"categories_segments":[],"categories_sizes":[],"default_left":[0,0,0,0,0],"id":12,"left_children":[1,-1,3,-1,-1],"loss_changes":[1.4841359E0,0E0,6.375669E-1,0E0,0E0],"parents":[2147483647,0,0,2,2],"right_children":[2,-1,4,-1,-1],"split_conditions":[1.8238E4,6.6876565E-3,5.87E4,2.928843E-4,-5.145098E-4],"split_indices":[3,0,3,0,0],"split_type":[0,0,0,0,0],"sum_hessian":[2.309E3,1.9E1,2.29E3,1.176E3,1.114E3],"tree_param":{"num_deleted":"0","num_feature":"116","num_nodes":"5","size_leaf_vector":"1"}},{"base_weights":[1.0692145E-3,1.0270213E-1,-5.801585E-3,8.131904E-2,1.281683E-2,2.5677425E-4,-5.1822077E-4,-2.4492098E-3,1.1177455E-1,2.321614E-2,1.0462144E-1,4.221373E-3,2.755427E-5],"categories":[],"categories_nodes":[],"categories_segments":[],"categories_sizes":[],"default_left":[0,0,0,0,0,0,0,0,0,0,0,0,0],"id":13,"left_children":[1,3,5,7,-1,-1,-1,-1,9,-1,11,-1,-1],"loss_changes":[1.6210377E0,1.3411219E0,5.5774665E-1,7.7853715E-1,0E0,0E0,0E0,0E0,7.248769E-1,0E0,8.6048484E-1,0E0,0E0],"parents":[2147483647,0,0,1,1,2,2,3,3,8,8,10,10],"right_children":[2,4,6,8,-1,-1,-1,-1,10,-1,12,-1,-1],"split_conditions":[5.9527455E9,3.24E4,5.87E4,1.16207E5,1.281683E-2,2.5677425E-4,-5.1822077E-4,-2.4492098E-3,-1.95E3,2.321614E-2,2.56E4,4.221373E-3,2.755427E-5],"split_indices":[2,4,3,1,0,0,0,0,0,0,3,0,0],"split_type":[0,0,0,0,0,0,0,0,0,0,0,0,0],"sum_hessian":[2.321E3,1.47E2,2.174E3,1.4E2,7E0,1.06E3,1.114E3,2E1,1.2E2,1E0,1.19E2,7.1E1,4.8E1],"tree_param":{"num_deleted":"0","num_feature":"116","num_nodes":"13","size_leaf_vector":"1"}},{"base_weights":[-2.2102487E-3,9.673785E-3,-3.7956755E-3,3.1188253E-4,-4.7522364E-4],"categories":[],"categories_nodes":[],"categories_segments":[],"categories_sizes":[],"default_left":[0,0,0,0,0],"id":14,"left_children":[1,-1,3,-1,-1],"loss_changes":[1.4615861E0,0E0,6.0464483E-1,0E0,0E0],"parents":[2147483647,0,0,2,2],"right_children":[2,-1,4,-1,-1],"split_conditions":[1.631E4,9.673785E-3,5.79E4,3.1188253E-4,-4.7522364E-4],"split_indices":[4,0,4,0,0],"split_type":[0,0,0,0,0],"sum_hessian":[2.294E3,9E0,2.285E3,1.113E3,1.172E3],"tree_param":{"num_deleted":"0","num_feature":"116","num_nodes":"5","size_leaf_vector":"1"}},{"base_weights":[1.7645999E-4,7.7577257E-3,-1.9406362E-3,3.6829614E-4,-4.7410544E-4],"categories":[],"categories_nodes":[],"categories_segments":[],"categories_sizes":[],"default_left":[0,0,0,0,0],"id":15,"left_children":[1,-1,3,-1,-1],"loss_changes":[1.551761E0,0E0,6.883451E-1,0E0,0E0],"parents":[2147483647,0,0,2,2],"right_children":[2,-1,4,-1,-1],"split_conditions":[1.7508E4,7.7577257E-3,5.76E4,3.6829614E-4,-4.7410544E-4],"split_indices":[5,0,6,0,0],"split_type":[0,0,0,0,0],"sum_hessian":[2.285E3,1.5E1,2.27E3,1.151E3,1.119E3],"tree_param":{"num_deleted":"0","num_feature":"116","num_nodes":"5","size_leaf_vector":"1"}},{"base_weights":[-5.309626E-3,8.067741E-3,-1.6518724E-4],"categories":[],"categories_nodes":[],"categories_segments":[],"categories_sizes":[],"default_left":[0,0,0],"id":16,"left_children":[1,-1,-1],"loss_changes":[1.1536282E0,0E0,0E0],"parents":[2147483647,0,0],"right_children":[2,-1,-1],"split_conditions":[1.5884E4,8.067741E-3,-1.6518724E-4],"split_indices":[6,0,0],"split_type":[0,0,0],"sum_hessian":[2.241E3,1E1,2.231E3],"tree_param":{"num_deleted":"0","num_feature":"116","num_nodes":"3","size_leaf_vector":"1"}},{"base_weights":[-1.5395605E-4,6.692406E-3,-6.0859315E-5],"categories":[],"categories_nodes":[],"categories_segments":[],"categories_sizes":[],"default_left":[0,0,0],"id":17,"left_children":[1,-1,-1],"loss_changes":[1.4688523E0,0E0,0E0],"parents":[2147483647,0,0],"right_children":[2,-1,-1],"split_conditions":[1.7508E4,6.692406E-3,-6.0859315E-5],"split_indices":[5,0,0],"split_type":[0,0,0],"sum_hessian":[2.247E3,1.9E1,2.228E3],"tree_param":{"num_deleted":"0","num_feature":"116","num_nodes":"3","size_leaf_vector":"1"}},{"base_weights":[1.2516695E-3,8.207877E-2,-1.2450777E-4,5.816652E-2,7.5109648E-3,8.301646E-3,4.0328342E-2,2.2643747E-2,8.233227E-4],"categories":[],"categories_nodes":[],"categories_segments":[],"categories_sizes":[],"default_left":[0,0,0,0,0,0,0,0,0],"id":18,"left_children":[1,3,-1,5,-1,-1,7,-1,-1],"loss_changes":[1.1914879E0,9.2222035E-1,0E0,7.769214E-1,0E0,0E0,8.08204E-1,0E0,0E0],"parents":[2147483647,0,0,1,1,3,3,6,6],"right_children":[2,4,-1,6,-1,-1,8,-1,-1],"split_conditions":[7.2106143E9,3.045E4,-1.2450777E-4,1.631E4,7.5109648E-3,8.301646E-3,-1.95E3,2.2643747E-2,8.233227E-4],"split_indices":[2,6,0,4,0,0,0,0,0],"split_type":[0,0,0,0,0,0,0,0,0],"sum_hessian":[2.303E3,1.69E2,2.134E3,1.53E2,1.6E1,9E0,1.44E2,1E0,1.43E2],"tree_param":{"num_deleted":"0","num_feature":"116","num_nodes":"9","size_leaf_vector":"1"}},{"base_weights":[1.6497136E-3,6.8769045E-3,-5.99504E-4,6.507945E-2,-1.20182915E-4,3.47093E-2,7.3079662E-3,2.2096176E-2,6.6744495E-4],"categories":[],"categories_nodes":[],"categories_segments":[],"categories_sizes":[],"default_left":[0,0,0,0,0,0,0,0,0],"id":19,"left_children":[1,-1,3,5,-1,7,-1,-1,-1],"loss_changes":[1.4498794E0,0E0,6.4871854E-1,1.0142347E0,0E0,7.786445E-1,0E0,0E0,0E0],"parents":[2147483647,0,0,2,2,3,3,5,5],"right_children":[2,-1,4,6,-1,8,-1,-1,-1],"split_conditions":[1.7508E4,6.8769045E-3,7.2106143E9,3.045E4,-1.20182915E-4,-1.95E3,7.3079662E-3,2.2096176E-2,6.6744495E-4],"split_indices":[5,0,2,6,0,0,0,0,0],"split_type":[0,0,0,0,0,0,0,0,0],"sum_hessian":[2.279E3,1.8E1,2.261E3,1.41E2,2.12E3,1.25E2,1.6E1,1E0,1.24E2],"tree_param":{"num_deleted":"0","num_feature":"116","num_nodes":"9","size_leaf_vector":"1"}},{"base_weights":[-6.282289E-4,8.591904E-3,-2.023904E-3,3.0050574E-2,-3.2699376E-4,5.347091E-4,5.188013E-3],"categories":[],"categories_nodes":[],"categories_segments":[],"categories_sizes":[],"default_left":[0,0,0,0,0,0,0],"id":20,"left_children":[1,-1,3,5,-1,-1,-1],"loss_changes":[1.14432E0,0E0,8.469349E-1,8.8708156E-1,0E0,0E0,0E0],"parents":[2147483647,0,0,2,2,3,3],"right_children":[2,-1,4,6,-1,-1,-1],"split_conditions":[1.631E4,8.591904E-3,3.88E4,2.177607E6,-3.2699376E-4,5.347091E-4,5.188013E-3],"split_indices":[4,0,5,1,0,0,0],"split_type":[0,0,0,0,0,0,0],"sum_hessian":[2.306E3,9E0,2.297E3,6.06E2,1.691E3,5.81E2,2.5E1],"tree_param":{"num_deleted":"0","num_feature":"116","num_nodes":"7","size_leaf_vector":"1"}},{"base_weights":[-1.0763643E-3,7.6731984E-3,-6.3422944E-5],"categories":[],"categories_nodes":[],"categories_segments":[],"categories_sizes":[],"default_left":[0,0,0],"id":21,"left_children":[1,-1,-1],"loss_changes":[1.1201671E0,0E0,0E0],"parents":[2147483647,0,0],"right_children":[2,-1,-1],"split_conditions":[1.631E4,7.6731984E-3,-6.3422944E-5],"split_indices":[4,0,0],"split_type":[0,0,0],"sum_hessian":[2.278E3,1.1E1,2.267E3],"tree_param":{"num_deleted":"0","num_feature":"116","num_nodes":"3","size_leaf_vector":"1"}},{"base_weights":[2.1453963E-3,6.343383E-3,-4.1243587E-5,3.0468588E-4,-4.9741607E-4],"categories":[],"categories_nodes":[],"categories_segments":[],"categories_sizes":[],"default_left":[0,0,0,0,0],"id":22,"left_children":[1,-1,3,-1,-1],"loss_changes":[1.2965324E0,0E0,5.860498E-1,0E0,0E0],"parents":[2147483647,0,0,2,2],"right_children":[2,-1,4,-1,-1],"split_conditions":[1.7508E4,6.343383E-3,7.02E4,3.0468588E-4,-4.9741607E-4],"split_indices":[5,0,5,0,0],"split_type":[0,0,0,0,0],"sum_hessian":[2.278E3,1.9E1,2.259E3,1.398E3,8.61E2],"tree_param":{"num_deleted":"0","num_feature":"116","num_nodes":"5","size_leaf_vector":"1"}},{"base_weights":[-1.2022894E-3,5.3721163E-3,-8.3051054E-5],"categories":[],"categories_nodes":[],"categories_segments":[],"categories_sizes":[],"default_left":[0,0,0],"id":23,"left_children":[1,-1,-1],"loss_changes":[1.1585503E0,0E0,0E0],"parents":[2147483647,0,0],"right_children":[2,-1,-1],"split_conditions":[1.7508E4,5.3721163E-3,-8.3051054E-5],"split_indices":[5,0,0],"split_type":[0,0,0],"sum_hessian":[2.326E3,2.3E1,2.303E3],"tree_param":{"num_deleted":"0","num_feature":"116","num_nodes":"3","size_leaf_vector":"1"}},{"base_weights":[3.4850507E-4,6.420614E-3,-3.426895E-5],"categories":[],"categories_nodes":[],"categories_segments":[],"categories_sizes":[],"default_left":[0,0,0],"id":24,"left_children":[1,-1,-1],"loss_changes":[1.0613776E0,0E0,0E0],"parents":[2147483647,0,0],"right_children":[2,-1,-1],"split_conditions":[1.7508E4,6.420614E-3,-3.426895E-5],"split_indices":[5,0,0],"split_type":[0,0,0],"sum_hessian":[2.266E3,1.5E1,2.251E3],"tree_param":{"num_deleted":"0","num_feature":"116","num_nodes":"3","size_leaf_vector":"1"}},{"base_weights":[-2.3592317E-3,6.185346E-3,-3.5895803E-3,5.4346485E-4,-3.1050664E-4],"categories":[],"categories_nodes":[],"categories_segments":[],"categories_sizes":[],"default_left":[0,0,0,0,0],"id":25,"left_children":[1,-1,3,-1,-1],"loss_changes":[7.363079E-1,0E0,5.567396E-1,0E0,0E0],"parents":[2147483647,0,0,2,2],"right_children":[2,-1,4,-1,-1],"split_conditions":[1.5979E4,6.185346E-3,3.96E4,5.4346485E-4,-3.1050664E-4],"split_indices":[3,0,3,0,0],"split_type":[0,0,0,0,0],"sum_hessian":[2.321E3,1.1E1,2.31E3,6.05E2,1.705E3],"tree_param":{"num_deleted":"0","num_feature":"116","num_nodes":"5","size_leaf_vector":"1"}},{"base_weights":[-1.6325007E-3,7.71285E-2,-1.7196128E-4,5.5130415E-2,1.1233531E-2,-2.8117218E-3,8.51475E-2,4.8920577E-3,7.457673E-4],"categories":[],"categories_nodes":[],"categories_segments":[],"categories_sizes":[],"default_left":[0,0,0,0,0,0,0,0,0],"id":26,"left_children":[1,3,-1,5,-1,-1,7,-1,-1],"loss_changes":[9.8859864E-1,1.2680635E0,0E0,7.2528565E-1,0E0,0E0,7.626634E-1,0E0,0E0],"parents":[2147483647,0,0,1,1,3,3,6,6],"right_children":[2,4,-1,6,-1,-1,8,-1,-1],"split_conditions":[6.794967E9,3.09E4,-1.7196128E-4,1.16207E5,1.1233531E-2,-2.8117218E-3,1.2183995E8,4.8920577E-3,7.457673E-4],"split_indices":[2,6,0,1,0,0,2,0,0],"split_type":[0,0,0,0,0,0,0,0,0],"sum_hessian":[2.292E3,1.49E2,2.143E3,1.41E2,8E0,2.1E1,1.2E2,3.8E1,8.2E1],"tree_param":{"num_deleted":"0","num_feature":"116","num_nodes":"9","size_leaf_vector":"1"}},{"base_weights":[3.2834333E-4,5.4167844E-3,-3.9020844E-5],"categories":[],"categories_nodes":[],"categories_segments":[],"categories_sizes":[],"default_left":[0,0,0],"id":27,"left_children":[1,-1,-1],"loss_changes":[1.0089649E0,0E0,0E0],"parents":[2147483647,0,0],"right_children":[2,-1,-1],"split_conditions":[1.7508E4,5.4167844E-3,-3.9020844E-5],"split_indices":[5,0,0],"split_type":[0,0,0],"sum_hessian":[2.322E3,2E1,2.302E3],"tree_param":{"num_deleted":"0","num_feature":"116","num_nodes":"3","size_leaf_vector":"1"}},{"base_weights":[2.1210022E-3,7.406225E-3,9.187644E-4,1.7280462E-4,-9.095579E-4],"categories":[],"categories_nodes":[],"categories_segments":[],"categories_sizes":[],"default_left":[0,0,0,0,0],"id":28,"left_children":[1,-1,3,-1,-1],"loss_changes":[8.3559674E-1,0E0,5.46569E-1,0E0,0E0],"parents":[2147483647,0,0,2,2],"right_children":[2,-1,4,-1,-1],"split_conditions":[1.5553E4,7.406225E-3,1.05E5,1.7280462E-4,-9.095579E-4],"split_indices":[5,0,4,0,0],"split_type":[0,0,0,0,0],"sum_hessian":[2.288E3,9E0,2.279E3,1.962E3,3.17E2],"tree_param":{"num_deleted":"0","num_feature":"116","num_nodes":"5","size_leaf_vector":"1"}},{"base_weights":[1.8031544E-4,7.68879E-2,-1.2818404E-4,6.149586E-2,1.2938581E-2,2.1411244E-2,5.5908956E-2,7.0147547E-3,8.970162E-4],"categories":[],"categories_nodes":[],"categories_segments":[],"categories_sizes":[],"default_left":[0,0,0,0,0,0,0,0,0],"id":29,"left_children":[1,3,-1,5,-1,-1,7,-1,-1],"loss_changes":[9.7086877E-1,1.0840641E0,0E0,6.8299013E-1,0E0,0E0,6.511798E-1,0E0,0E0],"parents":[2147483647,0,0,1,1,3,3,6,6],"right_children":[2,4,-1,6,-1,-1,8,-1,-1],"split_conditions":[5.9527455E9,3.24E4,-1.2818404E-4,-1.95E3,1.2938581E-2,2.1411244E-2,1.631E4,7.0147547E-3,8.970162E-4],"split_indices":[2,4,0,0,0,0,4,0,0],"split_type":[0,0,0,0,0,0,0,0,0],"sum_hessian":[2.309E3,1.54E2,2.155E3,1.49E2,5E0,1E0,1.48E2,1.1E1,1.37E2],"tree_param":{"num_deleted":"0","num_feature":"116","num_nodes":"9","size_leaf_vector":"1"}},{"base_weights":[4.076268E-4,7.1729915E-3,-2.1026623E-5],"categories":[],"categories_nodes":[],"categories_segments":[],"categories_sizes":[],"default_left":[0,0,0],"id":30,"left_children":[1,-1,-1],"loss_changes":[8.809712E-1,0E0,0E0],"parents":[2147483647,0,0],"right_children":[2,-1,-1],"split_conditions":[1.631E4,7.1729915E-3,-2.1026623E-5],"split_indices":[4,0,0],"split_type":[0,0,0],"sum_hessian":[2.327E3,1E1,2.317E3],"tree_param":{"num_deleted":"0","num_feature":"116","num_nodes":"3","size_leaf_vector":"1"}},{"base_weights":[-1.978453E-3,5.5895858E-3,-7.498484E-5],"categories":[],"categories_nodes":[],"categories_segments":[],"categories_sizes":[],"default_left":[0,0,0],"id":31,"left_children":[1,-1,-1],"loss_changes":[6.0053635E-1,0E0,0E0],"parents":[2147483647,0,0],"right_children":[2,-1,-1],"split_conditions":[1.5884E4,5.5895858E-3,-7.498484E-5],"split_indices":[6,0,0],"split_type":[0,0,0],"sum_hessian":[2.299E3,1.1E1,2.288E3],"tree_param":{"num_deleted":"0","num_feature":"116","num_nodes":"3","size_leaf_vector":"1"}},{"base_weights":[1.10890585E-4,7.244947E-2,-1.2418344E-4,1.1670567E-3,8.719705E-3],"categories":[],"categories_nodes":[],"categories_segments":[],"categories_sizes":[],"default_left":[0,0,0,0,0],"id":32,"left_children":[1,3,-1,-1,-1],"loss_changes":[8.698955E-1,1.0791926E0,0E0,0E0,0E0],"parents":[2147483647,0,0,1,1],"right_children":[2,4,-1,-1,-1],"split_conditions":[6.794967E9,2.99E4,-1.2418344E-4,1.1670567E-3,8.719705E-3],"split_indices":[2,6,0,0,0],"split_type":[0,0,0,0,0],"sum_hessian":[2.292E3,1.55E2,2.137E3,1.43E2,1.2E1],"tree_param":{"num_deleted":"0","num_feature":"116","num_nodes":"5","size_leaf_vector":"1"}},{"base_weights":[8.756031E-4,5.2430904E-3,-7.273451E-4,3.5889578E-4,-4.774864E-4],"categories":[],"categories_nodes":[],"categories_segments":[],"categories_sizes":[],"default_left":[0,0,0,0,0],"id":33,"left_children":[1,-1,3,-1,-1],"loss_changes":[7.9837316E-1,0E0,6.772597E-1,0E0,0E0],"parents":[2147483647,0,0,2,2],"right_children":[2,-1,4,-1,-1],"split_conditions":[1.7508E4,5.2430904E-3,6E4,3.5889578E-4,-4.774864E-4],"split_indices":[5,0,5,0,0],"split_type":[0,0,0,0,0],"sum_hessian":[2.305E3,1.7E1,2.288E3,1.258E3,1.03E3],"tree_param":{"num_deleted":"0","num_feature":"116","num_nodes":"5","size_leaf_vector":"1"}},{"base_weights":[-1.8063954E-4,7.9410896E-2,-1.4222259E-4,5.2501027E-2,1.031571E-2,-3.2536392E-3,7.9674095E-2,4.4454397E-3,2.6303142E-2,2.0858899E-2,3.8558117E-4],"categories":[],"categories_nodes":[],"categories_segments":[],"categories_sizes":[],"default_left":[0,0,0,0,0,0,0,0,0,0,0],"id":34,"left_children":[1,3,-1,5,-1,-1,7,-1,9,-1,-1],"loss_changes":[1.0386544E0,1.4277132E0,0E0,7.215038E-1,0E0,0E0,6.885154E-1,0E0,7.077842E-1,0E0,0E0],"parents":[2147483647,0,0,1,1,3,3,6,6,8,8],"right_children":[2,4,-1,6,-1,-1,8,-1,10,-1,-1],"split_conditions":[5.9527455E9,3.045E4,-1.4222259E-4,1.16207E5,1.031571E-2,-3.2536392E-3,1.0264653E8,4.4454397E-3,-1.95E3,2.0858899E-2,3.8558117E-4],"split_indices":[2,6,0,1,0,0,2,0,0,0,0],"split_type":[0,0,0,0,0,0,0,0,0,0,0],"sum_hessian":[2.29E3,1.53E2,2.137E3,1.42E2,1.1E1,1.8E1,1.24E2,4.2E1,8.2E1,1E0,8.1E1],"tree_param":{"num_deleted":"0","num_feature":"116","num_nodes":"11","size_leaf_vector":"1"}},{"base_weights":[1.2542431E-3,4.6964632E-3,-4.153401E-6],"categories":[],"categories_nodes":[],"categories_segments":[],"categories_sizes":[],"default_left":[0,0,0],"id":35,"left_children":[1,-1,-1],"loss_changes":[6.3745224E-1,0E0,0E0],"parents":[2147483647,0,0],"right_children":[2,-1,-1],"split_conditions":[1.7508E4,4.6964632E-3,-4.153401E-6],"split_indices":[5,0,0],"split_type":[0,0,0],"sum_hessian":[2.315E3,1.7E1,2.298E3],"tree_param":{"num_deleted":"0","num_feature":"116","num_nodes":"3","size_leaf_vector":"1"}},{"base_weights":[2.7053112E-3,5.0008623E-3,3.0595806E-5],"categories":[],"categories_nodes":[],"categories_segments":[],"categories_sizes":[],"default_left":[0,0,0],"id":36,"left_children":[1,-1,-1],"loss_changes":[6.709691E-1,0E0,0E0],"parents":[2147483647,0,0],"right_children":[2,-1,-1],"split_conditions":[1.7508E4,5.0008623E-3,3.0595806E-5],"split_indices":[5,0,0],"split_type":[0,0,0],"sum_hessian":[2.285E3,1.6E1,2.269E3],"tree_param":{"num_deleted":"0","num_feature":"116","num_nodes":"3","size_leaf_vector":"1"}},{"base_weights":[-1.3150633E-3,6.1473086E-2,-1.3023904E-4,9.4262953E-4,1.0524076E-2],"categories":[],"categories_nodes":[],"categories_segments":[],"categories_sizes":[],"default_left":[0,0,0,0,0],"id":37,"left_children":[1,3,-1,-1,-1],"loss_changes":[5.9192324E-1,1.1839714E0,0E0,0E0,0E0],"parents":[2147483647,0,0,1,1],"right_children":[2,4,-1,-1,-1],"split_conditions":[5.9527455E9,3.18E4,-1.3023904E-4,9.4262953E-4,1.0524076E-2],"split_indices":[2,4,0,0,0],"split_type":[0,0,0,0,0],"sum_hessian":[2.317E3,1.41E2,2.176E3,1.33E2,8E0],"tree_param":{"num_deleted":"0","num_feature":"116","num_nodes":"5","size_leaf_vector":"1"}},{"base_weights":[-1.9180973E-4,6.662356E-2,-1.21158824E-4,9.247115E-4,8.619604E-3],"categories":[],"categories_nodes":[],"categories_segments":[],"categories_sizes":[],"default_left":[0,0,0,0,0],"id":38,"left_children":[1,3,-1,-1,-1],"loss_changes":[7.514479E-1,1.2903962E0,0E0,0E0,0E0],"parents":[2147483647,0,0,1,1],"right_children":[2,4,-1,-1,-1],"split_conditions":[6.794967E9,3.045E4,-1.21158824E-4,9.247115E-4,8.619604E-3],"split_indices":[2,6,0,0,0],"split_type":[0,0,0,0,0],"sum_hessian":[2.335E3,1.57E2,2.178E3,1.43E2,1.4E1],"tree_param":{"num_deleted":"0","num_feature":"116","num_nodes":"5","size_leaf_vector":"1"}},{"base_weights":[1.1789445E-3,6.715056E-3,4.5045076E-6],"categories":[],"categories_nodes":[],"categories_segments":[],"categories_sizes":[],"default_left":[0,0,0],"id":39,"left_children":[1,-1,-1],"loss_changes":[6.136722E-1,0E0,0E0],"parents":[2147483647,0,0],"right_children":[2,-1,-1],"split_conditions":[1.631E4,6.715056E-3,4.5045076E-6],"split_indices":[4,0,0],"split_type":[0,0,0],"sum_hessian":[2.239E3,8E0,2.231E3],"tree_param":{"num_deleted":"0","num_feature":"116","num_nodes":"3","size_leaf_vector":"1"}},{"base_weights":[2.0811401E-4],"categories":[],"categories_nodes":[],"categories_segments":[],"categories_sizes":[],"default_left":[0],"id":40,"left_children":[-1],"loss_changes":[0E0],"parents":[2147483647],"right_children":[-1],"split_conditions":[5.0333924E-6],"split_indices":[0],"split_type":[0],"sum_hessian":[2.273E3],"tree_param":{"num_deleted":"0","num_feature":"116","num_nodes":"1","size_leaf_vector":"1"}},{"base_weights":[9.82284E-4,6.0800887E-3,-3.725683E-7],"categories":[],"categories_nodes":[],"categories_segments":[],"categories_sizes":[],"default_left":[0,0,0],"id":41,"left_children":[1,-1,-1],"loss_changes":[5.666038E-1,0E0,0E0],"parents":[2147483647,0,0],"right_children":[2,-1,-1],"split_conditions":[1.631E4,6.0800887E-3,-3.725683E-7],"split_indices":[4,0,0],"split_type":[0,0,0],"sum_hessian":[2.265E3,9E0,2.256E3],"tree_param":{"num_deleted":"0","num_feature":"116","num_nodes":"3","size_leaf_vector":"1"}},{"base_weights":[2.3897828E-3,1.9044138E-2,-3.6194496E-4,-3.4269637E-3,2.2010293E-2,3.6939501E-3,1.7249739E-2,1.2846778E-2,3.1633861E-3,1.2517572E-4,2.0119334E-3],"categories":[],"categories_nodes":[],"categories_segments":[],"categories_sizes":[],"default_left":[0,0,0,0,0,0,0,0,0,0,0],"id":42,"left_children":[1,3,-1,-1,5,-1,7,9,-1,-1,-1],"loss_changes":[6.569917E-1,5.527054E-1,0E0,0E0,7.08312E-1,0E0,5.490092E-1,5.706273E-1,0E0,0E0,0E0],"parents":[2147483647,0,0,1,1,4,4,6,6,7,7],"right_children":[2,4,-1,-1,6,-1,8,10,-1,-1,-1],"split_conditions":[5.76E4,1.16207E5,-3.6194496E-4,-3.4269637E-3,1.0264653E8,3.6939501E-3,2.177607E6,5.31E4,3.1633861E-3,1.2517572E-4,2.0119334E-3],"split_indices":[6,1,0,0,2,0,1,3,0,0,0],"split_type":[0,0,0,0,0,0,0,0,0,0,0],"sum_hessian":[2.273E3,1.16E3,1.113E3,2.1E1,1.139E3,4E1,1.099E3,1.058E3,4.1E1,9.54E2,1.04E2],"tree_param":{"num_deleted":"0","num_feature":"116","num_nodes":"11","size_leaf_vector":"1"}},{"base_weights":[1.6046646E-3],"categories":[],"categories_nodes":[],"categories_segments":[],"categories_sizes":[],"default_left":[0],"id":43,"left_children":[-1],"loss_changes":[0E0],"parents":[2147483647],"right_children":[-1],"split_conditions":[3.881001E-5],"split_indices":[0],"split_type":[0],"sum_hessian":[2.294E3],"tree_param":{"num_deleted":"0","num_feature":"116","num_nodes":"1","size_leaf_vector":"1"}},{"base_weights":[8.325436E-4],"categories":[],"categories_nodes":[],"categories_segments":[],"categories_sizes":[],"default_left":[0],"id":44,"left_children":[-1],"loss_changes":[0E0],"parents":[2147483647],"right_children":[-1],"split_conditions":[2.0135687E-5],"split_indices":[0],"split_type":[0],"sum_hessian":[2.272E3],"tree_param":{"num_deleted":"0","num_feature":"116","num_nodes":"1","size_leaf_vector":"1"}},{"base_weights":[-9.736409E-4],"categories":[],"categories_nodes":[],"categories_segments":[],"categories_sizes":[],"default_left":[0],"id":45,"left_children":[-1],"loss_changes":[0E0],"parents":[2147483647],"right_children":[-1],"split_conditions":[-2.354823E-5],"split_indices":[0],"split_type":[0],"sum_hessian":[2.315E3],"tree_param":{"num_deleted":"0","num_feature":"116","num_nodes":"1","size_leaf_vector":"1"}},{"base_weights":[-3.9056217E-4,3.574155E-4,-4.1399026E-4],"categories":[],"categories_nodes":[],"categories_segments":[],"categories_sizes":[],"default_left":[0,0,0],"id":46,"left_children":[1,-1,-1],"loss_changes":[5.878688E-1,0E0,0E0],"parents":[2147483647,0,0],"right_children":[2,-1,-1],"split_conditions":[5.87E4,3.574155E-4,-4.1399026E-4],"split_indices":[3,0,0],"split_type":[0,0,0],"sum_hessian":[2.317E3,1.215E3,1.102E3],"tree_param":{"num_deleted":"0","num_feature":"116","num_nodes":"3","size_leaf_vector":"1"}},{"base_weights":[-1.4247017E-3,1.6769343E-3,-1.3581243E-4],"categories":[],"categories_nodes":[],"categories_segments":[],"categories_sizes":[],"default_left":[0,0,0],"id":47,"left_children":[1,-1,-1],"loss_changes":[6.7887735E-1,0E0,0E0],"parents":[2147483647,0,0],"right_children":[2,-1,-1],"split_conditions":[2.49E4,1.6769343E-3,-1.3581243E-4],"split_indices":[5,0,0],"split_type":[0,0,0],"sum_hessian":[2.29E3,1.28E2,2.162E3],"tree_param":{"num_deleted":"0","num_feature":"116","num_nodes":"3","size_leaf_vector":"1"}},{"base_weights":[1.8354631E-3,6.57162E-2,-7.370561E-5,4.4998877E-2,6.9885813E-3,2.029923E-2,3.9683055E-2,8.722118E-2,-1.0829119E-3,-2.4166647E-3,3.3777873E-3],"categories":[],"categories_nodes":[],"categories_segments":[],"categories_sizes":[],"default_left":[0,0,0,0,0,0,0,0,0,0,0],"id":48,"left_children":[1,3,-1,5,-1,-1,7,9,-1,-1,-1],"loss_changes":[7.2478837E-1,7.6212674E-1,0E0,6.349958E-1,0E0,0E0,6.023711E-1,9.4222254E-1,0E0,0E0,0E0],"parents":[2147483647,0,0,1,1,3,3,6,6,7,7],"right_children":[2,4,-1,6,-1,-1,8,10,-1,-1,-1],"split_conditions":[7.8862694E9,3.045E4,-7.370561E-5,-1.95E3,6.9885813E-3,2.029923E-2,2.54E4,1.16207E5,-1.0829119E-3,-2.4166647E-3,3.3777873E-3],"split_indices":[2,6,0,0,0,0,5,1,0,0,0],"split_type":[0,0,0,0,0,0,0,0,0,0,0],"sum_hessian":[2.323E3,1.65E2,2.158E3,1.51E2,1.4E1,1E0,1.5E2,9.6E1,5.4E1,2.1E1,7.5E1],"tree_param":{"num_deleted":"0","num_feature":"116","num_nodes":"11","size_leaf_vector":"1"}},{"base_weights":[-2.7769787E-4,5.942043E-2,-1.07990076E-4,3.9180428E-2,1.03006E-2,1.9808356E-2,3.3743672E-2,7.8397825E-2,-1.3423916E-3,-2.4576695E-3,2.971344E-3],"categories":[],"categories_nodes":[],"categories_segments":[],"categories_sizes":[],"default_left":[0,0,0,0,0,0,0,0,0,0,0],"id":49,"left_children":[1,3,-1,5,-1,-1,7,9,-1,-1,-1],"loss_changes":[5.8353245E-1,1.1335037E0,0E0,6.122545E-1,0E0,0E0,5.7394505E-1,7.683497E-1,0E0,0E0,0E0],"parents":[2147483647,0,0,1,1,3,3,6,6,7,7],"right_children":[2,4,-1,6,-1,-1,8,10,-1,-1,-1],"split_conditions":[5.9527455E9,3.09E4,-1.07990076E-4,-1.95E3,1.03006E-2,1.9808356E-2,2.7136E4,1.16207E5,-1.3423916E-3,-2.4576695E-3,2.971344E-3],"split_indices":[2,6,0,0,0,0,4,1,0,0,0],"split_type":[0,0,0,0,0,0,0,0,0,0,0],"sum_hessian":[2.335E3,1.53E2,2.182E3,1.45E2,8E0,1E0,1.44E2,9.6E1,4.8E1,1.9E1,7.7E1],"tree_param":{"num_deleted":"0","num_feature":"116","num_nodes":"11","size_leaf_vector":"1"}},{"base_weights":[9.921584E-4,4.0592737E-3,-1.3353022E-5],"categories":[],"categories_nodes":[],"categories_segments":[],"categories_sizes":[],"default_left":[0,0,0],"id":50,"left_children":[1,-1,-1],"loss_changes":[5.900006E-1,0E0,0E0],"parents":[2147483647,0,0],"right_children":[2,-1,-1],"split_conditions":[1.7508E4,4.0592737E-3,-1.3353022E-5],"split_indices":[5,0,0],"split_type":[0,0,0],"sum_hessian":[2.288E3,2.1E1,2.267E3],"tree_param":{"num_deleted":"0","num_feature":"116","num_nodes":"3","size_leaf_vector":"1"}},{"base_weights":[-1.3319266E-5],"categories":[],"categories_nodes":[],"categories_segments":[],"categories_sizes":[],"default_left":[0],"id":51,"left_children":[-1],"loss_changes":[0E0],"parents":[2147483647],"right_children":[-1],"split_conditions":[-3.2213637E-7],"split_indices":[0],"split_type":[0],"sum_hessian":[2.277E3],"tree_param":{"num_deleted":"0","num_feature":"116","num_nodes":"1","size_leaf_vector":"1"}},{"base_weights":[-1.00523E-3],"categories":[],"categories_nodes":[],"categories_segments":[],"categories_sizes":[],"default_left":[0],"id":52,"left_children":[-1],"loss_changes":[0E0],"parents":[2147483647],"right_children":[-1],"split_conditions":[-2.4312236E-5],"split_indices":[0],"split_type":[0],"sum_hessian":[2.307E3],"tree_param":{"num_deleted":"0","num_feature":"116","num_nodes":"1","size_leaf_vector":"1"}},{"base_weights":[2.931959E-4,4.3309294E-3,-3.0233425E-5],"categories":[],"categories_nodes":[],"categories_segments":[],"categories_sizes":[],"default_left":[0,0,0],"id":53,"left_children":[1,-1,-1],"loss_changes":[6.4473945E-1,0E0,0E0],"parents":[2147483647,0,0],"right_children":[2,-1,-1],"split_conditions":[1.7508E4,4.3309294E-3,-3.0233425E-5],"split_indices":[5,0,0],"split_type":[0,0,0],"sum_hessian":[2.335E3,2E1,2.315E3],"tree_param":{"num_deleted":"0","num_feature":"116","num_nodes":"3","size_leaf_vector":"1"}},{"base_weights":[-6.583599E-4],"categories":[],"categories_nodes":[],"categories_segments":[],"categories_sizes":[],"default_left":[0],"id":54,"left_children":[-1],"loss_changes":[0E0],"parents":[2147483647],"right_children":[-1],"split_conditions":[-1.5922924E-5],"split_indices":[0],"split_type":[0],"sum_hessian":[2.298E3],"tree_param":{"num_deleted":"0","num_feature":"116","num_nodes":"1","size_leaf_vector":"1"}},{"base_weights":[-3.3040158E-4],"categories":[],"categories_nodes":[],"categories_segments":[],"categories_sizes":[],"default_left":[0],"id":55,"left_children":[-1],"loss_changes":[0E0],"parents":[2147483647],"right_children":[-1],"split_conditions":[-7.991009E-6],"split_indices":[0],"split_type":[0],"sum_hessian":[2.272E3],"tree_param":{"num_deleted":"0","num_feature":"116","num_nodes":"1","size_leaf_vector":"1"}},{"base_weights":[-2.1587848E-3],"categories":[],"categories_nodes":[],"categories_segments":[],"categories_sizes":[],"default_left":[0],"id":56,"left_children":[-1],"loss_changes":[0E0],"parents":[2147483647],"right_children":[-1],"split_conditions":[-5.2211817E-5],"split_indices":[0],"split_type":[0],"sum_hessian":[2.286E3],"tree_param":{"num_deleted":"0","num_feature":"116","num_nodes":"1","size_leaf_vector":"1"}},{"base_weights":[5.982405E-4,5.8505792E-2,-1.039741E-4,-3.0706052E-3,1.9481189E-3],"categories":[],"categories_nodes":[],"categories_segments":[],"categories_sizes":[],"default_left":[0,0,0,0,0],"id":57,"left_children":[1,3,-1,-1,-1],"loss_changes":[6.509896E-1,7.3163617E-1,0E0,0E0,0E0],"parents":[2147483647,0,0,1,1],"right_children":[2,4,-1,-1,-1],"split_conditions":[7.8862694E9,1.16207E5,-1.039741E-4,-3.0706052E-3,1.9481189E-3],"split_indices":[2,1,0,0,0],"split_type":[0,0,0,0,0],"sum_hessian":[2.295E3,1.79E2,2.116E3,1.9E1,1.6E2],"tree_param":{"num_deleted":"0","num_feature":"116","num_nodes":"5","size_leaf_vector":"1"}},{"base_weights":[5.280107E-4],"categories":[],"categories_nodes":[],"categories_segments":[],"categories_sizes":[],"default_left":[0],"id":58,"left_children":[-1],"loss_changes":[0E0],"parents":[2147483647],"right_children":[-1],"split_conditions":[1.2770332E-5],"split_indices":[0],"split_type":[0],"sum_hessian":[2.257E3],"tree_param":{"num_deleted":"0","num_feature":"116","num_nodes":"1","size_leaf_vector":"1"}},{"base_weights":[1.5926531E-3],"categories":[],"categories_nodes":[],"categories_segments":[],"categories_sizes":[],"default_left":[0],"id":59,"left_children":[-1],"loss_changes":[0E0],"parents":[2147483647],"right_children":[-1],"split_conditions":[3.85195E-5],"split_indices":[0],"split_type":[0],"sum_hessian":[2.287E3],"tree_param":{"num_deleted":"0","num_feature":"116","num_nodes":"1","size_leaf_vector":"1"}},{"base_weights":[1.2976528E-3,2.8335258E-2,-2.1297741E-4,5.692379E-4,5.171335E-3],"categories":[],"categories_nodes":[],"categories_segments":[],"categories_sizes":[],"default_left":[0,0,0,0,0],"id":60,"left_children":[1,3,-1,-1,-1],"loss_changes":[6.376503E-1,5.6455404E-1,0E0,0E0,0E0],"parents":[2147483647,0,0,1,1],"right_children":[2,4,-1,-1,-1],"split_conditions":[3.98E4,2.310134E6,-2.1297741E-4,5.692379E-4,5.171335E-3],"split_indices":[3,1,0,0,0],"split_type":[0,0,0,0,0],"sum_hessian":[2.334E3,6.35E2,1.699E3,6.19E2,1.6E1],"tree_param":{"num_deleted":"0","num_feature":"116","num_nodes":"5","size_leaf_vector":"1"}},{"base_weights":[1.8997282E-4],"categories":[],"categories_nodes":[],"categories_segments":[],"categories_sizes":[],"default_left":[0],"id":61,"left_children":[-1],"loss_changes":[0E0],"parents":[2147483647],"right_children":[-1],"split_conditions":[4.5946344E-6],"split_indices":[0],"split_type":[0],"sum_hessian":[2.272E3],"tree_param":{"num_deleted":"0","num_feature":"116","num_nodes":"1","size_leaf_vector":"1"}},{"base_weights":[-1.7490766E-3,5.9745676E-4,-2.771739E-4],"categories":[],"categories_nodes":[],"categories_segments":[],"categories_sizes":[],"default_left":[0,0,0],"id":62,"left_children":[1,-1,-1],"loss_changes":[5.969465E-1,0E0,0E0],"parents":[2147483647,0,0],"right_children":[2,-1,-1],"split_conditions":[3.98E4,5.9745676E-4,-2.771739E-4],"split_indices":[3,0,0],"split_type":[0,0,0],"sum_hessian":[2.324E3,6.24E2,1.7E3],"tree_param":{"num_deleted":"0","num_feature":"116","num_nodes":"3","size_leaf_vector":"1"}},{"base_weights":[1.6554983E-3,6.474593E-2,-6.385117E-5,4.3864857E-2,8.376534E-3,1.9256167E-2,9.245664E-4],"categories":[],"categories_nodes":[],"categories_segments":[],"categories_sizes":[],"default_left":[0,0,0,0,0,0,0],"id":63,"left_children":[1,3,-1,5,-1,-1,-1],"loss_changes":[6.164523E-1,8.5145634E-1,0E0,5.700644E-1,0E0,0E0,0E0],"parents":[2147483647,0,0,1,1,3,3],"right_children":[2,4,-1,6,-1,-1,-1],"split_conditions":[6.794967E9,3.045E4,-6.385117E-5,-1.95E3,8.376534E-3,1.9256167E-2,9.245664E-4],"split_indices":[2,6,0,0,0,0,0],"split_type":[0,0,0,0,0,0,0],"sum_hessian":[2.274E3,1.45E2,2.129E3,1.35E2,1E1,1E0,1.34E2],"tree_param":{"num_deleted":"0","num_feature":"116","num_nodes":"7","size_leaf_vector":"1"}},{"base_weights":[-1.491922E-3],"categories":[],"categories_nodes":[],"categories_segments":[],"categories_sizes":[],"default_left":[0],"id":64,"left_children":[-1],"loss_changes":[0E0],"parents":[2147483647],"right_children":[-1],"split_conditions":[-3.6083246E-5],"split_indices":[0],"split_type":[0],"sum_hessian":[2.278E3],"tree_param":{"num_deleted":"0","num_feature":"116","num_nodes":"1","size_leaf_vector":"1"}},{"base_weights":[1.341694E-3],"categories":[],"categories_nodes":[],"categories_segments":[],"categories_sizes":[],"default_left":[0],"id":65,"left_children":[-1],"loss_changes":[0E0],"parents":[2147483647],"right_children":[-1],"split_conditions":[3.244987E-5],"split_indices":[0],"split_type":[0],"sum_hessian":[2.307E3],"tree_param":{"num_deleted":"0","num_feature":"116","num_nodes":"1","size_leaf_vector":"1"}},{"base_weights":[3.6376168E-4],"categories":[],"categories_nodes":[],"categories_segments":[],"categories_sizes":[],"default_left":[0],"id":66,"left_children":[-1],"loss_changes":[0E0],"parents":[2147483647],"right_children":[-1],"split_conditions":[8.797847E-6],"split_indices":[0],"split_type":[0],"sum_hessian":[2.323E3],"tree_param":{"num_deleted":"0","num_feature":"116","num_nodes":"1","size_leaf_vector":"1"}},{"base_weights":[-6.198572E-4],"categories":[],"categories_nodes":[],"categories_segments":[],"categories_sizes":[],"default_left":[0],"id":67,"left_children":[-1],"loss_changes":[0E0],"parents":[2147483647],"right_children":[-1],"split_conditions":[-1.4991709E-5],"split_indices":[0],"split_type":[0],"sum_hessian":[2.319E3],"tree_param":{"num_deleted":"0","num_feature":"116","num_nodes":"1","size_leaf_vector":"1"}},{"base_weights":[1.094328E-3,6.4954854E-4,-2.0119078E-4],"categories":[],"categories_nodes":[],"categories_segments":[],"categories_sizes":[],"default_left":[0,0,0],"id":68,"left_children":[1,-1,-1],"loss_changes":[5.6725794E-1,0E0,0E0],"parents":[2147483647,0,0],"right_children":[2,-1,-1],"split_conditions":[4.02E4,6.4954854E-4,-2.0119078E-4],"split_indices":[3,0,0],"split_type":[0,0,0],"sum_hessian":[2.339E3,6.26E2,1.713E3],"tree_param":{"num_deleted":"0","num_feature":"116","num_nodes":"3","size_leaf_vector":"1"}},{"base_weights":[-1.9094358E-3],"categories":[],"categories_nodes":[],"categories_segments":[],"categories_sizes":[],"default_left":[0],"id":69,"left_children":[-1],"loss_changes":[0E0],"parents":[2147483647],"right_children":[-1],"split_conditions":[-4.618113E-5],"split_indices":[0],"split_type":[0],"sum_hessian":[2.302E3],"tree_param":{"num_deleted":"0","num_feature":"116","num_nodes":"1","size_leaf_vector":"1"}},{"base_weights":[4.183034E-4],"categories":[],"categories_nodes":[],"categories_segments":[],"categories_sizes":[],"default_left":[0],"id":70,"left_children":[-1],"loss_changes":[0E0],"parents":[2147483647],"right_children":[-1],"split_conditions":[1.0116979E-5],"split_indices":[0],"split_type":[0],"sum_hessian":[2.315E3],"tree_param":{"num_deleted":"0","num_feature":"116","num_nodes":"1","size_leaf_vector":"1"}},{"base_weights":[-1.3164186E-3],"categories":[],"categories_nodes":[],"categories_segments":[],"categories_sizes":[],"default_left":[0],"id":71,"left_children":[-1],"loss_changes":[0E0],"parents":[2147483647],"right_children":[-1],"split_conditions":[-3.1838565E-5],"split_indices":[0],"split_type":[0],"sum_hessian":[2.323E3],"tree_param":{"num_deleted":"0","num_feature":"116","num_nodes":"1","size_leaf_vector":"1"}},{"base_weights":[2.4918208E-3],"categories":[],"categories_nodes":[],"categories_segments":[],"categories_sizes":[],"default_left":[0],"id":72,"left_children":[-1],"loss_changes":[0E0],"parents":[2147483647],"right_children":[-1],"split_conditions":[6.0266542E-5],"split_indices":[0],"split_type":[0],"sum_hessian":[2.316E3],"tree_param":{"num_deleted":"0","num_feature":"116","num_nodes":"1","size_leaf_vector":"1"}},{"base_weights":[1.99508E-4,3.7304743E-4,-3.7478958E-4],"categories":[],"categories_nodes":[],"categories_segments":[],"categories_sizes":[],"default_left":[0,0,0],"id":73,"left_children":[1,-1,-1],"loss_changes":[5.460348E-1,0E0,0E0],"parents":[2147483647,0,0],"right_children":[2,-1,-1],"split_conditions":[5.72E4,3.7304743E-4,-3.7478958E-4],"split_indices":[6,0,0],"split_type":[0,0,0],"sum_hessian":[2.285E3,1.16E3,1.125E3],"tree_param":{"num_deleted":"0","num_feature":"116","num_nodes":"3","size_leaf_vector":"1"}},{"base_weights":[-5.0334947E-4],"categories":[],"categories_nodes":[],"categories_segments":[],"categories_sizes":[],"default_left":[0],"id":74,"left_children":[-1],"loss_changes":[0E0],"parents":[2147483647],"right_children":[-1],"split_conditions":[-1.2173882E-5],"split_indices":[0],"split_type":[0],"sum_hessian":[2.317E3],"tree_param":{"num_deleted":"0","num_feature":"116","num_nodes":"1","size_leaf_vector":"1"}},{"base_weights":[-1.434566E-3],"categories":[],"categories_nodes":[],"categories_segments":[],"categories_sizes":[],"default_left":[0],"id":75,"left_children":[-1],"loss_changes":[0E0],"parents":[2147483647],"right_children":[-1],"split_conditions":[-3.4696048E-5],"split_indices":[0],"split_type":[0],"sum_hessian":[2.305E3],"tree_param":{"num_deleted":"0","num_feature":"116","num_nodes":"1","size_leaf_vector":"1"}},{"base_weights":[-3.9483004E-4],"categories":[],"categories_nodes":[],"categories_segments":[],"categories_sizes":[],"default_left":[0],"id":76,"left_children":[-1],"loss_changes":[0E0],"parents":[2147483647],"right_children":[-1],"split_conditions":[-9.549259E-6],"split_indices":[0],"split_type":[0],"sum_hessian":[2.272E3],"tree_param":{"num_deleted":"0","num_feature":"116","num_nodes":"1","size_leaf_vector":"1"}},{"base_weights":[3.413836E-3,6.6133834E-2,-3.1966163E-5,1.0809649E-3,8.71094E-3],"categories":[],"categories_nodes":[],"categories_segments":[],"categories_sizes":[],"default_left":[0,0,0,0,0],"id":77,"left_children":[1,3,-1,-1,-1],"loss_changes":[6.853981E-1,1.0200517E0,0E0,0E0,0E0],"parents":[2147483647,0,0,1,1],"right_children":[2,4,-1,-1,-1],"split_conditions":[6.794967E9,3.045E4,-3.1966163E-5,1.0809649E-3,8.71094E-3],"split_indices":[2,6,0,0,0],"split_type":[0,0,0,0,0],"sum_hessian":[2.307E3,1.62E2,2.145E3,1.51E2,1.1E1],"tree_param":{"num_deleted":"0","num_feature":"116","num_nodes":"5","size_leaf_vector":"1"}},{"base_weights":[-2.6134045E-5],"categories":[],"categories_nodes":[],"categories_segments":[],"categories_sizes":[],"default_left":[0],"id":78,"left_children":[-1],"loss_changes":[0E0],"parents":[2147483647],"right_children":[-1],"split_conditions":[-6.3207136E-7],"split_indices":[0],"split_type":[0],"sum_hessian":[2.272E3],"tree_param":{"num_deleted":"0","num_feature":"116","num_nodes":"1","size_leaf_vector":"1"}},{"base_weights":[5.440535E-5],"categories":[],"categories_nodes":[],"categories_segments":[],"categories_sizes":[],"default_left":[0],"id":79,"left_children":[-1],"loss_changes":[0E0],"parents":[2147483647],"right_children":[-1],"split_conditions":[1.315834E-6],"split_indices":[0],"split_type":[0],"sum_hessian":[2.312E3],"tree_param":{"num_deleted":"0","num_feature":"116","num_nodes":"1","size_leaf_vector":"1"}},{"base_weights":[1.257854E-4],"categories":[],"categories_nodes":[],"categories_segments":[],"categories_sizes":[],"default_left":[0],"id":80,"left_children":[-1],"loss_changes":[0E0],"parents":[2147483647],"right_children":[-1],"split_conditions":[3.0422136E-6],"split_indices":[0],"split_type":[0],"sum_hessian":[2.282E3],"tree_param":{"num_deleted":"0","num_feature":"116","num_nodes":"1","size_leaf_vector":"1"}},{"base_weights":[1.4387354E-3],"categories":[],"categories_nodes":[],"categories_segments":[],"categories_sizes":[],"default_left":[0],"id":81,"left_children":[-1],"loss_changes":[0E0],"parents":[2147483647],"right_children":[-1],"split_conditions":[3.479689E-5],"split_indices":[0],"split_type":[0],"sum_hessian":[2.274E3],"tree_param":{"num_deleted":"0","num_feature":"116","num_nodes":"1","size_leaf_vector":"1"}},{"base_weights":[5.810294E-4],"categories":[],"categories_nodes":[],"categories_segments":[],"categories_sizes":[],"default_left":[0],"id":82,"left_children":[-1],"loss_changes":[0E0],"parents":[2147483647],"right_children":[-1],"split_conditions":[1.4052629E-5],"split_indices":[0],"split_type":[0],"sum_hessian":[2.329E3],"tree_param":{"num_deleted":"0","num_feature":"116","num_nodes":"1","size_leaf_vector":"1"}},{"base_weights":[3.224412E-3],"categories":[],"categories_nodes":[],"categories_segments":[],"categories_sizes":[],"default_left":[0],"id":83,"left_children":[-1],"loss_changes":[0E0],"parents":[2147483647],"right_children":[-1],"split_conditions":[7.7984805E-5],"split_indices":[0],"split_type":[0],"sum_hessian":[2.315E3],"tree_param":{"num_deleted":"0","num_feature":"116","num_nodes":"1","size_leaf_vector":"1"}},{"base_weights":[9.490316E-4],"categories":[],"categories_nodes":[],"categories_segments":[],"categories_sizes":[],"default_left":[0],"id":84,"left_children":[-1],"loss_changes":[0E0],"parents":[2147483647],"right_children":[-1],"split_conditions":[2.2953036E-5],"split_indices":[0],"split_type":[0],"sum_hessian":[2.284E3],"tree_param":{"num_deleted":"0","num_feature":"116","num_nodes":"1","size_leaf_vector":"1"}},{"base_weights":[7.3509733E-4],"categories":[],"categories_nodes":[],"categories_segments":[],"categories_sizes":[],"default_left":[0],"id":85,"left_children":[-1],"loss_changes":[0E0],"parents":[2147483647],"right_children":[-1],"split_conditions":[1.7778877E-5],"split_indices":[0],"split_type":[0],"sum_hessian":[2.269E3],"tree_param":{"num_deleted":"0","num_feature":"116","num_nodes":"1","size_leaf_vector":"1"}},{"base_weights":[-2.6846183E-5],"categories":[],"categories_nodes":[],"categories_segments":[],"categories_sizes":[],"default_left":[0],"id":86,"left_children":[-1],"loss_changes":[0E0],"parents":[2147483647],"right_children":[-1],"split_conditions":[-6.492949E-7],"split_indices":[0],"split_type":[0],"sum_hessian":[2.304E3],"tree_param":{"num_deleted":"0","num_feature":"116","num_nodes":"1","size_leaf_vector":"1"}},{"base_weights":[-2.8632616E-3],"categories":[],"categories_nodes":[],"categories_segments":[],"categories_sizes":[],"default_left":[0],"id":87,"left_children":[-1],"loss_changes":[0E0],"parents":[2147483647],"right_children":[-1],"split_conditions":[-6.925011E-5],"split_indices":[0],"split_type":[0],"sum_hessian":[2.28E3],"tree_param":{"num_deleted":"0","num_feature":"116","num_nodes":"1","size_leaf_vector":"1"}},{"base_weights":[2.3145715E-4],"categories":[],"categories_nodes":[],"categories_segments":[],"categories_sizes":[],"default_left":[0],"id":88,"left_children":[-1],"loss_changes":[0E0],"parents":[2147483647],"right_children":[-1],"split_conditions":[5.5979635E-6],"split_indices":[0],"split_type":[0],"sum_hessian":[2.305E3],"tree_param":{"num_deleted":"0","num_feature":"116","num_nodes":"1","size_leaf_vector":"1"}},{"base_weights":[-7.984335E-5,5.9166268E-2,-1.03002305E-4,3.787128E-2,8.119874E-3,1.8738845E-2,7.8991114E-4],"categories":[],"categories_nodes":[],"categories_segments":[],"categories_sizes":[],"default_left":[0,0,0,0,0,0,0],"id":89,"left_children":[1,3,-1,5,-1,-1,-1],"loss_changes":[5.786974E-1,9.058718E-1,0E0,5.4676586E-1,0E0,0E0,0E0],"parents":[2147483647,0,0,1,1,3,3],"right_children":[2,4,-1,6,-1,-1,-1],"split_conditions":[6.794967E9,3.24E4,-1.03002305E-4,-1.95E3,8.119874E-3,1.8738845E-2,7.8991114E-4],"split_indices":[2,4,0,0,0,0,0],"split_type":[0,0,0,0,0,0,0],"sum_hessian":[2.338E3,1.54E2,2.184E3,1.43E2,1.1E1,1E0,1.42E2],"tree_param":{"num_deleted":"0","num_feature":"116","num_nodes":"7","size_leaf_vector":"1"}},{"base_weights":[-5.51346E-4],"categories":[],"categories_nodes":[],"categories_segments":[],"categories_sizes":[],"default_left":[0],"id":90,"left_children":[-1],"loss_changes":[0E0],"parents":[2147483647],"right_children":[-1],"split_conditions":[-1.3334714E-5],"split_indices":[0],"split_type":[0],"sum_hessian":[2.333E3],"tree_param":{"num_deleted":"0","num_feature":"116","num_nodes":"1","size_leaf_vector":"1"}},{"base_weights":[-1.973543E-3],"categories":[],"categories_nodes":[],"categories_segments":[],"categories_sizes":[],"default_left":[0],"id":91,"left_children":[-1],"loss_changes":[0E0],"parents":[2147483647],"right_children":[-1],"split_conditions":[-4.773161E-5],"split_indices":[0],"split_type":[0],"sum_hessian":[2.313E3],"tree_param":{"num_deleted":"0","num_feature":"116","num_nodes":"1","size_leaf_vector":"1"}},{"base_weights":[-3.1590307E-4],"categories":[],"categories_nodes":[],"categories_segments":[],"categories_sizes":[],"default_left":[0],"id":92,"left_children":[-1],"loss_changes":[0E0],"parents":[2147483647],"right_children":[-1],"split_conditions":[-7.640351E-6],"split_indices":[0],"split_type":[0],"sum_hessian":[2.3E3],"tree_param":{"num_deleted":"0","num_feature":"116","num_nodes":"1","size_leaf_vector":"1"}},{"base_weights":[-2.2910709E-4],"categories":[],"categories_nodes":[],"categories_segments":[],"categories_sizes":[],"default_left":[0],"id":93,"left_children":[-1],"loss_changes":[0E0],"parents":[2147483647],"right_children":[-1],"split_conditions":[-5.5411256E-6],"split_indices":[0],"split_type":[0],"sum_hessian":[2.272E3],"tree_param":{"num_deleted":"0","num_feature":"116","num_nodes":"1","size_leaf_vector":"1"}},{"base_weights":[1.5929791E-3],"categories":[],"categories_nodes":[],"categories_segments":[],"categories_sizes":[],"default_left":[0],"id":94,"left_children":[-1],"loss_changes":[0E0],"parents":[2147483647],"right_children":[-1],"split_conditions":[3.8527385E-5],"split_indices":[0],"split_type":[0],"sum_hessian":[2.267E3],"tree_param":{"num_deleted":"0","num_feature":"116","num_nodes":"1","size_leaf_vector":"1"}},{"base_weights":[-5.6181696E-5],"categories":[],"categories_nodes":[],"categories_segments":[],"categories_sizes":[],"default_left":[0],"id":95,"left_children":[-1],"loss_changes":[0E0],"parents":[2147483647],"right_children":[-1],"split_conditions":[-1.3587962E-6],"split_indices":[0],"split_type":[0],"sum_hessian":[2.287E3],"tree_param":{"num_deleted":"0","num_feature":"116","num_nodes":"1","size_leaf_vector":"1"}},{"base_weights":[1.3908816E-3],"categories":[],"categories_nodes":[],"categories_segments":[],"categories_sizes":[],"default_left":[0],"id":96,"left_children":[-1],"loss_changes":[0E0],"parents":[2147483647],"right_children":[-1],"split_conditions":[3.363951E-5],"split_indices":[0],"split_type":[0],"sum_hessian":[2.32E3],"tree_param":{"num_deleted":"0","num_feature":"116","num_nodes":"1","size_leaf_vector":"1"}},{"base_weights":[2.0062218E-3],"categories":[],"categories_nodes":[],"categories_segments":[],"categories_sizes":[],"default_left":[0],"id":97,"left_children":[-1],"loss_changes":[0E0],"parents":[2147483647],"right_children":[-1],"split_conditions":[4.8521968E-5],"split_indices":[0],"split_type":[0],"sum_hessian":[2.345E3],"tree_param":{"num_deleted":"0","num_feature":"116","num_nodes":"1","size_leaf_vector":"1"}},{"base_weights":[-3.1835258E-5],"categories":[],"categories_nodes":[],"categories_segments":[],"categories_sizes":[],"default_left":[0],"id":98,"left_children":[-1],"loss_changes":[0E0],"parents":[2147483647],"right_children":[-1],"split_conditions":[-7.699594E-7],"split_indices":[0],"split_type":[0],"sum_hessian":[2.256E3],"tree_param":{"num_deleted":"0","num_feature":"116","num_nodes":"1","size_leaf_vector":"1"}},{"base_weights":[2.0269897E-4],"categories":[],"categories_nodes":[],"categories_segments":[],"categories_sizes":[],"default_left":[0],"id":99,"left_children":[-1],"loss_changes":[0E0],"parents":[2147483647],"right_children":[-1],"split_conditions":[4.9024256E-6],"split_indices":[0],"split_type":[0],"sum_hessian":[2.256E3],"tree_param":{"num_deleted":"0","num_feature":"116","num_nodes":"1","size_leaf_vector":"1"}},{"base_weights":[1.5138066E-4],"categories":[],"categories_nodes":[],"categories_segments":[],"categories_sizes":[],"default_left":[0],"id":100,"left_children":[-1],"loss_changes":[0E0],"parents":[2147483647],"right_children":[-1],"split_conditions":[3.6612541E-6],"split_indices":[0],"split_type":[0],"sum_hessian":[2.32E3],"tree_param":{"num_deleted":"0","num_feature":"116","num_nodes":"1","size_leaf_vector":"1"}},{"base_weights":[-1.02519836E-4],"categories":[],"categories_nodes":[],"categories_segments":[],"categories_sizes":[],"default_left":[0],"id":101,"left_children":[-1],"loss_changes":[0E0],"parents":[2147483647],"right_children":[-1],"split_conditions":[-2.4795186E-6],"split_indices":[0],"split_type":[0],"sum_hessian":[2.289E3],"tree_param":{"num_deleted":"0","num_feature":"116","num_nodes":"1","size_leaf_vector":"1"}},{"base_weights":[-1.9290507E-3],"categories":[],"categories_nodes":[],"categories_segments":[],"categories_sizes":[],"default_left":[0],"id":102,"left_children":[-1],"loss_changes":[0E0],"parents":[2147483647],"right_children":[-1],"split_conditions":[-4.665553E-5],"split_indices":[0],"split_type":[0],"sum_hessian":[2.279E3],"tree_param":{"num_deleted":"0","num_feature":"116","num_nodes":"1","size_leaf_vector":"1"}},{"base_weights":[7.945774E-5],"categories":[],"categories_nodes":[],"categories_segments":[],"categories_sizes":[],"default_left":[0],"id":103,"left_children":[-1],"loss_changes":[0E0],"parents":[2147483647],"right_children":[-1],"split_conditions":[1.9217448E-6],"split_indices":[0],"split_type":[0],"sum_hessian":[2.283E3],"tree_param":{"num_deleted":"0","num_feature":"116","num_nodes":"1","size_leaf_vector":"1"}},{"base_weights":[-8.905864E-4],"categories":[],"categories_nodes":[],"categories_segments":[],"categories_sizes":[],"default_left":[0],"id":104,"left_children":[-1],"loss_changes":[0E0],"parents":[2147483647],"right_children":[-1],"split_conditions":[-2.1539496E-5],"split_indices":[0],"split_type":[0],"sum_hessian":[2.312E3],"tree_param":{"num_deleted":"0","num_feature":"116","num_nodes":"1","size_leaf_vector":"1"}},{"base_weights":[5.9160157E-5],"categories":[],"categories_nodes":[],"categories_segments":[],"categories_sizes":[],"default_left":[0],"id":105,"left_children":[-1],"loss_changes":[0E0],"parents":[2147483647],"right_children":[-1],"split_conditions":[1.4308324E-6],"split_indices":[0],"split_type":[0],"sum_hessian":[2.322E3],"tree_param":{"num_deleted":"0","num_feature":"116","num_nodes":"1","size_leaf_vector":"1"}},{"base_weights":[-1.0478724E-3],"categories":[],"categories_nodes":[],"categories_segments":[],"categories_sizes":[],"default_left":[0],"id":106,"left_children":[-1],"loss_changes":[0E0],"parents":[2147483647],"right_children":[-1],"split_conditions":[-2.5343574E-5],"split_indices":[0],"split_type":[0],"sum_hessian":[2.27E3],"tree_param":{"num_deleted":"0","num_feature":"116","num_nodes":"1","size_leaf_vector":"1"}},{"base_weights":[1.0079875E-5],"categories":[],"categories_nodes":[],"categories_segments":[],"categories_sizes":[],"default_left":[0],"id":107,"left_children":[-1],"loss_changes":[0E0],"parents":[2147483647],"right_children":[-1],"split_conditions":[2.437893E-7],"split_indices":[0],"split_type":[0],"sum_hessian":[2.291E3],"tree_param":{"num_deleted":"0","num_feature":"116","num_nodes":"1","size_leaf_vector":"1"}},{"base_weights":[2.3291977E-3],"categories":[],"categories_nodes":[],"categories_segments":[],"categories_sizes":[],"default_left":[0],"id":108,"left_children":[-1],"loss_changes":[0E0],"parents":[2147483647],"right_children":[-1],"split_conditions":[5.633338E-5],"split_indices":[0],"split_type":[0],"sum_hessian":[2.259E3],"tree_param":{"num_deleted":"0","num_feature":"116","num_nodes":"1","size_leaf_vector":"1"}},{"base_weights":[1.6758185E-3],"categories":[],"categories_nodes":[],"categories_segments":[],"categories_sizes":[],"default_left":[0],"id":109,"left_children":[-1],"loss_changes":[0E0],"parents":[2147483647],"right_children":[-1],"split_conditions":[4.053092E-5],"split_indices":[0],"split_type":[0],"sum_hessian":[2.278E3],"tree_param":{"num_deleted":"0","num_feature":"116","num_nodes":"1","size_leaf_vector":"1"}},{"base_weights":[7.7248603E-4],"categories":[],"categories_nodes":[],"categories_segments":[],"categories_sizes":[],"default_left":[0],"id":110,"left_children":[-1],"loss_changes":[0E0],"parents":[2147483647],"right_children":[-1],"split_conditions":[1.868315E-5],"split_indices":[0],"split_type":[0],"sum_hessian":[2.301E3],"tree_param":{"num_deleted":"0","num_feature":"116","num_nodes":"1","size_leaf_vector":"1"}},{"base_weights":[4.015443E-4],"categories":[],"categories_nodes":[],"categories_segments":[],"categories_sizes":[],"default_left":[0],"id":111,"left_children":[-1],"loss_changes":[0E0],"parents":[2147483647],"right_children":[-1],"split_conditions":[9.711648E-6],"split_indices":[0],"split_type":[0],"sum_hessian":[2.297E3],"tree_param":{"num_deleted":"0","num_feature":"116","num_nodes":"1","size_leaf_vector":"1"}},{"base_weights":[3.135863E-4],"categories":[],"categories_nodes":[],"categories_segments":[],"categories_sizes":[],"default_left":[0],"id":112,"left_children":[-1],"loss_changes":[0E0],"parents":[2147483647],"right_children":[-1],"split_conditions":[7.584318E-6],"split_indices":[0],"split_type":[0],"sum_hessian":[2.306E3],"tree_param":{"num_deleted":"0","num_feature":"116","num_nodes":"1","size_leaf_vector":"1"}},{"base_weights":[3.387473E-4],"categories":[],"categories_nodes":[],"categories_segments":[],"categories_sizes":[],"default_left":[0],"id":113,"left_children":[-1],"loss_changes":[0E0],"parents":[2147483647],"right_children":[-1],"split_conditions":[8.1928565E-6],"split_indices":[0],"split_type":[0],"sum_hessian":[2.27E3],"tree_param":{"num_deleted":"0","num_feature":"116","num_nodes":"1","size_leaf_vector":"1"}},{"base_weights":[-3.1179585E-3],"categories":[],"categories_nodes":[],"categories_segments":[],"categories_sizes":[],"default_left":[0],"id":114,"left_children":[-1],"loss_changes":[0E0],"parents":[2147483647],"right_children":[-1],"split_conditions":[-7.541015E-5],"split_indices":[0],"split_type":[0],"sum_hessian":[2.332E3],"tree_param":{"num_deleted":"0","num_feature":"116","num_nodes":"1","size_leaf_vector":"1"}},{"base_weights":[-3.5389728E-4],"categories":[],"categories_nodes":[],"categories_segments":[],"categories_sizes":[],"default_left":[0],"id":115,"left_children":[-1],"loss_changes":[0E0],"parents":[2147483647],"right_children":[-1],"split_conditions":[-8.559269E-6],"split_indices":[0],"split_type":[0],"sum_hessian":[2.29E3],"tree_param":{"num_deleted":"0","num_feature":"116","num_nodes":"1","size_leaf_vector":"1"}},{"base_weights":[-8.9160283E-4],"categories":[],"categories_nodes":[],"categories_segments":[],"categories_sizes":[],"default_left":[0],"id":116,"left_children":[-1],"loss_changes":[0E0],"parents":[2147483647],"right_children":[-1],"split_conditions":[-2.156408E-5],"split_indices":[0],"split_type":[0],"sum_hessian":[2.276E3],"tree_param":{"num_deleted":"0","num_feature":"116","num_nodes":"1","size_leaf_vector":"1"}},{"base_weights":[-5.3871627E-4],"categories":[],"categories_nodes":[],"categories_segments":[],"categories_sizes":[],"default_left":[0],"id":117,"left_children":[-1],"loss_changes":[0E0],"parents":[2147483647],"right_children":[-1],"split_conditions":[-1.3029255E-5],"split_indices":[0],"split_type":[0],"sum_hessian":[2.263E3],"tree_param":{"num_deleted":"0","num_feature":"116","num_nodes":"1","size_leaf_vector":"1"}},{"base_weights":[2.4709771E-3],"categories":[],"categories_nodes":[],"categories_segments":[],"categories_sizes":[],"default_left":[0],"id":118,"left_children":[-1],"loss_changes":[0E0],"parents":[2147483647],"right_children":[-1],"split_conditions":[5.9762424E-5],"split_indices":[0],"split_type":[0],"sum_hessian":[2.295E3],"tree_param":{"num_deleted":"0","num_feature":"116","num_nodes":"1","size_leaf_vector":"1"}},{"base_weights":[5.149336E-4],"categories":[],"categories_nodes":[],"categories_segments":[],"categories_sizes":[],"default_left":[0],"id":119,"left_children":[-1],"loss_changes":[0E0],"parents":[2147483647],"right_children":[-1],"split_conditions":[1.2454053E-5],"split_indices":[0],"split_type":[0],"sum_hessian":[2.344E3],"tree_param":{"num_deleted":"0","num_feature":"116","num_nodes":"1","size_leaf_vector":"1"}},{"base_weights":[-6.862548E-4],"categories":[],"categories_nodes":[],"categories_segments":[],"categories_sizes":[],"default_left":[0],"id":120,"left_children":[-1],"loss_changes":[0E0],"parents":[2147483647],"right_children":[-1],"split_conditions":[-1.6597583E-5],"split_indices":[0],"split_type":[0],"sum_hessian":[2.293E3],"tree_param":{"num_deleted":"0","num_feature":"116","num_nodes":"1","size_leaf_vector":"1"}},{"base_weights":[-1.2580439E-4],"categories":[],"categories_nodes":[],"categories_segments":[],"categories_sizes":[],"default_left":[0],"id":121,"left_children":[-1],"loss_changes":[0E0],"parents":[2147483647],"right_children":[-1],"split_conditions":[-3.042673E-6],"split_indices":[0],"split_type":[0],"sum_hessian":[2.29E3],"tree_param":{"num_deleted":"0","num_feature":"116","num_nodes":"1","size_leaf_vector":"1"}},{"base_weights":[-1.0025225E-3,5.8316495E-2,-1.2675633E-4,8.895228E-4,8.222984E-3],"categories":[],"categories_nodes":[],"categories_segments":[],"categories_sizes":[],"default_left":[0,0,0,0,0],"id":122,"left_children":[1,3,-1,-1,-1],"loss_changes":[5.843946E-1,9.392252E-1,0E0,0E0,0E0],"parents":[2147483647,0,0,1,1],"right_children":[2,4,-1,-1,-1],"split_conditions":[6.794967E9,3.045E4,-1.2675633E-4,8.895228E-4,8.222984E-3],"split_indices":[2,6,0,0,0],"split_type":[0,0,0,0,0],"sum_hessian":[2.325E3,1.55E2,2.17E3,1.44E2,1.1E1],"tree_param":{"num_deleted":"0","num_feature":"116","num_nodes":"5","size_leaf_vector":"1"}},{"base_weights":[6.7711854E-4],"categories":[],"categories_nodes":[],"categories_segments":[],"categories_sizes":[],"default_left":[0],"id":123,"left_children":[-1],"loss_changes":[0E0],"parents":[2147483647],"right_children":[-1],"split_conditions":[1.6376616E-5],"split_indices":[0],"split_type":[0],"sum_hessian":[2.305E3],"tree_param":{"num_deleted":"0","num_feature":"116","num_nodes":"1","size_leaf_vector":"1"}},{"base_weights":[-2.871795E-3],"categories":[],"categories_nodes":[],"categories_segments":[],"categories_sizes":[],"default_left":[0],"id":124,"left_children":[-1],"loss_changes":[0E0],"parents":[2147483647],"right_children":[-1],"split_conditions":[-6.94565E-5],"split_indices":[0],"split_type":[0],"sum_hessian":[2.311E3],"tree_param":{"num_deleted":"0","num_feature":"116","num_nodes":"1","size_leaf_vector":"1"}},{"base_weights":[1.8746227E-3],"categories":[],"categories_nodes":[],"categories_segments":[],"categories_sizes":[],"default_left":[0],"id":125,"left_children":[-1],"loss_changes":[0E0],"parents":[2147483647],"right_children":[-1],"split_conditions":[4.5339144E-5],"split_indices":[0],"split_type":[0],"sum_hessian":[2.247E3],"tree_param":{"num_deleted":"0","num_feature":"116","num_nodes":"1","size_leaf_vector":"1"}},{"base_weights":[-7.2618556E-4,1.5401707E-3,-1.07315485E-4],"categories":[],"categories_nodes":[],"categories_segments":[],"categories_sizes":[],"default_left":[0,0,0],"id":126,"left_children":[1,-1,-1],"loss_changes":[5.5720145E-1,0E0,0E0],"parents":[2147483647,0,0],"right_children":[2,-1,-1],"split_conditions":[2.525E4,1.5401707E-3,-1.07315485E-4],"split_indices":[6,0,0],"split_type":[0,0,0],"sum_hessian":[2.332E3,1.27E2,2.205E3],"tree_param":{"num_deleted":"0","num_feature":"116","num_nodes":"3","size_leaf_vector":"1"}},{"base_weights":[-6.0063635E-4],"categories":[],"categories_nodes":[],"categories_segments":[],"categories_sizes":[],"default_left":[0],"id":127,"left_children":[-1],"loss_changes":[0E0],"parents":[2147483647],"right_children":[-1],"split_conditions":[-1.4526838E-5],"split_indices":[0],"split_type":[0],"sum_hessian":[2.32E3],"tree_param":{"num_deleted":"0","num_feature":"116","num_nodes":"1","size_leaf_vector":"1"}},{"base_weights":[-6.220687E-4],"categories":[],"categories_nodes":[],"categories_segments":[],"categories_sizes":[],"default_left":[0],"id":128,"left_children":[-1],"loss_changes":[0E0],"parents":[2147483647],"right_children":[-1],"split_conditions":[-1.5045195E-5],"split_indices":[0],"split_type":[0],"sum_hessian":[2.306E3],"tree_param":{"num_deleted":"0","num_feature":"116","num_nodes":"1","size_leaf_vector":"1"}},{"base_weights":[-3.086736E-3],"categories":[],"categories_nodes":[],"categories_segments":[],"categories_sizes":[],"default_left":[0],"id":129,"left_children":[-1],"loss_changes":[0E0],"parents":[2147483647],"right_children":[-1],"split_conditions":[-7.465501E-5],"split_indices":[0],"split_type":[0],"sum_hessian":[2.281E3],"tree_param":{"num_deleted":"0","num_feature":"116","num_nodes":"1","size_leaf_vector":"1"}},{"base_weights":[5.569197E-4,6.1712484E-4,-2.2130327E-4],"categories":[],"categories_nodes":[],"categories_segments":[],"categories_sizes":[],"default_left":[0,0,0],"id":130,"left_children":[1,-1,-1],"loss_changes":[5.563233E-1,0E0,0E0],"parents":[2147483647,0,0],"right_children":[2,-1,-1],"split_conditions":[3.98E4,6.1712484E-4,-2.2130327E-4],"split_indices":[3,0,0],"split_type":[0,0,0],"sum_hessian":[2.296E3,6.43E2,1.653E3],"tree_param":{"num_deleted":"0","num_feature":"116","num_nodes":"3","size_leaf_vector":"1"}},{"base_weights":[1.2045792E-4],"categories":[],"categories_nodes":[],"categories_segments":[],"categories_sizes":[],"default_left":[0],"id":131,"left_children":[-1],"loss_changes":[0E0],"parents":[2147483647],"right_children":[-1],"split_conditions":[2.9133644E-6],"split_indices":[0],"split_type":[0],"sum_hessian":[2.274E3],"tree_param":{"num_deleted":"0","num_feature":"116","num_nodes":"1","size_leaf_vector":"1"}},{"base_weights":[2.619814E-3],"categories":[],"categories_nodes":[],"categories_segments":[],"categories_sizes":[],"default_left":[0],"id":132,"left_children":[-1],"loss_changes":[0E0],"parents":[2147483647],"right_children":[-1],"split_conditions":[6.336215E-5],"split_indices":[0],"split_type":[0],"sum_hessian":[2.327E3],"tree_param":{"num_deleted":"0","num_feature":"116","num_nodes":"1","size_leaf_vector":"1"}},{"base_weights":[7.106861E-4],"categories":[],"categories_nodes":[],"categories_segments":[],"categories_sizes":[],"default_left":[0],"id":133,"left_children":[-1],"loss_changes":[0E0],"parents":[2147483647],"right_children":[-1],"split_conditions":[1.7188473E-5],"split_indices":[0],"split_type":[0],"sum_hessian":[2.254E3],"tree_param":{"num_deleted":"0","num_feature":"116","num_nodes":"1","size_leaf_vector":"1"}},{"base_weights":[1.8189657E-3],"categories":[],"categories_nodes":[],"categories_segments":[],"categories_sizes":[],"default_left":[0],"id":134,"left_children":[-1],"loss_changes":[0E0],"parents":[2147483647],"right_children":[-1],"split_conditions":[4.399304E-5],"split_indices":[0],"split_type":[0],"sum_hessian":[2.337E3],"tree_param":{"num_deleted":"0","num_feature":"116","num_nodes":"1","size_leaf_vector":"1"}},{"base_weights":[-3.2892375E-4],"categories":[],"categories_nodes":[],"categories_segments":[],"categories_sizes":[],"default_left":[0],"id":135,"left_children":[-1],"loss_changes":[0E0],"parents":[2147483647],"right_children":[-1],"split_conditions":[-7.955266E-6],"split_indices":[0],"split_type":[0],"sum_hessian":[2.31E3],"tree_param":{"num_deleted":"0","num_feature":"116","num_nodes":"1","size_leaf_vector":"1"}},{"base_weights":[9.4325206E-4],"categories":[],"categories_nodes":[],"categories_segments":[],"categories_sizes":[],"default_left":[0],"id":136,"left_children":[-1],"loss_changes":[0E0],"parents":[2147483647],"right_children":[-1],"split_conditions":[2.2813254E-5],"split_indices":[0],"split_type":[0],"sum_hessian":[2.274E3],"tree_param":{"num_deleted":"0","num_feature":"116","num_nodes":"1","size_leaf_vector":"1"}},{"base_weights":[4.2874776E-4,6.315517E-2,-9.990592E-5,1.0036306E-3,7.894635E-3],"categories":[],"categories_nodes":[],"categories_segments":[],"categories_sizes":[],"default_left":[0,0,0,0,0],"id":137,"left_children":[1,3,-1,-1,-1],"loss_changes":[6.668456E-1,8.998066E-1,0E0,0E0,0E0],"parents":[2147483647,0,0,1,1],"right_children":[2,4,-1,-1,-1],"split_conditions":[6.794967E9,3.045E4,-9.990592E-5,1.0036306E-3,7.894635E-3],"split_indices":[2,6,0,0,0],"split_type":[0,0,0,0,0],"sum_hessian":[2.331E3,1.58E2,2.173E3,1.46E2,1.2E1],"tree_param":{"num_deleted":"0","num_feature":"116","num_nodes":"5","size_leaf_vector":"1"}},{"base_weights":[-2.393947E-3],"categories":[],"categories_nodes":[],"categories_segments":[],"categories_sizes":[],"default_left":[0],"id":138,"left_children":[-1],"loss_changes":[0E0],"parents":[2147483647],"right_children":[-1],"split_conditions":[-5.7899393E-5],"split_indices":[0],"split_type":[0],"sum_hessian":[2.285E3],"tree_param":{"num_deleted":"0","num_feature":"116","num_nodes":"1","size_leaf_vector":"1"}},{"base_weights":[-2.8766727E-3],"categories":[],"categories_nodes":[],"categories_segments":[],"categories_sizes":[],"default_left":[0],"id":139,"left_children":[-1],"loss_changes":[0E0],"parents":[2147483647],"right_children":[-1],"split_conditions":[-6.9574475E-5],"split_indices":[0],"split_type":[0],"sum_hessian":[2.342E3],"tree_param":{"num_deleted":"0","num_feature":"116","num_nodes":"1","size_leaf_vector":"1"}},{"base_weights":[-1.3644595E-3],"categories":[],"categories_nodes":[],"categories_segments":[],"categories_sizes":[],"default_left":[0],"id":140,"left_children":[-1],"loss_changes":[0E0],"parents":[2147483647],"right_children":[-1],"split_conditions":[-3.300047E-5],"split_indices":[0],"split_type":[0],"sum_hessian":[2.301E3],"tree_param":{"num_deleted":"0","num_feature":"116","num_nodes":"1","size_leaf_vector":"1"}},{"base_weights":[-7.813726E-4],"categories":[],"categories_nodes":[],"categories_segments":[],"categories_sizes":[],"default_left":[0],"id":141,"left_children":[-1],"loss_changes":[0E0],"parents":[2147483647],"right_children":[-1],"split_conditions":[-1.8898078E-5],"split_indices":[0],"split_type":[0],"sum_hessian":[2.293E3],"tree_param":{"num_deleted":"0","num_feature":"116","num_nodes":"1","size_leaf_vector":"1"}},{"base_weights":[-1.6053116E-3],"categories":[],"categories_nodes":[],"categories_segments":[],"categories_sizes":[],"default_left":[0],"id":142,"left_children":[-1],"loss_changes":[0E0],"parents":[2147483647],"right_children":[-1],"split_conditions":[-3.882566E-5],"split_indices":[0],"split_type":[0],"sum_hessian":[2.279E3],"tree_param":{"num_deleted":"0","num_feature":"116","num_nodes":"1","size_leaf_vector":"1"}},{"base_weights":[3.1558485E-4],"categories":[],"categories_nodes":[],"categories_segments":[],"categories_sizes":[],"default_left":[0],"id":143,"left_children":[-1],"loss_changes":[0E0],"parents":[2147483647],"right_children":[-1],"split_conditions":[7.632655E-6],"split_indices":[0],"split_type":[0],"sum_hessian":[2.29E3],"tree_param":{"num_deleted":"0","num_feature":"116","num_nodes":"1","size_leaf_vector":"1"}},{"base_weights":[-1.538613E-5],"categories":[],"categories_nodes":[],"categories_segments":[],"categories_sizes":[],"default_left":[0],"id":144,"left_children":[-1],"loss_changes":[0E0],"parents":[2147483647],"right_children":[-1],"split_conditions":[-3.72125E-7],"split_indices":[0],"split_type":[0],"sum_hessian":[2.31E3],"tree_param":{"num_deleted":"0","num_feature":"116","num_nodes":"1","size_leaf_vector":"1"}},{"base_weights":[-8.270515E-4],"categories":[],"categories_nodes":[],"categories_segments":[],"categories_sizes":[],"default_left":[0],"id":145,"left_children":[-1],"loss_changes":[0E0],"parents":[2147483647],"right_children":[-1],"split_conditions":[-2.0002857E-5],"split_indices":[0],"split_type":[0],"sum_hessian":[2.309E3],"tree_param":{"num_deleted":"0","num_feature":"116","num_nodes":"1","size_leaf_vector":"1"}},{"base_weights":[-2.1211513E-4],"categories":[],"categories_nodes":[],"categories_segments":[],"categories_sizes":[],"default_left":[0],"id":146,"left_children":[-1],"loss_changes":[0E0],"parents":[2147483647],"right_children":[-1],"split_conditions":[-5.1301627E-6],"split_indices":[0],"split_type":[0],"sum_hessian":[2.303E3],"tree_param":{"num_deleted":"0","num_feature":"116","num_nodes":"1","size_leaf_vector":"1"}},{"base_weights":[8.164726E-5,6.563195E-4,-2.404341E-4],"categories":[],"categories_nodes":[],"categories_segments":[],"categories_sizes":[],"default_left":[0,0,0],"id":147,"left_children":[1,-1,-1],"loss_changes":[6.229201E-1,0E0,0E0],"parents":[2147483647,0,0],"right_children":[2,-1,-1],"split_conditions":[3.96E4,6.563195E-4,-2.404341E-4],"split_indices":[3,0,0],"split_type":[0,0,0],"sum_hessian":[2.297E3,6.21E2,1.676E3],"tree_param":{"num_deleted":"0","num_feature":"116","num_nodes":"3","size_leaf_vector":"1"}},{"base_weights":[-5.2490097E-4],"categories":[],"categories_nodes":[],"categories_segments":[],"categories_sizes":[],"default_left":[0],"id":148,"left_children":[-1],"loss_changes":[0E0],"parents":[2147483647],"right_children":[-1],"split_conditions":[-1.2695121E-5],"split_indices":[0],"split_type":[0],"sum_hessian":[2.276E3],"tree_param":{"num_deleted":"0","num_feature":"116","num_nodes":"1","size_leaf_vector":"1"}},{"base_weights":[-1.9474617E-3],"categories":[],"categories_nodes":[],"categories_segments":[],"categories_sizes":[],"default_left":[0],"id":149,"left_children":[-1],"loss_changes":[0E0],"parents":[2147483647],"right_children":[-1],"split_conditions":[-4.7100813E-5],"split_indices":[0],"split_type":[0],"sum_hessian":[2.319E3],"tree_param":{"num_deleted":"0","num_feature":"116","num_nodes":"1","size_leaf_vector":"1"}},{"base_weights":[-1.5906919E-3],"categories":[],"categories_nodes":[],"categories_segments":[],"categories_sizes":[],"default_left":[0],"id":150,"left_children":[-1],"loss_changes":[0E0],"parents":[2147483647],"right_children":[-1],"split_conditions":[-3.8472066E-5],"split_indices":[0],"split_type":[0],"sum_hessian":[2.313E3],"tree_param":{"num_deleted":"0","num_feature":"116","num_nodes":"1","size_leaf_vector":"1"}},{"base_weights":[1.1637172E-3],"categories":[],"categories_nodes":[],"categories_segments":[],"categories_sizes":[],"default_left":[0],"id":151,"left_children":[-1],"loss_changes":[0E0],"parents":[2147483647],"right_children":[-1],"split_conditions":[2.8145369E-5],"split_indices":[0],"split_type":[0],"sum_hessian":[2.281E3],"tree_param":{"num_deleted":"0","num_feature":"116","num_nodes":"1","size_leaf_vector":"1"}},{"base_weights":[-7.946675E-4],"categories":[],"categories_nodes":[],"categories_segments":[],"categories_sizes":[],"default_left":[0],"id":152,"left_children":[-1],"loss_changes":[0E0],"parents":[2147483647],"right_children":[-1],"split_conditions":[-1.9219626E-5],"split_indices":[0],"split_type":[0],"sum_hessian":[2.317E3],"tree_param":{"num_deleted":"0","num_feature":"116","num_nodes":"1","size_leaf_vector":"1"}},{"base_weights":[1.3776412E-3],"categories":[],"categories_nodes":[],"categories_segments":[],"categories_sizes":[],"default_left":[0],"id":153,"left_children":[-1],"loss_changes":[0E0],"parents":[2147483647],"right_children":[-1],"split_conditions":[3.331928E-5],"split_indices":[0],"split_type":[0],"sum_hessian":[2.291E3],"tree_param":{"num_deleted":"0","num_feature":"116","num_nodes":"1","size_leaf_vector":"1"}},{"base_weights":[7.77525E-4],"categories":[],"categories_nodes":[],"categories_segments":[],"categories_sizes":[],"default_left":[0],"id":154,"left_children":[-1],"loss_changes":[0E0],"parents":[2147483647],"right_children":[-1],"split_conditions":[1.8805022E-5],"split_indices":[0],"split_type":[0],"sum_hessian":[2.322E3],"tree_param":{"num_deleted":"0","num_feature":"116","num_nodes":"1","size_leaf_vector":"1"}},{"base_weights":[-3.4252118E-4],"categories":[],"categories_nodes":[],"categories_segments":[],"categories_sizes":[],"default_left":[0],"id":155,"left_children":[-1],"loss_changes":[0E0],"parents":[2147483647],"right_children":[-1],"split_conditions":[-8.28413E-6],"split_indices":[0],"split_type":[0],"sum_hessian":[2.316E3],"tree_param":{"num_deleted":"0","num_feature":"116","num_nodes":"1","size_leaf_vector":"1"}},{"base_weights":[-4.3932445E-4],"categories":[],"categories_nodes":[],"categories_segments":[],"categories_sizes":[],"default_left":[0],"id":156,"left_children":[-1],"loss_changes":[0E0],"parents":[2147483647],"right_children":[-1],"split_conditions":[-1.0625389E-5],"split_indices":[0],"split_type":[0],"sum_hessian":[2.282E3],"tree_param":{"num_deleted":"0","num_feature":"116","num_nodes":"1","size_leaf_vector":"1"}},{"base_weights":[1.3181132E-3],"categories":[],"categories_nodes":[],"categories_segments":[],"categories_sizes":[],"default_left":[0],"id":157,"left_children":[-1],"loss_changes":[0E0],"parents":[2147483647],"right_children":[-1],"split_conditions":[3.187955E-5],"split_indices":[0],"split_type":[0],"sum_hessian":[2.342E3],"tree_param":{"num_deleted":"0","num_feature":"116","num_nodes":"1","size_leaf_vector":"1"}},{"base_weights":[-4.4648335E-3],"categories":[],"categories_nodes":[],"categories_segments":[],"categories_sizes":[],"default_left":[0],"id":158,"left_children":[-1],"loss_changes":[0E0],"parents":[2147483647],"right_children":[-1],"split_conditions":[-1.07985325E-4],"split_indices":[0],"split_type":[0],"sum_hessian":[2.343E3],"tree_param":{"num_deleted":"0","num_feature":"116","num_nodes":"1","size_leaf_vector":"1"}},{"base_weights":[1.8104729E-3],"categories":[],"categories_nodes":[],"categories_segments":[],"categories_sizes":[],"default_left":[0],"id":159,"left_children":[-1],"loss_changes":[0E0],"parents":[2147483647],"right_children":[-1],"split_conditions":[4.3787637E-5],"split_indices":[0],"split_type":[0],"sum_hessian":[2.311E3],"tree_param":{"num_deleted":"0","num_feature":"116","num_nodes":"1","size_leaf_vector":"1"}},{"base_weights":[-1.719706E-4],"categories":[],"categories_nodes":[],"categories_segments":[],"categories_sizes":[],"default_left":[0],"id":160,"left_children":[-1],"loss_changes":[0E0],"parents":[2147483647],"right_children":[-1],"split_conditions":[-4.159237E-6],"split_indices":[0],"split_type":[0],"sum_hessian":[2.318E3],"tree_param":{"num_deleted":"0","num_feature":"116","num_nodes":"1","size_leaf_vector":"1"}},{"base_weights":[5.3300324E-4,3.933644E-3,-2.3752753E-5],"categories":[],"categories_nodes":[],"categories_segments":[],"categories_sizes":[],"default_left":[0,0,0],"id":161,"left_children":[1,-1,-1],"loss_changes":[5.570339E-1,0E0,0E0],"parents":[2147483647,0,0],"right_children":[2,-1,-1],"split_conditions":[1.7508E4,3.933644E-3,-2.3752753E-5],"split_indices":[5,0,0],"split_type":[0,0,0],"sum_hessian":[2.266E3,2.1E1,2.245E3],"tree_param":{"num_deleted":"0","num_feature":"116","num_nodes":"3","size_leaf_vector":"1"}},{"base_weights":[3.2124453E-4],"categories":[],"categories_nodes":[],"categories_segments":[],"categories_sizes":[],"default_left":[0],"id":162,"left_children":[-1],"loss_changes":[0E0],"parents":[2147483647],"right_children":[-1],"split_conditions":[7.769539E-6],"split_indices":[0],"split_type":[0],"sum_hessian":[2.325E3],"tree_param":{"num_deleted":"0","num_feature":"116","num_nodes":"1","size_leaf_vector":"1"}},{"base_weights":[-2.5089746E-3],"categories":[],"categories_nodes":[],"categories_segments":[],"categories_sizes":[],"default_left":[0],"id":163,"left_children":[-1],"loss_changes":[0E0],"parents":[2147483647],"right_children":[-1],"split_conditions":[-6.068142E-5],"split_indices":[0],"split_type":[0],"sum_hessian":[2.304E3],"tree_param":{"num_deleted":"0","num_feature":"116","num_nodes":"1","size_leaf_vector":"1"}},{"base_weights":[2.3825439E-3],"categories":[],"categories_nodes":[],"categories_segments":[],"categories_sizes":[],"default_left":[0],"id":164,"left_children":[-1],"loss_changes":[0E0],"parents":[2147483647],"right_children":[-1],"split_conditions":[5.7623598E-5],"split_indices":[0],"split_type":[0],"sum_hessian":[2.23E3],"tree_param":{"num_deleted":"0","num_feature":"116","num_nodes":"1","size_leaf_vector":"1"}},{"base_weights":[-4.4658646E-4],"categories":[],"categories_nodes":[],"categories_segments":[],"categories_sizes":[],"default_left":[0],"id":165,"left_children":[-1],"loss_changes":[0E0],"parents":[2147483647],"right_children":[-1],"split_conditions":[-1.0801026E-5],"split_indices":[0],"split_type":[0],"sum_hessian":[2.27E3],"tree_param":{"num_deleted":"0","num_feature":"116","num_nodes":"1","size_leaf_vector":"1"}},{"base_weights":[3.1890007E-4],"categories":[],"categories_nodes":[],"categories_segments":[],"categories_sizes":[],"default_left":[0],"id":166,"left_children":[-1],"loss_changes":[0E0],"parents":[2147483647],"right_children":[-1],"split_conditions":[7.712836E-6],"split_indices":[0],"split_type":[0],"sum_hessian":[2.29E3],"tree_param":{"num_deleted":"0","num_feature":"116","num_nodes":"1","size_leaf_vector":"1"}},{"base_weights":[-2.9221454E-4],"categories":[],"categories_nodes":[],"categories_segments":[],"categories_sizes":[],"default_left":[0],"id":167,"left_children":[-1],"loss_changes":[0E0],"parents":[2147483647],"right_children":[-1],"split_conditions":[-7.0674264E-6],"split_indices":[0],"split_type":[0],"sum_hessian":[2.33E3],"tree_param":{"num_deleted":"0","num_feature":"116","num_nodes":"1","size_leaf_vector":"1"}},{"base_weights":[2.8891591E-3],"categories":[],"categories_nodes":[],"categories_segments":[],"categories_sizes":[],"default_left":[0],"id":168,"left_children":[-1],"loss_changes":[0E0],"parents":[2147483647],"right_children":[-1],"split_conditions":[6.987646E-5],"split_indices":[0],"split_type":[0],"sum_hessian":[2.333E3],"tree_param":{"num_deleted":"0","num_feature":"116","num_nodes":"1","size_leaf_vector":"1"}},{"base_weights":[1.7510881E-4],"categories":[],"categories_nodes":[],"categories_segments":[],"categories_sizes":[],"default_left":[0],"id":169,"left_children":[-1],"loss_changes":[0E0],"parents":[2147483647],"right_children":[-1],"split_conditions":[4.235137E-6],"split_indices":[0],"split_type":[0],"sum_hessian":[2.295E3],"tree_param":{"num_deleted":"0","num_feature":"116","num_nodes":"1","size_leaf_vector":"1"}},{"base_weights":[1.4884868E-3],"categories":[],"categories_nodes":[],"categories_segments":[],"categories_sizes":[],"default_left":[0],"id":170,"left_children":[-1],"loss_changes":[0E0],"parents":[2147483647],"right_children":[-1],"split_conditions":[3.600016E-5],"split_indices":[0],"split_type":[0],"sum_hessian":[2.293E3],"tree_param":{"num_deleted":"0","num_feature":"116","num_nodes":"1","size_leaf_vector":"1"}},{"base_weights":[-5.98578E-4],"categories":[],"categories_nodes":[],"categories_segments":[],"categories_sizes":[],"default_left":[0],"id":171,"left_children":[-1],"loss_changes":[0E0],"parents":[2147483647],"right_children":[-1],"split_conditions":[-1.4477056E-5],"split_indices":[0],"split_type":[0],"sum_hessian":[2.347E3],"tree_param":{"num_deleted":"0","num_feature":"116","num_nodes":"1","size_leaf_vector":"1"}},{"base_weights":[-1.2333277E-3],"categories":[],"categories_nodes":[],"categories_segments":[],"categories_sizes":[],"default_left":[0],"id":172,"left_children":[-1],"loss_changes":[0E0],"parents":[2147483647],"right_children":[-1],"split_conditions":[-2.9828949E-5],"split_indices":[0],"split_type":[0],"sum_hessian":[2.27E3],"tree_param":{"num_deleted":"0","num_feature":"116","num_nodes":"1","size_leaf_vector":"1"}},{"base_weights":[1.3776235E-3],"categories":[],"categories_nodes":[],"categories_segments":[],"categories_sizes":[],"default_left":[0],"id":173,"left_children":[-1],"loss_changes":[0E0],"parents":[2147483647],"right_children":[-1],"split_conditions":[3.331885E-5],"split_indices":[0],"split_type":[0],"sum_hessian":[2.305E3],"tree_param":{"num_deleted":"0","num_feature":"116","num_nodes":"1","size_leaf_vector":"1"}},{"base_weights":[1.2791764E-3],"categories":[],"categories_nodes":[],"categories_segments":[],"categories_sizes":[],"default_left":[0],"id":174,"left_children":[-1],"loss_changes":[0E0],"parents":[2147483647],"right_children":[-1],"split_conditions":[3.0937834E-5],"split_indices":[0],"split_type":[0],"sum_hessian":[2.358E3],"tree_param":{"num_deleted":"0","num_feature":"116","num_nodes":"1","size_leaf_vector":"1"}},{"base_weights":[4.3347914E-4],"categories":[],"categories_nodes":[],"categories_segments":[],"categories_sizes":[],"default_left":[0],"id":175,"left_children":[-1],"loss_changes":[0E0],"parents":[2147483647],"right_children":[-1],"split_conditions":[1.04840165E-5],"split_indices":[0],"split_type":[0],"sum_hessian":[2.262E3],"tree_param":{"num_deleted":"0","num_feature":"116","num_nodes":"1","size_leaf_vector":"1"}},{"base_weights":[-6.750528E-4],"categories":[],"categories_nodes":[],"categories_segments":[],"categories_sizes":[],"default_left":[0],"id":176,"left_children":[-1],"loss_changes":[0E0],"parents":[2147483647],"right_children":[-1],"split_conditions":[-1.6326656E-5],"split_indices":[0],"split_type":[0],"sum_hessian":[2.266E3],"tree_param":{"num_deleted":"0","num_feature":"116","num_nodes":"1","size_leaf_vector":"1"}},{"base_weights":[3.178424E-4],"categories":[],"categories_nodes":[],"categories_segments":[],"categories_sizes":[],"default_left":[0],"id":177,"left_children":[-1],"loss_changes":[0E0],"parents":[2147483647],"right_children":[-1],"split_conditions":[7.687256E-6],"split_indices":[0],"split_type":[0],"sum_hessian":[2.285E3],"tree_param":{"num_deleted":"0","num_feature":"116","num_nodes":"1","size_leaf_vector":"1"}},{"base_weights":[-1.598043E-3],"categories":[],"categories_nodes":[],"categories_segments":[],"categories_sizes":[],"default_left":[0],"id":178,"left_children":[-1],"loss_changes":[0E0],"parents":[2147483647],"right_children":[-1],"split_conditions":[-3.864986E-5],"split_indices":[0],"split_type":[0],"sum_hessian":[2.286E3],"tree_param":{"num_deleted":"0","num_feature":"116","num_nodes":"1","size_leaf_vector":"1"}},{"base_weights":[1.8974342E-3],"categories":[],"categories_nodes":[],"categories_segments":[],"categories_sizes":[],"default_left":[0],"id":179,"left_children":[-1],"loss_changes":[0E0],"parents":[2147483647],"right_children":[-1],"split_conditions":[4.589086E-5],"split_indices":[0],"split_type":[0],"sum_hessian":[2.278E3],"tree_param":{"num_deleted":"0","num_feature":"116","num_nodes":"1","size_leaf_vector":"1"}},{"base_weights":[9.5675106E-4],"categories":[],"categories_nodes":[],"categories_segments":[],"categories_sizes":[],"default_left":[0],"id":180,"left_children":[-1],"loss_changes":[0E0],"parents":[2147483647],"right_children":[-1],"split_conditions":[2.3139737E-5],"split_indices":[0],"split_type":[0],"sum_hessian":[2.335E3],"tree_param":{"num_deleted":"0","num_feature":"116","num_nodes":"1","size_leaf_vector":"1"}},{"base_weights":[-1.0804438E-3],"categories":[],"categories_nodes":[],"categories_segments":[],"categories_sizes":[],"default_left":[0],"id":181,"left_children":[-1],"loss_changes":[0E0],"parents":[2147483647],"right_children":[-1],"split_conditions":[-2.613134E-5],"split_indices":[0],"split_type":[0],"sum_hessian":[2.272E3],"tree_param":{"num_deleted":"0","num_feature":"116","num_nodes":"1","size_leaf_vector":"1"}},{"base_weights":[-6.955306E-4],"categories":[],"categories_nodes":[],"categories_segments":[],"categories_sizes":[],"default_left":[0],"id":182,"left_children":[-1],"loss_changes":[0E0],"parents":[2147483647],"right_children":[-1],"split_conditions":[-1.6821927E-5],"split_indices":[0],"split_type":[0],"sum_hessian":[2.351E3],"tree_param":{"num_deleted":"0","num_feature":"116","num_nodes":"1","size_leaf_vector":"1"}},{"base_weights":[1.5392757E-3],"categories":[],"categories_nodes":[],"categories_segments":[],"categories_sizes":[],"default_left":[0],"id":183,"left_children":[-1],"loss_changes":[0E0],"parents":[2147483647],"right_children":[-1],"split_conditions":[3.7228532E-5],"split_indices":[0],"split_type":[0],"sum_hessian":[2.315E3],"tree_param":{"num_deleted":"0","num_feature":"116","num_nodes":"1","size_leaf_vector":"1"}},{"base_weights":[-2.676531E-3],"categories":[],"categories_nodes":[],"categories_segments":[],"categories_sizes":[],"default_left":[0],"id":184,"left_children":[-1],"loss_changes":[0E0],"parents":[2147483647],"right_children":[-1],"split_conditions":[-6.47339E-5],"split_indices":[0],"split_type":[0],"sum_hessian":[2.268E3],"tree_param":{"num_deleted":"0","num_feature":"116","num_nodes":"1","size_leaf_vector":"1"}},{"base_weights":[-2.0491103E-4],"categories":[],"categories_nodes":[],"categories_segments":[],"categories_sizes":[],"default_left":[0],"id":185,"left_children":[-1],"loss_changes":[0E0],"parents":[2147483647],"right_children":[-1],"split_conditions":[-4.955926E-6],"split_indices":[0],"split_type":[0],"sum_hessian":[2.318E3],"tree_param":{"num_deleted":"0","num_feature":"116","num_nodes":"1","size_leaf_vector":"1"}},{"base_weights":[1.187127E-3],"categories":[],"categories_nodes":[],"categories_segments":[],"categories_sizes":[],"default_left":[0],"id":186,"left_children":[-1],"loss_changes":[0E0],"parents":[2147483647],"right_children":[-1],"split_conditions":[2.871155E-5],"split_indices":[0],"split_type":[0],"sum_hessian":[2.304E3],"tree_param":{"num_deleted":"0","num_feature":"116","num_nodes":"1","size_leaf_vector":"1"}},{"base_weights":[1.7467049E-3],"categories":[],"categories_nodes":[],"categories_segments":[],"categories_sizes":[],"default_left":[0],"id":187,"left_children":[-1],"loss_changes":[0E0],"parents":[2147483647],"right_children":[-1],"split_conditions":[4.224536E-5],"split_indices":[0],"split_type":[0],"sum_hessian":[2.291E3],"tree_param":{"num_deleted":"0","num_feature":"116","num_nodes":"1","size_leaf_vector":"1"}},{"base_weights":[6.306459E-4],"categories":[],"categories_nodes":[],"categories_segments":[],"categories_sizes":[],"default_left":[0],"id":188,"left_children":[-1],"loss_changes":[0E0],"parents":[2147483647],"right_children":[-1],"split_conditions":[1.5252641E-5],"split_indices":[0],"split_type":[0],"sum_hessian":[2.301E3],"tree_param":{"num_deleted":"0","num_feature":"116","num_nodes":"1","size_leaf_vector":"1"}},{"base_weights":[1.9019259E-4],"categories":[],"categories_nodes":[],"categories_segments":[],"categories_sizes":[],"default_left":[0],"id":189,"left_children":[-1],"loss_changes":[0E0],"parents":[2147483647],"right_children":[-1],"split_conditions":[4.5999495E-6],"split_indices":[0],"split_type":[0],"sum_hessian":[2.31E3],"tree_param":{"num_deleted":"0","num_feature":"116","num_nodes":"1","size_leaf_vector":"1"}},{"base_weights":[1.0514491E-3],"categories":[],"categories_nodes":[],"categories_segments":[],"categories_sizes":[],"default_left":[0],"id":190,"left_children":[-1],"loss_changes":[0E0],"parents":[2147483647],"right_children":[-1],"split_conditions":[2.543008E-5],"split_indices":[0],"split_type":[0],"sum_hessian":[2.329E3],"tree_param":{"num_deleted":"0","num_feature":"116","num_nodes":"1","size_leaf_vector":"1"}},{"base_weights":[-2.2177713E-3],"categories":[],"categories_nodes":[],"categories_segments":[],"categories_sizes":[],