{"learner":{"attributes":{"scikit_learn":"{\"_estimator_type\": \"regressor\"}"},"feature_names":["prdy_vrss_x","acml_vol_x","acml_tr_pbmn_x","stck_oprc_x","stck_hgpr_x","stck_lwpr_x","stck_clpr","sale_account","sale_cost","sale_totl_prfi","bsop_prti","op_prfi","thtr_ntin","cras","fxas","total_aset","flow_lblt","fix_lblt","total_lblt","total_cptl","grs","bsop_prfi_inrt","ntin_inrt","roe_val","eps_x","sps","bps_x","rsrv_rate","lblt_rate","bram_depn","crnt_rate","quck_rate","equt_inrt","totl_aset_inrt","cptl_ntin_rate","sale_ntin_rate","sale_totl_rate","payout_rate","ebitda","lstg_stqt","cpta","papr","sbst_pric","marg_rate","prdy_ctrt","prdy_vrss_vol_rate","stck_mxpr","stck_llam","stck_sdpr","wghn_avrg_stck_prc","hts_frgn_ehrt","frgn_ntby_qty","pgtr_ntby_qty","pvt_scnd_dmrs_prc","pvt_frst_dmrs_prc","pvt_pont_val","pvt_frst_dmsp_prc","pvt_scnd_dmsp_prc","dmrs_val","dmsp_val","stck_sspr","aspr_unit","hts_avls","per","pbr","vol_tnrt","d250_hgpr","d250_hgpr_vrss_prpr_rate","d250_lwpr","d250_lwpr_vrss_prpr_rate","stck_dryy_hgpr","dryy_hgpr_vrss_prpr_rate","stck_dryy_lwpr","dryy_lwpr_vrss_prpr_rate","w52_hgpr","w52_hgpr_vrss_prpr_ctrt","w52_lwpr","w52_lwpr_vrss_prpr_ctrt","whol_loan_rmnd_rate","frgn_hldn_qty","last_ssts_cntg_qty","aspr_acpt_hour","askp1","askp10","bidp1","bidp10","askp_rsqn1","askp_rsqn2","askp_rsqn3","askp_rsqn4","askp_rsqn5","askp_rsqn6","askp_rsqn7","askp_rsqn8","askp_rsqn9","askp_rsqn10","bidp_rsqn1","bidp_rsqn2","bidp_rsqn3","bidp_rsqn4","bidp_rsqn5","bidp_rsqn6","bidp_rsqn7","bidp_rsqn8","bidp_rsqn9","bidp_rsqn10","total_askp_rsqn","total_bidp_rsqn","ntby_aspr_rsqn","prdy_clpr_vrss_oprc_rate","lwpr_vrss_prpr","prdy_clpr_vrss_lwpr_rate","hgpr_vrss_prpr","prdy_clpr_vrss_hgpr_rate","oprc_vrss_prpr","prdy_vol"],"feature_types":["float","float","float","float","float","float","float","float","float","float","float","float","float","float","float","float","float","float","float","float","float","float","float","float","float","float","float","float","float","float","float","float","float","float","float","float","float","float","float","float","float","float","float","float","float","float","float","float","float","float","float","float","float","float","float","float","float","float","float","float","float","float","float","float","float","float","float","float","float","float","float","float","float","float","float","float","float","float","float","float","float","float","float","float","float","float","float","float","float","float","float","float","float","float","float","float","float","float","float","float","float","float","float","float","float","float","float","float","float","float","float","float","float","float","float","float"],"gradient_booster":{"model":{"cats":{"enc":[],"feature_segments":[],"sorted_idx":[]},"gbtree_model_param":{"num_parallel_tree":"1","num_trees":"1100"},"iteration_indptr":[0,1,2,3,4,5,6,7,8,9,10,11,12,13,14,15,16,17,18,19,20,21,22,23,24,25,26,27,28,29,30,31,32,33,34,35,36,37,38,39,40,41,42,43,44,45,46,47,48,49,50,51,52,53,54,55,56,57,58,59,60,61,62,63,64,65,66,67,68,69,70,71,72,73,74,75,76,77,78,79,80,81,82,83,84,85,86,87,88,89,90,91,92,93,94,95,96,97,98,99,100,101,102,103,104,105,106,107,108,109,110,111,112,113,114,115,116,117,118,119,120,121,122,123,124,125,126,127,128,129,130,131,132,133,134,135,136,137,138,139,140,141,142,143,144,145,146,147,148,149,150,151,152,153,154,155,156,157,158,159,160,161,162,163,164,165,166,167,168,169,170,171,172,173,174,175,176,177,178,179,180,181,182,183,184,185,186,187,188,189,190,191,192,193,194,195,196,197,198,199,200,201,202,203,204,205,206,207,208,209,210,211,212,213,214,215,216,217,218,219,220,221,222,223,224,225,226,227,228,229,230,231,232,233,234,235,236,237,238,239,240,241,242,243,244,245,246,247,248,249,250,251,252,253,254,255,256,257,258,259,260,261,262,263,264,265,266,267,268,269,270,271,272,273,274,275,276,277,278,279,280,281,282,283,284,285,286,287,288,289,290,291,292,293,294,295,296,297,298,299,300,301,302,303,304,305,306,307,308,309,310,311,312,313,314,315,316,317,318,319,320,321,322,323,324,325,326,327,328,329,330,331,332,333,334,335,336,337,338,339,340,341,342,343,344,345,346,347,348,349,350,351,352,353,354,355,356,357,358,359,360,361,362,363,364,365,366,367,368,369,370,371,372,373,374,375,376,377,378,379,380,381,382,383,384,385,386,387,388,389,390,391,392,393,394,395,396,397,398,399,400,401,402,403,404,405,406,407,408,409,410,411,412,413,414,415,416,417,418,419,420,421,422,423,424,425,426,427,428,429,430,431,432,433,434,435,436,437,438,439,440,441,442,443,444,445,446,447,448,449,450,451,452,453,454,455,456,457,458,459,460,461,462,463,464,465,466,467,468,469,470,471,472,473,474,475,476,477,478,479,480,481,482,483,484,485,486,487,488,489,490,491,492,493,494,495,496,497,498,499,500,501,502,503,504,505,506,507,508,509,510,511,512,513,514,515,516,517,518,519,520,521,522,523,524,525,526,527,528,529,530,531,532,533,534,535,536,537,538,539,540,541,542,543,544,545,546,547,548,549,550,551,552,553,554,555,556,557,558,559,560,561,562,563,564,565,566,567,568,569,570,571,572,573,574,575,576,577,578,579,580,581,582,583,584,585,586,587,588,589,590,591,592,593,594,595,596,597,598,599,600,601,602,603,604,605,606,607,608,609,610,611,612,613,614,615,616,617,618,619,620,621,622,623,624,625,626,627,628,629,630,631,632,633,634,635,636,637,638,639,640,641,642,643,644,645,646,647,648,649,650,651,652,653,654,655,656,657,658,659,660,661,662,663,664,665,666,667,668,669,670,671,672,673,674,675,676,677,678,679,680,681,682,683,684,685,686,687,688,689,690,691,692,693,694,695,696,697,698,699,700,701,702,703,704,705,706,707,708,709,710,711,712,713,714,715,716,717,718,719,720,721,722,723,724,725,726,727,728,729,730,731,732,733,734,735,736,737,738,739,740,741,742,743,744,745,746,747,748,749,750,751,752,753,754,755,756,757,758,759,760,761,762,763,764,765,766,767,768,769,770,771,772,773,774,775,776,777,778,779,780,781,782,783,784,785,786,787,788,789,790,791,792,793,794,795,796,797,798,799,800,801,802,803,804,805,806,807,808,809,810,811,812,813,814,815,816,817,818,819,820,821,822,823,824,825,826,827,828,829,830,831,832,833,834,835,836,837,838,839,840,841,842,843,844,845,846,847,848,849,850,851,852,853,854,855,856,857,858,859,860,861,862,863,864,865,866,867,868,869,870,871,872,873,874,875,876,877,878,879,880,881,882,883,884,885,886,887,888,889,890,891,892,893,894,895,896,897,898,899,900,901,902,903,904,905,906,907,908,909,910,911,912,913,914,915,916,917,918,919,920,921,922,923,924,925,926,927,928,929,930,931,932,933,934,935,936,937,938,939,940,941,942,943,944,945,946,947,948,949,950,951,952,953,954,955,956,957,958,959,960,961,962,963,964,965,966,967,968,969,970,971,972,973,974,975,976,977,978,979,980,981,982,983,984,985,986,987,988,989,990,991,992,993,994,995,996,997,998,999,1000,1001,1002,1003,1004,1005,1006,1007,1008,1009,1010,1011,1012,1013,1014,1015,1016,1017,1018,1019,1020,1021,1022,1023,1024,1025,1026,1027,1028,1029,1030,1031,1032,1033,1034,1035,1036,1037,1038,1039,1040,1041,1042,1043,1044,1045,1046,1047,1048,1049,1050,1051,1052,1053,1054,1055,1056,1057,1058,1059,1060,1061,1062,1063,1064,1065,1066,1067,1068,1069,1070,1071,1072,1073,1074,1075,1076,1077,1078,1079,1080,1081,1082,1083,1084,1085,1086,1087,1088,1089,1090,1091,1092,1093,1094,1095,1096,1097,1098,1099,1100],"tree_info":[0,0,0,0,0,0,0,0,0,0,0,0,0,0,0,0,0,0,0,0,0,0,0,0,0,0,0,0,0,0,0,0,0,0,0,0,0,0,0,0,0,0,0,0,0,0,0,0,0,0,0,0,0,0,0,0,0,0,0,0,0,0,0,0,0,0,0,0,0,0,0,0,0,0,0,0,0,0,0,0,0,0,0,0,0,0,0,0,0,0,0,0,0,0,0,0,0,0,0,0,0,0,0,0,0,0,0,0,0,0,0,0,0,0,0,0,0,0,0,0,0,0,0,0,0,0,0,0,0,0,0,0,0,0,0,0,0,0,0,0,0,0,0,0,0,0,0,0,0,0,0,0,0,0,0,0,0,0,0,0,0,0,0,0,0,0,0,0,0,0,0,0,0,0,0,0,0,0,0,0,0,0,0,0,0,0,0,0,0,0,0,0,0,0,0,0,0,0,0,0,0,0,0,0,0,0,0,0,0,0,0,0,0,0,0,0,0,0,0,0,0,0,0,0,0,0,0,0,0,0,0,0,0,0,0,0,0,0,0,0,0,0,0,0,0,0,0,0,0,0,0,0,0,0,0,0,0,0,0,0,0,0,0,0,0,0,0,0,0,0,0,0,0,0,0,0,0,0,0,0,0,0,0,0,0,0,0,0,0,0,0,0,0,0,0,0,0,0,0,0,0,0,0,0,0,0,0,0,0,0,0,0,0,0,0,0,0,0,0,0,0,0,0,0,0,0,0,0,0,0,0,0,0,0,0,0,0,0,0,0,0,0,0,0,0,0,0,0,0,0,0,0,0,0,0,0,0,0,0,0,0,0,0,0,0,0,0,0,0,0,0,0,0,0,0,0,0,0,0,0,0,0,0,0,0,0,0,0,0,0,0,0,0,0,0,0,0,0,0,0,0,0,0,0,0,0,0,0,0,0,0,0,0,0,0,0,0,0,0,0,0,0,0,0,0,0,0,0,0,0,0,0,0,0,0,0,0,0,0,0,0,0,0,0,0,0,0,0,0,0,0,0,0,0,0,0,0,0,0,0,0,0,0,0,0,0,0,0,0,0,0,0,0,0,0,0,0,0,0,0,0,0,0,0,0,0,0,0,0,0,0,0,0,0,0,0,0,0,0,0,0,0,0,0,0,0,0,0,0,0,0,0,0,0,0,0,0,0,0,0,0,0,0,0,0,0,0,0,0,0,0,0,0,0,0,0,0,0,0,0,0,0,0,0,0,0,0,0,0,0,0,0,0,0,0,0,0,0,0,0,0,0,0,0,0,0,0,0,0,0,0,0,0,0,0,0,0,0,0,0,0,0,0,0,0,0,0,0,0,0,0,0,0,0,0,0,0,0,0,0,0,0,0,0,0,0,0,0,0,0,0,0,0,0,0,0,0,0,0,0,0,0,0,0,0,0,0,0,0,0,0,0,0,0,0,0,0,0,0,0,0,0,0,0,0,0,0,0,0,0,0,0,0,0,0,0,0,0,0,0,0,0,0,0,0,0,0,0,0,0,0,0,0,0,0,0,0,0,0,0,0,0,0,0,0,0,0,0,0,0,0,0,0,0,0,0,0,0,0,0,0,0,0,0,0,0,0,0,0,0,0,0,0,0,0,0,0,0,0,0,0,0,0,0,0,0,0,0,0,0,0,0,0,0,0,0,0,0,0,0,0,0,0,0,0,0,0,0,0,0,0,0,0,0,0,0,0,0,0,0,0,0,0,0,0,0,0,0,0,0,0,0,0,0,0,0,0,0,0,0,0,0,0,0,0,0,0,0,0,0,0,0,0,0,0,0,0,0,0,0,0,0,0,0,0,0,0,0,0,0,0,0,0,0,0,0,0,0,0,0,0,0,0,0,0,0,0,0,0,0,0,0,0,0,0,0,0,0,0,0,0,0,0,0,0,0,0,0,0,0,0,0,0,0,0,0,0,0,0,0,0,0,0,0,0,0,0,0,0,0,0,0,0,0,0,0,0,0,0,0,0,0,0,0,0,0,0,0,0,0,0,0,0,0,0,0,0,0,0,0,0,0,0,0,0,0,0,0,0,0,0,0,0,0,0,0,0,0,0,0,0,0,0,0,0,0,0,0,0,0,0,0,0,0,0,0,0,0,0,0,0,0,0,0,0,0,0,0,0,0,0,0,0,0,0,0,0,0,0,0,0,0,0,0,0,0,0,0,0,0,0,0,0,0,0,0,0,0,0,0,0,0,0,0,0,0,0,0,0,0,0,0,0,0,0,0,0,0,0,0,0,0,0,0,0,0,0,0,0,0,0,0,0,0,0,0,0,0,0,0,0,0,0,0,0,0,0,0,0,0,0,0,0,0,0,0,0,0,0,0,0,0,0,0,0,0,0,0,0,0,0,0,0,0,0,0,0,0,0,0,0,0,0,0,0,0,0,0,0,0,0,0,0,0,0,0,0,0,0,0,0,0,0,0,0,0,0,0,0,0,0,0,0,0,0,0,0,0,0,0],"trees":[{"base_weights":[-3.06453E-3,3.5918155E-1,-1.327762E-2,2.0323405E-1,3.1230992E-2,-4.6684718E-1,-9.106545E-3,3.3437845E-1,1.2299424E-1,-1.0886808E-2,-0E0,7.1514957E-3,-3.7754446E-2,7.5264587E-3,-0E0,1.5061943E-1,-0E0,1.814343E-1,4.9650418E-3,-3.2127246E-2,-2.2589792E-1,-0E0,1.8923591E-1,-0E0,4.415312E-3,-4.707183E-4,5.6010716E-2,-4.4279266E-2,-5.4670777E-3,-0E0,-2.3614334E-1,4.398312E-3,-0E0,5.1632785E-4,-2.9726708E-4,1.5518569E-3,1.687357E-4,-7.5147167E-4,-1.6308563E-3,3.22844E-4,-5.2265194E-4,-5.311364E-3,-0E0],"categories":[],"categories_nodes":[],"categories_segments":[],"categories_sizes":[],"default_left":[0,0,0,0,0,0,0,0,0,0,0,0,0,0,0,0,0,0,0,0,0,0,0,0,0,0,0,0,0,0,0,0,0,0,0,0,0,0,0,0,0,0,0],"id":0,"left_children":[1,3,5,7,-1,9,11,13,15,-1,-1,17,19,-1,-1,21,-1,23,25,27,29,-1,31,-1,-1,33,35,37,39,-1,41,-1,-1,-1,-1,-1,-1,-1,-1,-1,-1,-1,-1],"loss_changes":[9.048049E0,1.0520143E1,4.3486357E0,3.892181E-1,0E0,2.5046968E-1,1.1356487E0,7.103753E-2,1.5866971E-1,0E0,0E0,4.8595396E-1,8.031137E-1,0E0,0E0,2.1823162E-1,0E0,1.00161076E-1,4.4627878E-1,2.5310034E-1,5.3113937E-2,0E0,2.838409E-2,0E0,0E0,4.332715E-1,7.7224255E-2,1.150738E-1,1.1252074E-1,0E0,4.314363E-2,0E0,0E0,0E0,0E0,0E0,0E0,0E0,0E0,0E0,0E0,0E0,0E0],"parents":[2147483647,0,0,1,1,2,2,3,3,5,5,6,6,7,7,8,8,11,11,12,12,15,15,17,17,18,18,19,19,20,20,22,22,25,25,26,26,27,27,28,28,30,30],"right_children":[2,4,6,8,-1,10,12,14,16,-1,-1,18,20,-1,-1,22,-1,24,26,28,30,-1,32,-1,-1,34,36,38,40,-1,42,-1,-1,-1,-1,-1,-1,-1,-1,-1,-1,-1,-1],"split_conditions":[5.272E3,3.121766E8,3.1850692E7,3.936E3,3.1230992E-2,1.5E2,2.35E5,8.360744E7,5E3,-1.0886808E-2,-0E0,1.2898099E8,3.785E5,7.5264587E-3,-0E0,4.245E3,-0E0,-2.12E2,1.78E5,7.247119E10,3.88E5,-0E0,4.84E3,-0E0,4.415312E-3,5.39E4,2.315E5,2.935E5,2.88E5,-0E0,1.15E4,4.398312E-3,-0E0,5.1632785E-4,-2.9726708E-4,1.5518569E-3,1.687357E-4,-7.5147167E-4,-1.6308563E-3,3.22844E-4,-5.2265194E-4,-5.311364E-3,-0E0],"split_indices":[6,2,2,5,0,0,5,2,3,0,0,2,6,0,0,5,0,0,6,2,4,0,5,0,0,4,4,6,4,0,0,0,0,0,0,0,0,0,0,0,0,0,0],"split_type":[0,0,0,0,0,0,0,0,0,0,0,0,0,0,0,0,0,0,0,0,0,0,0,0,0,0,0,0,0,0,0,0,0,0,0,0,0,0,0,0,0,0,0],"sum_hessian":[2.493E3,6.7E1,2.426E3,5.9E1,8E0,2.1E1,2.405E3,2E1,3.9E1,1.9E1,2E0,1.523E3,8.82E2,1.9E1,1E0,3.3E1,6E0,1.6E1,1.507E3,8.59E2,2.3E1,6E0,2.7E1,1E0,1.5E1,1.353E3,1.54E2,5.77E2,2.82E2,1E0,2.2E1,2.4E1,3E0,4.64E2,8.89E2,1.08E2,4.6E1,4.55E2,1.22E2,1.22E2,1.6E2,2.1E1,1E0],"tree_param":{"num_deleted":"0","num_feature":"116","num_nodes":"43","size_leaf_vector":"1"}},{"base_weights":[-2.5383502E-3,3.876915E-1,-1.2104205E-2,1.3739698E-1,4.791194E-1,-2.5667986E-1,-8.71714E-3,3.155012E-3,-0E0,5.6591266E-1,-0E0,-9.519414E-3,-5.740913E-4,8.031127E-3,-3.8954154E-2,2.8175837E-1,7.176999E-1,-1.8913098E-1,9.928358E-3,-3.3263326E-2,-4.849413E-3,6.9442834E-3,-0E0,1.263758E0,4.0849254E-1,-8.97345E-3,-0E0,3.6786433E-2,-1.7516434E-3,-4.3273956E-2,-1.8536238E-3,7.197062E-3,3.31467E-2,9.967159E-3,-0E0,1.8847863E-3,1.6170777E-4,-4.4502533E-4,7.88873E-4,-6.323516E-4,-1.1415117E-3,3.4684537E-4,-3.401473E-4],"categories":[],"categories_nodes":[],"categories_segments":[],"categories_sizes":[],"default_left":[0,0,0,0,0,0,0,0,0,0,0,0,0,0,0,0,0,0,0,0,0,0,0,0,0,0,0,0,0,0,0,0,0,0,0,0,0,0,0,0,0,0,0],"id":1,"left_children":[1,3,5,7,9,11,13,-1,-1,15,-1,-1,-1,17,19,21,23,25,27,29,-1,-1,-1,31,33,-1,-1,35,37,39,41,-1,-1,-1,-1,-1,-1,-1,-1,-1,-1,-1,-1],"loss_changes":[9.056132E0,1.015027E0,1.8694729E0,2.0484567E-2,1.4769754E0,1.0762732E0,1.2249863E0,0E0,0E0,9.60268E-1,0E0,0E0,0E0,4.8006096E-1,7.797612E-1,1.05065584E-1,2.6988163E0,4.3382233E-1,4.9268878E-1,2.4095255E-1,0E0,0E0,0E0,8.1868744E-1,2.193842E-1,0E0,0E0,6.50094E-1,7.4385744E-1,4.2052865E-2,5.3355068E-2,0E0,0E0,0E0,0E0,0E0,0E0,0E0,0E0,0E0,0E0,0E0,0E0],"parents":[2147483647,0,0,1,1,2,2,3,3,4,4,5,5,6,6,9,9,13,13,14,14,15,15,16,16,17,17,18,18,19,19,23,23,24,24,27,27,28,28,29,29,30,30],"right_children":[2,4,6,8,10,12,14,-1,-1,16,-1,-1,-1,18,20,22,24,26,28,30,-1,-1,-1,32,34,-1,-1,36,38,40,42,-1,-1,-1,-1,-1,-1,-1,-1,-1,-1,-1,-1],"split_conditions":[5E3,9.5792E5,8.0345E4,4.758E3,3.25721E6,1.1187E4,2.35E5,3.155012E-3,-0E0,4.039E3,-0E0,-9.519414E-3,-5.740913E-4,1.20124E5,3.74E5,1.670938E6,4.381E3,9.517E3,5.08E4,2.96169E5,-4.849413E-3,6.9442834E-3,-0E0,1.14514E6,4.84E3,-8.97345E-3,-0E0,7.9857E5,1.005E5,2.6E5,2.73E5,7.197062E-3,3.31467E-2,9.967159E-3,-0E0,1.8847863E-3,1.6170777E-4,-4.4502533E-4,7.88873E-4,-6.323516E-4,-1.1415117E-3,3.4684537E-4,-3.401473E-4],"split_indices":[3,1,1,3,1,3,5,0,0,3,0,0,0,1,5,1,3,3,5,1,0,0,0,1,5,0,0,1,5,5,3,0,0,0,0,0,0,0,0,0,0,0,0],"split_type":[0,0,0,0,0,0,0,0,0,0,0,0,0,0,0,0,0,0,0,0,0,0,0,0,0,0,0,0,0,0,0,0,0,0,0,0,0,0,0,0,0,0,0],"sum_hessian":[2.477E3,5.8E1,2.419E3,1.7E1,4.1E1,3.1E1,2.388E3,1.6E1,1E0,3.4E1,7E0,1.6E1,1.5E1,1.526E3,8.62E2,1.3E1,2.1E1,1.2E1,1.514E3,8.39E2,2.3E1,1.1E1,2E0,7E0,1.4E1,5E0,7E0,4.72E2,1.042E3,6.24E2,2.15E2,2E0,5E0,1.2E1,2E0,1.67E2,3.05E2,7.07E2,3.35E2,2.75E2,3.49E2,7.8E1,1.37E2],"tree_param":{"num_deleted":"0","num_feature":"116","num_nodes":"43","size_leaf_vector":"1"}},{"base_weights":[-0E0,3.9255992E-1,-1.041932E-2,7.116462E-1,3.2533544E-1,-5.2533377E-2,3.8612103E-3,8.686904E-1,-0E0,3.5535756E-1,-0E0,-4.5466933E-1,-3.895495E-2,4.3428455E-2,-1.0127461E-2,2.0987064E-1,3.0257072E-2,3.1304445E-2,3.9730793E-1,-0E0,1.0830252E-3,-1.0710877E-2,-0E0,-2.0526757E-2,-1.4130238E-3,9.0401284E-2,1.1119294E-2,-7.054578E-3,-2.0306748E-1,6.054349E-3,-0E0,1.5732514E-3,-0E0,-0E0,4.2651135E-1,-0E0,-2.6713591E-2,1.4278832E-1,6.251529E-2,7.1094744E-2,-2.3832256E-3,-2.2067843E-2,3.6251363E-3,-0E0,-4.643746E-3,7.986496E-3,1.9863062E-2,-6.595929E-4,-0E0,-0E0,3.477565E-3,-0E0,1.8152086E-3,3.8450088E-3,-1.4728917E-3,-4.881874E-4,3.5603852E-3,-3.343661E-4,-1.3873776E-3,3.8319407E-4,-5.840917E-4],"categories":[],"categories_nodes":[],"categories_segments":[],"categories_sizes":[],"default_left":[0,0,0,0,0,0,0,0,0,0,0,0,0,0,0,0,0,0,0,0,0,0,0,0,0,0,0,0,0,0,0,0,0,0,0,0,0,0,0,0,0,0,0,0,0,0,0,0,0,0,0,0,0,0,0,0,0,0,0,0,0],"id":2,"left_children":[1,3,5,7,9,11,13,15,-1,17,19,21,23,25,27,29,-1,31,33,-1,-1,-1,-1,35,-1,37,39,41,43,-1,-1,-1,-1,-1,45,-1,47,49,51,53,55,57,59,-1,-1,-1,-1,-1,-1,-1,-1,-1,-1,-1,-1,-1,-1,-1,-1,-1,-1],"loss_changes":[1.0278248E1,8.690834E-1,1.4734495E0,9.725914E-1,3.662982E-1,3.1299732E0,1.0076182E0,1.9892106E0,0E0,4.4904184E-1,1.0057624E-2,2.5297403E-1,2.491185E-1,6.72505E-1,6.7203707E-1,5.954586E-2,0E0,2.4975121E-2,2.8280258E-1,0E0,0E0,0E0,0E0,5.672477E-2,0E0,1.7066562E-1,2.688371E-1,2.1697727E-1,4.3594062E-2,0E0,0E0,0E0,0E0,0E0,4.1022682E-1,0E0,3.7560493E-2,1.1920786E-1,1.386056E-1,9.4925195E-1,7.0227385E-1,1.1461115E-1,3.143597E-1,0E0,0E0,0E0,0E0,0E0,0E0,0E0,0E0,0E0,0E0,0E0,0E0,0E0,0E0,0E0,0E0,0E0,0E0],"parents":[2147483647,0,0,1,1,2,2,3,3,4,4,5,5,6,6,7,7,9,9,10,10,11,11,12,12,13,13,14,14,15,15,17,17,18,18,23,23,25,25,26,26,27,27,28,28,34,34,36,36,37,37,38,38,39,39,40,40,41,41,42,42],"right_children":[2,4,6,8,10,12,14,16,-1,18,20,22,24,26,28,30,-1,32,34,-1,-1,-1,-1,36,-1,38,40,42,44,-1,-1,-1,-1,-1,46,-1,48,50,52,54,56,58,60,-1,-1,-1,-1,-1,-1,-1,-1,-1,-1,-1,-1,-1,-1,-1,-1,-1,-1],"split_conditions":[5.469E3,-1.4E2,2.07467E5,1.47541E6,3.25721E6,9.695E3,5.39E4,1.03936E6,-0E0,7.47551E5,3.712043E6,1.5E2,2.61E5,7.9857E5,3.785E5,4.998E3,3.0257072E-2,-4.1E1,-1E2,-0E0,1.0830252E-3,-1.0710877E-2,-0E0,8.18E4,-1.4130238E-3,2.43E4,6.629E3,9.85E4,3.88E5,6.054349E-3,-0E0,1.5732514E-3,-0E0,-0E0,2.613888E6,-0E0,1.31098E5,1.1104E4,3.08E4,2.365827E6,6.530068E6,9.06E4,2.795E5,-0E0,-4.643746E-3,7.986496E-3,1.9863062E-2,-6.595929E-4,-0E0,-0E0,3.477565E-3,-0E0,1.8152086E-3,3.8450088E-3,-1.4728917E-3,-4.881874E-4,3.5603852E-3,-3.343661E-4,-1.3873776E-3,3.8319407E-4,-5.840917E-4],"split_indices":[4,0,1,1,1,4,4,1,0,1,1,0,5,1,6,4,0,0,0,0,0,0,0,5,0,5,3,3,4,0,0,0,0,0,1,0,18,6,4,1,1,5,6,0,0,0,0,0,0,0,0,0,0,0,0,0,0,0,0,0,0],"split_type":[0,0,0,0,0,0,0,0,0,0,0,0,0,0,0,0,0,0,0,0,0,0,0,0,0,0,0,0,0,0,0,0,0,0,0,0,0,0,0,0,0,0,0,0,0,0,0,0,0,0,0,0,0,0,0,0,0,0,0,0,0],"sum_hessian":[2.474E3,6.5E1,2.409E3,1E1,5.5E1,6.19E2,1.79E3,8E0,2E0,4.9E1,6E0,1.9E1,6E2,4.77E2,1.313E3,4E0,4E0,7E0,4.2E1,2E0,4E0,1.7E1,2E0,3.65E2,2.35E2,1.88E2,2.89E2,1.295E3,1.8E1,3E0,1E0,6E0,1E0,4E0,3.8E1,7E1,2.95E2,5.9E1,1.29E2,6E1,2.29E2,5.58E2,7.37E2,1E0,1.7E1,3.5E1,3E0,2.66E2,2.9E1,8E0,5.1E1,3.8E1,9.1E1,3.6E1,2.4E1,2.07E2,2.2E1,4.93E2,6.5E1,5.16E2,2.21E2],"tree_param":{"num_deleted":"0","num_feature":"116","num_nodes":"61","size_leaf_vector":"1"}},{"base_weights":[-8.531572E-4,3.9498743E-1,-1.2559848E-2,1.804753E-1,3.0399077E-2,-4.3672976E-1,-8.143918E-3,2.2573735E-1,-0E0,-4.6696565E-1,-0E0,8.909819E-3,-3.7303116E-2,2.7692145E-1,9.811343E-2,-1.05030285E-2,-0E0,3.347993E-2,-2.7903924E-3,-3.216691E-2,-2.2019738E-1,6.953502E-2,3.1801915E-1,-0E0,3.0485382E-3,8.30545E-2,-0E0,-2.0246696E-2,2.8970445E-2,-4.301874E-2,-1.8849891E-3,-4.931609E-3,-0E0,-0E0,2.179748E-3,-0E0,7.095303E-3,2.9831321E-3,1.2100418E-3,1.4497619E-3,-4.6119143E-4,-1.4228698E-4,-9.193824E-4,2.8645777E-4,1.254594E-3,-7.105013E-4,-1.3395901E-3,1.3832987E-4,-3.145965E-4],"categories":[],"categories_nodes":[],"categories_segments":[],"categories_sizes":[],"default_left":[0,0,0,0,0,0,0,0,0,0,0,0,0,0,0,0,0,0,0,0,0,0,0,0,0,0,0,0,0,0,0,0,0,0,0,0,0,0,0,0,0,0,0,0,0,0,0,0,0],"id":3,"left_children":[1,3,5,7,-1,9,11,13,-1,15,-1,17,19,21,23,-1,-1,25,27,29,31,33,35,-1,-1,37,39,41,43,45,47,-1,-1,-1,-1,-1,-1,-1,-1,-1,-1,-1,-1,-1,-1,-1,-1,-1,-1],"loss_changes":[1.1460787E1,1.4616153E1,4.35256E0,4.223305E-1,0E0,2.1966457E-1,1.2177813E0,1.1054778E-1,0E0,1.6868973E-1,0E0,4.513556E-1,7.213917E-1,5.9414864E-2,1.2489088E-1,0E0,0E0,8.433869E-1,5.572163E-1,2.6709622E-1,2.8126478E-2,2.726509E-2,4.8070908E-2,0E0,0E0,2.0530224E-1,4.2384964E-1,1.7753905E-1,1.2348062E-1,7.446885E-2,2.9887049E-2,0E0,0E0,0E0,0E0,0E0,0E0,0E0,0E0,0E0,0E0,0E0,0E0,0E0,0E0,0E0,0E0,0E0,0E0],"parents":[2147483647,0,0,1,1,2,2,3,3,5,5,6,6,7,7,9,9,11,11,12,12,13,13,14,14,17,17,18,18,19,19,20,20,21,21,22,22,25,25,26,26,27,27,28,28,29,29,30,30],"right_children":[2,4,6,8,-1,10,12,14,-1,16,-1,18,20,22,24,-1,-1,26,28,30,32,34,36,-1,-1,38,40,42,44,46,48,-1,-1,-1,-1,-1,-1,-1,-1,-1,-1,-1,-1,-1,-1,-1,-1,-1,-1],"split_conditions":[5.469E3,3.121766E8,3.1850692E7,4.998E3,3.0399077E-2,1.5E2,2.36E5,1E2,-0E0,9.695E3,-0E0,5.51E4,3.88E5,7.47551E5,7.79327E5,-1.05030285E-2,-0E0,7.9857E5,1.025E5,2.87355E5,4.63735E5,-1.6E2,-1.2E3,-0E0,3.0485382E-3,1.2284001E10,6.778E3,8.63E4,2.065E5,2.91E5,2.88E5,-4.931609E-3,-0E0,-0E0,2.179748E-3,-0E0,7.095303E-3,2.9831321E-3,1.2100418E-3,1.4497619E-3,-4.6119143E-4,-1.4228698E-4,-9.193824E-4,2.8645777E-4,1.254594E-3,-7.105013E-4,-1.3395901E-3,1.3832987E-4,-3.145965E-4],"split_indices":[4,2,2,4,0,0,3,0,0,4,0,3,4,1,1,0,0,1,4,1,1,0,0,0,0,2,3,4,3,4,4,0,0,0,0,0,0,0,0,0,0,0,0,0,0,0,0,0,0],"split_type":[0,0,0,0,0,0,0,0,0,0,0,0,0,0,0,0,0,0,0,0,0,0,0,0,0,0,0,0,0,0,0,0,0,0,0,0,0,0,0,0,0,0,0,0,0,0,0,0,0],"sum_hessian":[2.515E3,7.1E1,2.444E3,5.9E1,1.2E1,2.4E1,2.42E3,4.6E1,1.3E1,2.2E1,2E0,1.516E3,9.04E2,3E1,1.6E1,2.1E1,1E0,5.03E2,1.013E3,8.82E2,2.2E1,7E0,2.3E1,2E0,1.4E1,2.04E2,2.99E2,6.64E2,3.49E2,6.37E2,2.45E2,2.1E1,1E0,1E0,6E0,1E0,2.2E1,6.1E1,1.43E2,7.1E1,2.28E2,4.26E2,2.38E2,2.38E2,1.11E2,4.33E2,2.04E2,1.24E2,1.21E2],"tree_param":{"num_deleted":"0","num_feature":"116","num_nodes":"49","size_leaf_vector":"1"}},{"base_weights":[-6.8112207E-4,3.4262824E-1,-1.0766664E-2,4.085199E-1,1.3910529E-1,-8.360049E-3,-2.1408439E-1,4.163904E-1,-0E0,5.5998318E-2,3.241405E-1,4.3829805E-3,-3.1537436E-2,-0E0,-2.2265401E-1,4.929407E-2,9.445061E-3,7.5563535E-2,-0E0,1.8717693E-2,-0E0,-3.480938E-2,1.1373989E-2,-3.4079116E-2,-0E0,-4.9944785E-3,-0E0,2.0728258E-3,-0E0,2.0465744E-3,-0E0,2.8462347E-2,-1.6819672E-1,9.639288E-2,2.5844264E-3,-2.537287E-2,-6.2537216E-2,1.17594056E-4,6.3815196E-3,-0E0,-4.761338E-3,6.873267E-4,3.4306434E-3,-2.074915E-4,7.231317E-4,-0E0,-5.649931E-4,-1.3800501E-3,-0E0],"categories":[],"categories_nodes":[],"categories_segments":[],"categories_sizes":[],"default_left":[0,0,0,0,0,0,0,0,0,0,0,0,0,0,0,0,0,0,0,0,0,0,0,0,0,0,0,0,0,0,0,0,0,0,0,0,0,0,0,0,0,0,0,0,0,0,0,0,0],"id":4,"left_children":[1,3,5,7,9,11,13,15,-1,17,19,21,23,-1,25,27,-1,29,-1,-1,-1,31,33,35,-1,-1,-1,-1,-1,-1,-1,37,39,41,43,45,47,-1,-1,-1,-1,-1,-1,-1,-1,-1,-1,-1,-1],"loss_changes":[8.498468E0,6.613836E-1,1.0778277E0,1.5773487E-1,9.965414E-2,7.246602E-1,4.7735095E-2,1.3738823E-1,0E0,3.290082E-2,3.307927E-1,4.0980804E-1,8.669239E-2,0E0,4.397905E-2,1.7911915E-2,0E0,2.7805395E-2,0E0,0E0,0E0,1.9443711E0,9.34039E-1,1.5814793E-1,0E0,0E0,0E0,0E0,0E0,0E0,0E0,7.571736E-1,5.7937694E-1,3.7921894E-1,4.637084E-1,1.2922585E-2,1.4241457E-2,0E0,0E0,0E0,0E0,0E0,0E0,0E0,0E0,0E0,0E0,0E0,0E0],"parents":[2147483647,0,0,1,1,2,2,3,3,4,4,5,5,6,6,7,7,9,9,10,10,11,11,12,12,14,14,15,15,17,17,21,21,22,22,23,23,31,31,32,32,33,33,34,34,35,35,36,36],"right_children":[2,4,6,8,10,12,14,16,-1,18,20,22,24,-1,26,28,-1,30,-1,-1,-1,32,34,36,-1,-1,-1,-1,-1,-1,-1,38,40,42,44,46,48,-1,-1,-1,-1,-1,-1,-1,-1,-1,-1,-1,-1],"split_conditions":[5.469E3,1.5E2,3.785E5,5.272E3,4.17E2,2.35E5,3.88E5,-4.5E2,-0E0,3.64E2,4.792E3,1.1767E4,3.195E5,-0E0,1.35E4,-6.5E2,9.445061E-3,5.066E3,-0E0,1.8717693E-2,-0E0,9.037E3,2.605E4,2.94E5,-0E0,-4.9944785E-3,-0E0,2.0728258E-3,-0E0,2.0465744E-3,-0E0,8.991E3,8.9E3,1.815E4,1.025E5,-9E3,1.25E4,1.17594056E-4,6.3815196E-3,-0E0,-4.761338E-3,6.873267E-4,3.4306434E-3,-2.074915E-4,7.231317E-4,-0E0,-5.649931E-4,-1.3800501E-3,-0E0],"split_indices":[4,0,6,6,0,5,4,0,0,0,4,5,6,0,0,0,0,6,0,0,0,4,6,6,0,0,0,0,0,0,0,4,5,4,4,0,0,0,0,0,0,0,0,0,0,0,0,0,0],"split_type":[0,0,0,0,0,0,0,0,0,0,0,0,0,0,0,0,0,0,0,0,0,0,0,0,0,0,0,0,0,0,0,0,0,0,0,0,0,0,0,0,0,0,0,0,0,0,0,0,0],"sum_hessian":[2.503E3,7E1,2.433E3,5.1E1,1.9E1,2.407E3,2.6E1,5E1,1E0,1.5E1,4E0,1.539E3,8.68E2,1E0,2.5E1,4E0,4.6E1,1.4E1,1E0,1E0,3E0,2.22E2,1.317E3,8.18E2,5E1,2.4E1,1E0,3E0,1E0,1.2E1,2E0,1.48E2,7.4E1,1.18E2,1.199E3,6.4E2,1.78E2,1.38E2,1E1,1.9E1,5.5E1,6.2E1,5.6E1,8.48E2,3.51E2,1.9E1,6.21E2,1.74E2,4E0],"tree_param":{"num_deleted":"0","num_feature":"116","num_nodes":"49","size_leaf_vector":"1"}},{"base_weights":[1.6409942E-4,3.555613E-1,-1.0424142E-2,1.8804286E-1,2.9741732E-2,-4.4789073E-1,-5.8612595E-3,2.3784918E-1,4.438817E-4,-1.0358077E-2,-0E0,1.0806658E-2,-3.4780655E-2,2.7233836E-1,3.5955265E-2,3.468006E-2,-3.5712903E-5,-2.9497797E-2,-4.771381E-3,-0E0,5.9913592E-3,-0E0,1.4619791E-3,-0E0,5.9136312E-2,-1.6846742E-2,3.3479325E-2,-4.281374E-2,-4.868162E-3,-4.2531788E-4,5.736755E-3,2.4145497E-3,6.349075E-4,-2.228586E-4,-1.1036792E-3,4.146304E-4,1.3001222E-3,-6.4785016E-4,-1.2109024E-3,2.384326E-4,-4.9656647E-4],"categories":[],"categories_nodes":[],"categories_segments":[],"categories_sizes":[],"default_left":[0,0,0,0,0,0,0,0,0,0,0,0,0,0,0,0,0,0,0,0,0,0,0,0,0,0,0,0,0,0,0,0,0,0,0,0,0,0,0,0,0],"id":5,"left_children":[1,3,5,7,-1,9,11,13,-1,-1,-1,15,17,19,21,23,25,27,-1,-1,-1,-1,-1,29,31,33,35,37,39,-1,-1,-1,-1,-1,-1,-1,-1,-1,-1,-1,-1],"loss_changes":[9.620004E0,1.186984E1,4.6327167E0,4.0302873E-1,0E0,2.4526405E-1,1.1747887E0,1.7113185E-1,0E0,0E0,0E0,4.1073018E-1,7.512735E-1,2.8728247E-2,2.5019474E-2,4.0155685E-1,5.719014E-1,2.6151037E-1,0E0,0E0,0E0,0E0,0E0,1.1322913E0,3.7167728E-1,1.24534905E-1,8.7231785E-2,5.017352E-2,9.8015934E-2,0E0,0E0,0E0,0E0,0E0,0E0,0E0,0E0,0E0,0E0,0E0,0E0],"parents":[2147483647,0,0,1,1,2,2,3,3,5,5,6,6,7,7,11,11,12,12,13,13,14,14,15,15,16,16,17,17,23,23,24,24,25,25,26,26,27,27,28,28],"right_children":[2,4,6,8,-1,10,12,14,-1,-1,-1,16,18,20,22,24,26,28,-1,-1,-1,-1,-1,30,32,34,36,38,40,-1,-1,-1,-1,-1,-1,-1,-1,-1,-1,-1,-1],"split_conditions":[5.469E3,3.121766E8,1.146518E7,4.998E3,2.9741732E-2,1.5E2,2.335E5,1.88E2,4.438817E-4,-1.0358077E-2,-0E0,5.39E4,3.88E5,-1.2E3,3.1850692E7,1.2016E4,1.025E5,6.8712698E10,-4.771381E-3,-0E0,5.9913592E-3,-0E0,1.4619791E-3,5.770494E10,2.43E4,9.02E4,2.065E5,2.625E5,2.89E5,-4.2531788E-4,5.736755E-3,2.4145497E-3,6.349075E-4,-2.228586E-4,-1.1036792E-3,4.146304E-4,1.3001222E-3,-6.4785016E-4,-1.2109024E-3,2.384326E-4,-4.9656647E-4],"split_indices":[4,2,2,4,0,0,5,0,0,0,0,4,4,0,2,5,4,2,0,0,0,0,0,2,5,5,3,5,4,0,0,0,0,0,0,0,0,0,0,0,0],"split_type":[0,0,0,0,0,0,0,0,0,0,0,0,0,0,0,0,0,0,0,0,0,0,0,0,0,0,0,0,0,0,0,0,0,0,0,0,0,0,0,0,0],"sum_hessian":[2.51E3,7.4E1,2.436E3,6.4E1,1E1,2.4E1,2.412E3,4.7E1,1.7E1,2.2E1,2E0,1.519E3,8.93E2,3.8E1,9E0,4.89E2,1.03E3,8.71E2,2.2E1,1E0,3.7E1,1E0,8E0,2.06E2,2.83E2,6.96E2,3.34E2,5.52E2,3.19E2,1.91E2,1.5E1,9.6E1,1.87E2,5.97E2,9.9E1,2.3E2,1.04E2,3E2,2.52E2,1.55E2,1.64E2],"tree_param":{"num_deleted":"0","num_feature":"116","num_nodes":"41","size_leaf_vector":"1"}},{"base_weights":[-5.847764E-4,3.1299856E-1,-9.704923E-3,3.863881E-1,1.8007909E-1,-2.2710246E-1,-6.9575924E-3,3.1986928E-1,2.3376036E-2,4.083288E-1,-0E0,-8.020301E-3,-4.6912892E-4,8.362677E-3,-3.3566568E-2,6.6791795E-2,3.6884224E-1,-0E0,5.0767964E-1,3.0860022E-2,-1.9061588E-3,-2.9947914E-2,-1.7260695E-1,-0E0,2.0628213E-3,4.0174156E-1,4.3538352E-4,-0E0,1.2408847E-2,-3.2002753E-1,3.626746E-2,-1.1745474E-2,5.5503298E-2,-4.122476E-2,-0E0,-1.8154232E-1,-0E0,7.032756E-3,1.8184593E-2,-8.019768E-3,-0E0,1.7263435E-3,1.7678246E-4,-3.7246698E-4,1.3342466E-4,1.342878E-3,-0E0,-7.260985E-4,-1.3643585E-3,2.2462729E-4,-1.660555E-4,-0E0,-4.2461026E-3],"categories":[],"categories_nodes":[],"categories_segments":[],"categories_sizes":[],"default_left":[0,0,0,0,0,0,0,0,0,0,0,0,0,0,0,0,0,0,0,0,0,0,0,0,0,0,0,0,0,0,0,0,0,0,0,0,0,0,0,0,0,0,0,0,0,0,0,0,0,0,0,0,0],"id":6,"left_children":[1,3,5,7,9,11,13,15,-1,17,-1,-1,-1,19,21,23,25,-1,27,29,31,33,35,-1,-1,37,-1,-1,-1,39,41,43,45,47,49,51,-1,-1,-1,-1,-1,-1,-1,-1,-1,-1,-1,-1,-1,-1,-1,-1,-1],"loss_changes":[6.987632E0,3.8619614E-1,1.3316141E0,1.2340856E0,9.584937E-1,6.3038075E-1,9.9114054E-1,2.6273513E-1,0E0,2.2785676E-1,0E0,0E0,0E0,3.637373E-1,3.4470582E-1,2.8163068E-2,1.4194393E-1,0E0,2.4863768E-1,7.8411955E-1,5.5513567E-1,2.8359157E-1,2.7167201E-2,0E0,0E0,3.1348705E-1,0E0,0E0,0E0,7.4857056E-2,5.475919E-1,9.234566E-2,7.668853E-2,5.5477023E-2,1.8837582E-2,2.5141358E-2,0E0,0E0,0E0,0E0,0E0,0E0,0E0,0E0,0E0,0E0,0E0,0E0,0E0,0E0,0E0,0E0,0E0],"parents":[2147483647,0,0,1,1,2,2,3,3,4,4,5,5,6,6,7,7,9,9,13,13,14,14,15,15,16,16,18,18,19,19,20,20,21,21,22,22,25,25,29,29,30,30,31,31,32,32,33,33,34,34,35,35],"right_children":[2,4,6,8,10,12,14,16,-1,18,-1,-1,-1,20,22,24,26,-1,28,30,32,34,36,-1,-1,38,-1,-1,-1,40,42,44,46,48,50,52,-1,-1,-1,-1,-1,-1,-1,-1,-1,-1,-1,-1,-1,-1,-1,-1,-1],"split_conditions":[5.272E3,1.876573E6,8.0345E4,4.84E3,4.785E3,1.0856E4,2.335E5,7.47551E5,2.3376036E-2,4.457E3,-0E0,-8.020301E-3,-4.6912892E-4,5.22E4,3.785E5,-1.6E2,1.88E2,-0E0,-8E2,1.34994E5,1.78E5,2.87355E5,1.35E4,-0E0,2.0628213E-3,1.76174E6,4.3538352E-4,-0E0,1.2408847E-2,1.5E2,7.9857E5,1.005E5,6.36E0,2.94E5,2.735E5,3.74E5,-0E0,7.032756E-3,1.8184593E-2,-8.019768E-3,-0E0,1.7263435E-3,1.7678246E-4,-3.7246698E-4,1.3342466E-4,1.342878E-3,-0E0,-7.260985E-4,-1.3643585E-3,2.2462729E-4,-1.660555E-4,-0E0,-4.2461026E-3],"split_indices":[6,1,1,5,6,5,5,1,0,6,0,0,0,5,6,0,0,0,0,1,6,1,0,0,0,1,0,0,0,0,1,5,23,6,6,5,0,0,0,0,0,0,0,0,0,0,0,0,0,0,0,0,0],"split_type":[0,0,0,0,0,0,0,0,0,0,0,0,0,0,0,0,0,0,0,0,0,0,0,0,0,0,0,0,0,0,0,0,0,0,0,0,0,0,0,0,0,0,0,0,0,0,0,0,0,0,0,0,0],"sum_hessian":[2.497E3,6.9E1,2.428E3,4.2E1,2.7E1,2.8E1,2.4E3,3.9E1,3E0,1.1E1,1.6E1,1.5E1,1.3E1,1.511E3,8.89E2,8E0,3.1E1,3E0,8E0,4.89E2,1.022E3,8.7E2,1.9E1,1E0,7E0,2.7E1,4E0,1E0,7E0,6E0,4.83E2,8.8E2,1.42E2,6.26E2,2.44E2,1.8E1,1E0,2.4E1,3E0,5E0,1E0,1.82E2,3.01E2,6.95E2,1.85E2,1.33E2,9E0,4.82E2,1.44E2,9E1,1.54E2,2E0,1.6E1],"tree_param":{"num_deleted":"0","num_feature":"116","num_nodes":"53","size_leaf_vector":"1"}},{"base_weights":[6.186093E-5,3.442844E-1,-8.701903E-3,1.9660048E-1,2.8396795E-2,-4.6279415E-1,-4.3894527E-3,2.3326702E-1,1.2089293E-5,-1.0406219E-2,-0E0,1.1534424E-2,-3.0822823E-2,3.564093E-1,1.7314054E-1,1.6781314E-1,9.305091E-3,-2.7189776E-2,-1.8615498E-1,8.230217E-3,-0E0,-0E0,2.0159912E-1,4.140929E-3,-0E0,4.135255E-3,5.9453946E-2,-3.9390333E-2,-1.9814281E-3,-0E0,-1.9714364E-1,4.5537553E-3,-0E0,6.485466E-4,-1.8838837E-4,1.3695668E-3,-0E0,-6.502319E-4,-1.4711693E-3,1.4126411E-4,-3.03162E-4,-4.5082415E-3,-0E0],"categories":[],"categories_nodes":[],"categories_segments":[],"categories_sizes":[],"default_left":[0,0,0,0,0,0,0,0,0,0,0,0,0,0,0,0,0,0,0,0,0,0,0,0,0,0,0,0,0,0,0,0,0,0,0,0,0,0,0,0,0,0,0],"id":7,"left_children":[1,3,5,7,-1,9,11,13,-1,-1,-1,15,17,19,21,23,25,27,29,-1,-1,-1,31,-1,-1,33,35,37,39,-1,41,-1,-1,-1,-1,-1,-1,-1,-1,-1,-1,-1,-1],"loss_changes":[7.772003E0,8.407258E0,4.5728564E0,2.841134E-1,0E0,1.6289377E-1,1.0342922E0,6.499076E-2,0E0,0E0,0E0,4.3533266E-1,4.1508377E-1,7.2903395E-2,1.4871985E-1,8.122164E-2,3.5383517E-1,2.5861543E-1,3.6949515E-2,0E0,0E0,0E0,1.7773986E-2,0E0,0E0,4.6321416E-1,4.308802E-2,1.1000979E-1,3.564256E-2,0E0,3.637266E-2,0E0,0E0,0E0,0E0,0E0,0E0,0E0,0E0,0E0,0E0,0E0,0E0],"parents":[2147483647,0,0,1,1,2,2,3,3,5,5,6,6,7,7,11,11,12,12,13,13,14,14,15,15,16,16,17,17,18,18,22,22,25,25,26,26,27,27,28,28,30,30],"right_children":[2,4,6,8,-1,10,12,14,-1,-1,-1,16,18,20,22,24,26,28,30,-1,-1,-1,32,-1,-1,34,36,38,40,-1,42,-1,-1,-1,-1,-1,-1,-1,-1,-1,-1,-1,-1],"split_conditions":[5.272E3,2.2282163E8,3.1850692E7,4.998E3,2.8396795E-2,1.5E2,2.335E5,3.663E3,1.2089293E-5,-1.0406219E-2,-0E0,1.2898099E8,3.785E5,1.586425E6,7.79327E5,1.76174E6,1.78E5,2.62451E5,3.88E5,8.230217E-3,-0E0,-0E0,3.64E2,4.140929E-3,-0E0,5.39E4,6.36E0,2.935E5,2.88E5,-0E0,1.35E4,4.5537553E-3,-0E0,6.485466E-4,-1.8838837E-4,1.3695668E-3,-0E0,-6.502319E-4,-1.4711693E-3,1.4126411E-4,-3.03162E-4,-4.5082415E-3,-0E0],"split_indices":[6,2,2,4,0,0,6,4,0,0,0,2,6,1,1,1,6,1,4,0,0,0,0,0,0,4,23,6,4,0,0,0,0,0,0,0,0,0,0,0,0,0,0],"split_type":[0,0,0,0,0,0,0,0,0,0,0,0,0,0,0,0,0,0,0,0,0,0,0,0,0,0,0,0,0,0,0,0,0,0,0,0,0,0,0,0,0,0,0],"sum_hessian":[2.52E3,6.4E1,2.456E3,5.6E1,8E0,2.2E1,2.434E3,4.5E1,1.1E1,2.1E1,1E0,1.507E3,9.27E2,1.2E1,3.3E1,1.8E1,1.489E3,9.09E2,1.8E1,1.1E1,1E0,5E0,2.8E1,1.6E1,2E0,1.359E3,1.3E2,5.99E2,3.1E2,1E0,1.7E1,2.6E1,2E0,4.64E2,8.95E2,1.25E2,5E0,4.66E2,1.33E2,1.57E2,1.53E2,1.6E1,1E0],"tree_param":{"num_deleted":"0","num_feature":"116","num_nodes":"43","size_leaf_vector":"1"}},{"base_weights":[3.5410968E-4,3.1139806E-1,-7.978167E-3,1.906111E-1,2.71515E-2,-3.9514792E-1,-4.516201E-3,5.3246315E-3,4.8968213E-4,-8.940999E-3,-0E0,3.5781603E-2,-1.5241717E-2,7.755915E-2,9.755181E-3,-8.864732E-3,-5.604351E-2,1.0705068E-1,3.3070646E-2,-2.3503308E-3,1.445171E-1,-1.7674888E-2,8.897927E-3,-4.427972E-2,-1.7626128E-1,-0E0,2.5610856E-3,-1.1894458E-3,1.1830935E-3,1.7816883E-4,-2.8325713E-3,6.1310166E-3,-0E0,-2.120885E-4,-6.8837375E-4,-3.7873848E-4,3.5321832E-4,-1.3011608E-3,4.5394336E-5,-0E0,-4.031746E-3],"categories":[],"categories_nodes":[],"categories_segments":[],"categories_sizes":[],"default_left":[0,0,0,0,0,0,0,0,0,0,0,0,0,0,0,0,0,0,0,0,0,0,0,0,0,0,0,0,0,0,0,0,0,0,0,0,0,0,0,0,0],"id":8,"left_children":[1,3,5,7,-1,9,11,-1,-1,-1,-1,13,15,17,19,21,23,25,27,29,31,33,35,37,39,-1,-1,-1,-1,-1,-1,-1,-1,-1,-1,-1,-1,-1,-1,-1,-1],"loss_changes":[6.5525866E0,6.805888E0,3.0184948E0,4.1770983E-1,0E0,1.3312268E-1,1.0195652E0,0E0,0E0,0E0,0E0,4.896536E-1,4.5941108E-1,1.665132E-1,5.77723E-1,2.6218712E-1,2.347892E-1,1.10603094E-1,1.5099412E-1,4.4585553E-1,6.8358546E-1,1.0378513E-1,1.032653E-1,1.9751826E-1,3.313929E-2,0E0,0E0,0E0,0E0,0E0,0E0,0E0,0E0,0E0,0E0,0E0,0E0,0E0,0E0,0E0,0E0],"parents":[2147483647,0,0,1,1,2,2,3,3,5,5,6,6,11,11,12,12,13,13,14,14,15,15,16,16,17,17,18,18,19,19,20,20,21,21,22,22,23,23,24,24],"right_children":[2,4,6,8,-1,10,12,-1,-1,-1,-1,14,16,18,20,22,24,26,28,30,32,34,36,38,40,-1,-1,-1,-1,-1,-1,-1,-1,-1,-1,-1,-1,-1,-1,-1,-1],"split_conditions":[5.469E3,3.121766E8,3.1850692E7,4.785E3,2.71515E-2,9.695E3,5.39E4,5.3246315E-3,4.8968213E-4,-8.940999E-3,-0E0,7.9857E5,2.925E5,1.6954244E10,5.10753E10,5.9637953E10,3.785E5,1.1104E4,1.7730742E10,4.883844E6,9.037E3,2.335E5,2.87355E5,3.225E5,3.88E5,-0E0,2.5610856E-3,-1.1894458E-3,1.1830935E-3,1.7816883E-4,-2.8325713E-3,6.1310166E-3,-0E0,-2.120885E-4,-6.8837375E-4,-3.7873848E-4,3.5321832E-4,-1.3011608E-3,4.5394336E-5,-0E0,-4.031746E-3],"split_indices":[4,2,2,6,0,4,4,0,0,0,0,1,6,2,2,2,6,6,2,1,3,5,1,4,4,0,0,0,0,0,0,0,0,0,0,0,0,0,0,0,0],"split_type":[0,0,0,0,0,0,0,0,0,0,0,0,0,0,0,0,0,0,0,0,0,0,0,0,0,0,0,0,0,0,0,0,0,0,0,0,0,0,0,0,0],"sum_hessian":[2.469E3,6.6E1,2.403E3,5.9E1,7E0,2E1,2.383E3,4.2E1,1.7E1,1.9E1,1E0,4.91E2,1.892E3,1.81E2,3.1E2,1.647E3,2.45E2,1.02E2,7.9E1,2.81E2,2.9E1,1.12E3,5.27E2,2.27E2,1.8E1,1.1E1,9.1E1,1.1E1,6.8E1,2.56E2,2.5E1,1.6E1,1.3E1,7.44E2,3.76E2,1.01E2,4.26E2,1.77E2,5E1,1E0,1.7E1],"tree_param":{"num_deleted":"0","num_feature":"116","num_nodes":"41","size_leaf_vector":"1"}},{"base_weights":[-1.4114677E-3,2.9275852E-1,-1.0654225E-2,3.7818244E-1,1.0506921E-1,-3.8205606E-1,-9.051107E-3,3.04814E-1,2.3260545E-2,2.5955507E-1,-0E0,-9.257399E-3,-0E0,-3.3621784E-2,5.658098E-3,5.479571E-2,3.7080646E-1,1.4626047E-1,1.6689653E-2,-3.980839E-1,-2.8199544E-2,2.5944466E-2,-3.8747615E-3,2.4613538E-3,-0E0,5.7932884E-1,2.871659E-1,-0E0,3.4470283E-3,-9.944292E-3,-0E0,-1.8582972E-2,-7.762979E-2,7.429878E-2,-2.7052641E-3,-1.845006E-3,-1.395884E-1,5.428801E-3,2.8294312E-2,-0E0,6.5772072E-3,2.3502164E-4,-5.2902236E-4,-1.3068119E-3,-4.391723E-3,-0E0,1.7697734E-3,1.6831384E-5,-2.3933535E-3,-3.662826E-4,2.230877E-4,-4.2356374E-3,-0E0],"categories":[],"categories_nodes":[],"categories_segments":[],"categories_sizes":[],"default_left":[0,0,0,0,0,0,0,0,0,0,0,0,0,0,0,0,0,0,0,0,0,0,0,0,0,0,0,0,0,0,0,0,0,0,0,0,0,0,0,0,0,0,0,0,0,0,0,0,0,0,0,0,0],"id":9,"left_children":[1,3,5,7,9,11,13,15,-1,17,-1,-1,-1,19,21,23,25,27,-1,29,31,33,35,-1,-1,37,39,-1,-1,-1,-1,41,43,45,47,49,51,-1,-1,-1,-1,-1,-1,-1,-1,-1,-1,-1,-1,-1,-1,-1,-1],"loss_changes":[6.61098E0,9.417081E-1,1.236839E0,1.8123026E0,3.977024E-1,1.5597463E-1,8.8192E-1,5.269222E-1,0E0,1.1596739E-1,0E0,0E0,0E0,1.5864025E0,2.9913065E-1,8.3853185E-2,1.5414572E-1,1.1237636E-2,0E0,2.1818244E-1,3.7908733E-1,7.192304E-1,2.0273429E-1,0E0,0E0,1.1264255E0,8.153176E-2,0E0,0E0,0E0,0E0,1.395959E-1,1.6344965E-1,1.3953936E-1,1.6986614E-1,1.8459004E-1,5.4875255E-2,0E0,0E0,0E0,0E0,0E0,0E0,0E0,0E0,0E0,0E0,0E0,0E0,0E0,0E0,0E0,0E0],"parents":[2147483647,0,0,1,1,2,2,3,3,4,4,5,5,6,6,7,7,9,9,13,13,14,14,15,15,16,16,17,17,19,19,20,20,21,21,22,22,25,25,26,26,31,31,32,32,33,33,34,34,35,35,36,36],"right_children":[2,4,6,8,10,12,14,16,-1,18,-1,-1,-1,20,22,24,26,28,-1,30,32,34,36,-1,-1,38,40,-1,-1,-1,-1,42,44,46,48,50,52,-1,-1,-1,-1,-1,-1,-1,-1,-1,-1,-1,-1,-1,-1,-1,-1],"split_conditions":[5.272E3,1.876573E6,5.2859E4,5.066E3,4.785E3,-6.1E1,2.80113E5,7.79327E5,2.3260545E-2,5E2,-0E0,-9.257399E-3,-0E0,9.5E3,5.39E4,3.3E1,-1.4E2,-8E2,1.6689653E-2,1.5E2,2.94E5,7.9857E5,3.785E5,2.4613538E-3,-0E0,-1.78E2,-1E2,-0E0,3.4470283E-3,-9.944292E-3,-0E0,8.2E4,3.785E5,-1E3,8.062888E6,1E5,2.1E3,5.428801E-3,2.8294312E-2,-0E0,6.5772072E-3,2.3502164E-4,-5.2902236E-4,-1.3068119E-3,-4.391723E-3,-0E0,1.7697734E-3,1.6831384E-5,-2.3933535E-3,-3.662826E-4,2.230877E-4,-4.2356374E-3,-0E0],"split_indices":[6,1,1,6,6,0,1,1,0,0,0,0,0,6,6,0,0,0,0,0,6,1,6,0,0,0,0,0,0,0,0,6,6,0,1,6,0,0,0,0,0,0,0,0,0,0,0,0,0,0,0,0,0],"split_type":[0,0,0,0,0,0,0,0,0,0,0,0,0,0,0,0,0,0,0,0,0,0,0,0,0,0,0,0,0,0,0,0,0,0,0,0,0,0,0,0,0,0,0,0,0,0,0,0,0,0,0,0,0],"sum_hessian":[2.484E3,7.4E1,2.41E3,4.9E1,2.5E1,9E0,2.401E3,4.5E1,4E0,1E1,1.5E1,8E0,1E0,9.12E2,1.489E3,1.1E1,3.4E1,9E0,1E0,1.2E1,9E2,4.93E2,9.96E2,9E0,2E0,8E0,2.6E1,1E0,8E0,1E1,2E0,7.62E2,1.38E2,1.9E2,3.03E2,9.85E2,1.1E1,6E0,2E0,2E0,2.4E1,1.13E2,6.49E2,1.25E2,1.3E1,1.3E1,1.77E2,2.89E2,1.4E1,4.58E2,5.27E2,7E0,4E0],"tree_param":{"num_deleted":"0","num_feature":"116","num_nodes":"53","size_leaf_vector":"1"}},{"base_weights":[2.0209935E-3,3.3874735E-1,-8.035225E-3,1.6714291E-1,2.7212514E-2,-3.8862994E-1,-3.8050276E-3,2.1208689E-1,-0E0,-8.718638E-3,-0E0,1.2256389E-2,-3.206079E-2,7.4374294E-3,1.590773E-1,1.8328112E-1,9.83579E-3,-2.8334096E-2,-1.6512236E-1,-0E0,1.8475536E-1,-0E0,4.3775076E-3,-1.4258873E-1,1.1740857E-2,-3.8355786E-2,-2.964057E-3,-0E0,-3.7548402E-3,4.1511236E-3,-0E0,-0E0,-3.4679107E-3,8.99024E-3,2.2219923E-4,-6.517105E-4,-1.4433719E-3,2.9858272E-4,-3.9539102E-4],"categories":[],"categories_nodes":[],"categories_segments":[],"categories_sizes":[],"default_left":[0,0,0,0,0,0,0,0,0,0,0,0,0,0,0,0,0,0,0,0,0,0,0,0,0,0,0,0,0,0,0,0,0,0,0,0,0,0,0],"id":10,"left_children":[1,3,5,7,-1,9,11,13,-1,-1,-1,15,17,-1,19,21,23,25,27,-1,29,-1,-1,31,33,35,37,-1,-1,-1,-1,-1,-1,-1,-1,-1,-1,-1,-1],"loss_changes":[8.521231E0,1.0816983E1,3.6555686E0,4.270029E-1,0E0,1.349349E-1,1.0851476E0,8.157277E-2,0E0,0E0,0E0,5.2275467E-1,3.334388E-1,0E0,1.2186462E-1,5.2589476E-2,3.6378288E-1,1.9518656E-1,2.8927386E-2,0E0,1.3058901E-2,0E0,0E0,3.0171782E-2,6.4569336E-1,8.947992E-2,6.7950934E-2,0E0,0E0,0E0,0E0,0E0,0E0,0E0,0E0,0E0,0E0,0E0,0E0],"parents":[2147483647,0,0,1,1,2,2,3,3,5,5,6,6,7,7,11,11,12,12,14,14,15,15,16,16,17,17,18,18,20,20,23,23,24,24,25,25,26,26],"right_children":[2,4,6,8,-1,10,12,14,-1,-1,-1,16,18,-1,20,22,24,26,28,-1,30,-1,-1,32,34,36,38,-1,-1,-1,-1,-1,-1,-1,-1,-1,-1,-1,-1],"split_conditions":[5.272E3,3.121766E8,3.1850692E7,4.998E3,2.7212514E-2,9.695E3,2.335E5,3.423E3,-0E0,-8.718638E-3,-0E0,1.2898099E8,3.785E5,7.4374294E-3,3.1850692E7,5.303E3,5.5E3,7.788955E10,3.88E5,-0E0,1.2898099E8,-0E0,4.3775076E-3,1.8491363E8,6.025E3,2.935E5,2.83E5,-0E0,-3.7548402E-3,4.1511236E-3,-0E0,-0E0,-3.4679107E-3,8.99024E-3,2.2219923E-4,-6.517105E-4,-1.4433719E-3,2.9858272E-4,-3.9539102E-4],"split_indices":[6,2,2,4,0,4,5,5,0,0,0,2,6,0,2,5,5,2,4,0,2,0,0,2,4,6,6,0,0,0,0,0,0,0,0,0,0,0,0],"split_type":[0,0,0,0,0,0,0,0,0,0,0,0,0,0,0,0,0,0,0,0,0,0,0,0,0,0,0,0,0,0,0,0,0,0,0,0,0,0,0],"sum_hessian":[2.467E3,7.3E1,2.394E3,6.2E1,1.1E1,2.5E1,2.369E3,4.8E1,1.4E1,2.4E1,1E0,1.499E3,8.7E2,1.1E1,3.7E1,1.8E1,1.481E3,8.5E2,2E1,6E0,3.1E1,2E0,1.6E1,1.5E1,1.466E3,5.95E2,2.55E2,1E0,1.9E1,2.9E1,2E0,2E0,1.3E1,4E0,1.462E3,4.76E2,1.19E2,1.06E2,1.49E2],"tree_param":{"num_deleted":"0","num_feature":"116","num_nodes":"39","size_leaf_vector":"1"}},{"base_weights":[-2.6011504E-3,2.8391358E-1,-1.0231452E-2,2.3801167E-1,4.548615E-1,1.5358073E-3,-3.1078331E-2,5.2913944E-3,-0E0,-0E0,5.095158E-1,-4.6729904E-2,9.585897E-3,-2.7220862E-2,-3.609929E-3,2.0560266E-2,5.3468025E-3,4.608096E-3,-1.6462721E-1,5.5878848E-2,-2.6341928E-3,-2.904501E-2,5.568832E-6,-1.9479794E-2,6.18358E-3,-0E0,-2.0306759E-1,9.09588E-2,3.240701E-2,-1.7744439E-2,2.7339652E-2,-4.6730798E-4,-5.2338578E-2,5.583258E-4,-1.8415953E-3,-7.0434227E-4,7.2662515E-4,-7.0281406E-3,-1.819503E-3,1.2020762E-3,4.5299735E-3,-2.0959745E-4,1.336029E-3,-2.2761361E-4,-1.1945894E-3,2.6062335E-4,1.200418E-3,-0E0,-1.1509235E-3],"categories":[],"categories_nodes":[],"categories_segments":[],"categories_sizes":[],"default_left":[0,0,0,0,0,0,0,0,0,0,0,0,0,0,0,0,0,0,0,0,0,0,0,0,0,0,0,0,0,0,0,0,0,0,0,0,0,0,0,0,0,0,0,0,0,0,0,0,0],"id":11,"left_children":[1,3,5,7,9,11,13,-1,-1,-1,15,17,19,21,-1,-1,-1,23,25,27,29,31,-1,33,-1,35,37,39,41,43,45,-1,47,-1,-1,-1,-1,-1,-1,-1,-1,-1,-1,-1,-1,-1,-1,-1,-1],"loss_changes":[5.3159466E0,1.4343834E-1,6.1155736E-1,5.520606E-2,3.2017708E-1,5.791565E-1,3.7025398E-1,0E0,0E0,0E0,5.514684E-1,1.3581434E0,7.782208E-1,5.8288515E-2,0E0,0E0,0E0,1.1122124E0,4.5216322E-1,1.7301083E-1,4.67075E-1,1.0663873E-1,0E0,4.2073894E-1,0E0,1.3308427E-2,5.920243E-1,3.100716E-1,2.4964894E-1,1.5721793E-1,1.11518085E-1,0E0,1.2858212E-2,0E0,0E0,0E0,0E0,0E0,0E0,0E0,0E0,0E0,0E0,0E0,0E0,0E0,0E0,0E0,0E0],"parents":[2147483647,0,0,1,1,2,2,3,3,4,4,5,5,6,6,10,10,11,11,12,12,13,13,17,17,18,18,19,19,20,20,21,21,23,23,25,25,26,26,27,27,28,28,29,29,30,30,32,32],"right_children":[2,4,6,8,10,12,14,-1,-1,-1,16,18,20,22,-1,-1,-1,24,26,28,30,32,-1,34,-1,36,38,40,42,44,46,-1,48,-1,-1,-1,-1,-1,-1,-1,-1,-1,-1,-1,-1,-1,-1,-1,-1],"split_conditions":[5.469E3,5E3,2.335E5,4.84E3,4.84E3,1.1767E4,3.88E5,5.2913944E-3,-0E0,-0E0,5.34E3,9.037E3,5.39E4,3.31E5,-3.609929E-3,2.0560266E-2,5.3468025E-3,8.991E3,8.9E3,2.43E4,1.025E5,2.895E5,5.568832E-6,6.778E3,6.18358E-3,8.65E3,9.695E3,2.18E4,3.24E4,9.02E4,2.065E5,-4.6730798E-4,2.95E5,5.583258E-4,-1.8415953E-3,-7.0434227E-4,7.2662515E-4,-7.0281406E-3,-1.819503E-3,1.2020762E-3,4.5299735E-3,-2.0959745E-4,1.336029E-3,-2.2761361E-4,-1.1945894E-3,2.6062335E-4,1.200418E-3,-0E0,-1.1509235E-3],"split_indices":[4,3,5,5,5,5,4,0,0,0,4,4,4,3,0,0,0,4,5,5,4,5,0,3,0,3,4,4,3,5,3,0,4,0,0,0,0,0,0,0,0,0,0,0,0,0,0,0,0],"split_type":[0,0,0,0,0,0,0,0,0,0,0,0,0,0,0,0,0,0,0,0,0,0,0,0,0,0,0,0,0,0,0,0,0,0,0,0,0,0,0,0,0,0,0,0,0,0,0,0,0],"sum_hessian":[2.495E3,6.3E1,2.432E3,5.2E1,1.1E1,1.539E3,8.93E2,5E1,2E0,1E0,1E1,2.11E2,1.328E3,8.72E2,2.1E1,3E0,7E0,1.44E2,6.7E1,2.86E2,1.042E3,8.35E2,3.7E1,1.31E2,1.3E1,1.2E1,5.5E1,1.06E2,1.8E2,7.04E2,3.38E2,6.5E2,1.85E2,7.3E1,5.8E1,4E0,8E0,2.5E1,3E1,8.5E1,2.1E1,6.7E1,1.13E2,6.02E2,1.02E2,2.31E2,1.07E2,2E0,1.83E2],"tree_param":{"num_deleted":"0","num_feature":"116","num_nodes":"49","size_leaf_vector":"1"}},{"base_weights":[-0E0,2.90726E-1,-8.807675E-3,1.4844915E-1,2.6574472E-2,-7.1528587E-3,-5.645574E-3,6.6285515E-3,1.0519125E-1,9.20596E-3,-3.0437728E-2,-0E0,1.1615761E-1,3.1659696E-2,-1.2899202E-3,-2.7151031E-2,-1.5842971E-1,2.741338E-3,-0E0,-5.5672415E-4,5.2686732E-2,-1.5288423E-2,2.6482629E-2,-3.778903E-2,-4.0623504E-3,-0E0,-3.8255868E-3,-3.696926E-4,4.2029875E-3,2.9065718E-3,7.0682756E-4,-2.1041265E-4,-8.7862246E-4,2.3647393E-4,1.2409209E-3,-5.518339E-4,-1.0618323E-3,1.2780775E-4,-3.237373E-4],"categories":[],"categories_nodes":[],"categories_segments":[],"categories_sizes":[],"default_left":[0,0,0,0,0,0,0,0,0,0,0,0,0,0,0,0,0,0,0,0,0,0,0,0,0,0,0,0,0,0,0,0,0,0,0,0,0,0,0],"id":12,"left_children":[1,3,5,7,-1,-1,9,-1,11,13,15,-1,17,19,21,23,25,-1,-1,27,29,31,33,35,37,-1,-1,-1,-1,-1,-1,-1,-1,-1,-1,-1,-1,-1,-1],"loss_changes":[6.2736793E0,8.927492E0,2.301352E0,2.2310936E-1,0E0,0E0,8.9554113E-1,0E0,4.5268893E-2,3.6653173E-1,2.9008454E-1,0E0,2.3715556E-2,3.5833517E-1,3.8310477E-1,1.9838613E-1,2.5061011E-2,0E0,0E0,5.047498E-1,4.1543597E-1,6.980643E-2,1.2075582E-1,4.5265496E-2,3.698049E-2,0E0,0E0,0E0,0E0,0E0,0E0,0E0,0E0,0E0,0E0,0E0,0E0,0E0,0E0],"parents":[2147483647,0,0,1,1,2,2,3,3,6,6,8,8,9,9,10,10,12,12,13,13,14,14,15,15,16,16,19,19,20,20,21,21,22,22,23,23,24,24],"right_children":[2,4,6,8,-1,-1,10,-1,12,14,16,-1,18,20,22,24,26,-1,-1,28,30,32,34,36,38,-1,-1,-1,-1,-1,-1,-1,-1,-1,-1,-1,-1,-1,-1],"split_conditions":[5.28E3,3.121766E8,3.1850692E7,3.485E3,2.6574472E-2,-7.1528587E-3,2.335E5,6.6285515E-3,3.1850692E7,5.3E4,3.74E5,-0E0,5E3,1.1767E4,1.005E5,7.247119E10,3.825E5,2.741338E-3,-0E0,4.2650345E10,1.166641E10,9.02E4,2.065E5,2.625E5,2.82E5,-0E0,-3.8255868E-3,-3.696926E-4,4.2029875E-3,2.9065718E-3,7.0682756E-4,-2.1041265E-4,-8.7862246E-4,2.3647393E-4,1.2409209E-3,-5.518339E-4,-1.0618323E-3,1.2780775E-4,-3.237373E-4],"split_indices":[3,2,2,3,0,0,5,0,2,5,5,0,3,5,5,2,3,0,0,2,2,5,3,5,3,0,0,0,0,0,0,0,0,0,0,0,0,0,0],"split_type":[0,0,0,0,0,0,0,0,0,0,0,0,0,0,0,0,0,0,0,0,0,0,0,0,0,0,0,0,0,0,0,0,0,0,0,0,0,0,0],"sum_hessian":[2.497E3,7.2E1,2.425E3,6.3E1,9E0,2.2E1,2.403E3,1.1E1,5.2E1,1.49E3,9.13E2,6E0,4.6E1,4.9E2,1E3,8.94E2,1.9E1,4E1,6E0,1.84E2,3.06E2,6.77E2,3.23E2,5.97E2,2.97E2,3E0,1.6E1,1.72E2,1.2E1,5.5E1,2.51E2,5.72E2,1.05E2,2.26E2,9.7E1,3.09E2,2.88E2,1.31E2,1.66E2],"tree_param":{"num_deleted":"0","num_feature":"116","num_nodes":"39","size_leaf_vector":"1"}},{"base_weights":[-2.8049308E-3,2.8464973E-1,-1.0090013E-2,1.596214E-1,2.5031261E-2,-3.6718893E-1,-6.477857E-3,1.84965E-1,-0E0,-8.260028E-3,-0E0,7.229471E-3,-2.9893117E-2,-0E0,2.0723543E-1,9.6791334E-2,4.571546E-3,-2.6065644E-2,-1.7393583E-1,1.3098441E-3,-0E0,2.149237E-1,-0E0,-0E0,1.3770364E-1,-0E0,5.1435877E-2,-3.6038656E-2,-5.0334386E-3,-3.958399E-3,-0E0,-0E0,4.750288E-3,-0E0,3.0975142E-3,-1.6965544E-3,4.923926E-5,1.3481921E-3,-0E0,-4.5447744E-4,-1.0606706E-3,-2.1457241E-4,2.4030925E-4],"categories":[],"categories_nodes":[],"categories_segments":[],"categories_sizes":[],"default_left":[0,0,0,0,0,0,0,0,0,0,0,0,0,0,0,0,0,0,0,0,0,0,0,0,0,0,0,0,0,0,0,0,0,0,0,0,0,0,0,0,0,0,0],"id":13,"left_children":[1,3,5,7,-1,9,11,13,-1,-1,-1,15,17,19,21,23,25,27,29,-1,-1,31,-1,-1,33,35,37,39,41,-1,-1,-1,-1,-1,-1,-1,-1,-1,-1,-1,-1,-1,-1],"loss_changes":[5.0899935E0,5.8908405E0,2.9542344E0,1.8915606E-1,0E0,1.1661434E-1,7.862771E-1,9.242618E-2,0E0,0E0,0E0,3.0788004E-1,3.9765298E-1,1.4711518E-2,3.095138E-2,1.9390154E-1,3.29066E-1,1.6483164E-1,3.3110797E-2,0E0,0E0,3.0097365E-2,0E0,0E0,2.5981307E-2,2.5969768E-1,8.43744E-2,7.893801E-2,2.3236038E-2,0E0,0E0,0E0,0E0,0E0,0E0,0E0,0E0,0E0,0E0,0E0,0E0,0E0,0E0],"parents":[2147483647,0,0,1,1,2,2,3,3,5,5,6,6,7,7,11,11,12,12,13,13,14,14,15,15,16,16,17,17,18,18,21,21,24,24,25,25,26,26,27,27,28,28],"right_children":[2,4,6,8,-1,10,12,14,-1,-1,-1,16,18,20,22,24,26,28,30,-1,-1,32,-1,-1,34,36,38,40,42,-1,-1,-1,-1,-1,-1,-1,-1,-1,-1,-1,-1,-1,-1],"split_conditions":[5.34E3,2.2282163E8,3.1850692E7,4.998E3,2.5031261E-2,1.5E2,2.335E5,7.17295E5,-0E0,-8.260028E-3,-0E0,1.8491363E8,3.74E5,6.55827E5,3.25721E6,5.303E3,1.78E5,2.62451E5,1.35E4,1.3098441E-3,-0E0,-1.2E3,-0E0,-0E0,-3.4E2,4.93335E9,2.345E5,2.625E5,3.225E5,-3.958399E-3,-0E0,-0E0,4.750288E-3,-0E0,3.0975142E-3,-1.6965544E-3,4.923926E-5,1.3481921E-3,-0E0,-4.5447744E-4,-1.0606706E-3,-2.1457241E-4,2.4030925E-4],"split_indices":[4,2,2,4,0,0,5,1,0,0,0,2,5,1,1,5,6,1,0,0,0,0,0,0,0,2,4,5,4,0,0,0,0,0,0,0,0,0,0,0,0,0,0],"split_type":[0,0,0,0,0,0,0,0,0,0,0,0,0,0,0,0,0,0,0,0,0,0,0,0,0,0,0,0,0,0,0,0,0,0,0,0,0,0,0,0,0,0,0],"sum_hessian":[2.497E3,6E1,2.437E3,5.3E1,7E0,2.3E1,2.414E3,4.5E1,8E0,2.2E1,1E0,1.509E3,9.05E2,7E0,3.8E1,3.8E1,1.471E3,8.85E2,2E1,4E0,3E0,3.6E1,2E0,9E0,2.9E1,1.335E3,1.36E2,5.84E2,3.01E2,1.9E1,1E0,1E0,3.5E1,1E0,2.8E1,4.1E1,1.294E3,1.14E2,2.2E1,2.9E2,2.94E2,2.55E2,4.6E1],"tree_param":{"num_deleted":"0","num_feature":"116","num_nodes":"43","size_leaf_vector":"1"}},{"base_weights":[-1.9405269E-3,2.5049683E-1,-9.195127E-3,1.2812999E-1,2.386495E-2,-3.7349543E-1,-5.360269E-3,1.7462082E-1,-0E0,-4.0167478E-1,-0E0,2.882376E-2,-1.3938266E-2,2.3270015E-1,7.3794745E-2,-9.077929E-3,-0E0,7.224725E-2,-0E0,-1.1851404E-2,-1.7285375E-1,3.218396E-6,2.639526E-1,-0E0,2.3050446E-3,1.07254274E-1,3.2224808E-2,-1.7143961E-2,1.293443E-1,-5.545803E-3,-3.057321E-2,-1.8124925E-1,-0E0,-0E0,5.943381E-3,-0E0,2.8412784E-3,-2.0927713E-4,1.1433332E-3,2.5829033E-3,-7.4536505E-4,7.0894086E-3,-0E0,-3.1521404E-4,2.2300742E-4,-9.902811E-4,-1.7986723E-4,-0E0,-4.1112346E-3],"categories":[],"categories_nodes":[],"categories_segments":[],"categories_sizes":[],"default_left":[0,0,0,0,0,0,0,0,0,0,0,0,0,0,0,0,0,0,0,0,0,0,0,0,0,0,0,0,0,0,0,0,0,0,0,0,0,0,0,0,0,0,0,0,0,0,0,0,0],"id":14,"left_children":[1,3,5,7,-1,9,11,13,-1,15,-1,17,19,21,23,-1,-1,25,27,29,31,-1,33,-1,-1,35,37,39,41,43,45,47,-1,-1,-1,-1,-1,-1,-1,-1,-1,-1,-1,-1,-1,-1,-1,-1,-1],"loss_changes":[4.463448E0,6.4852505E0,3.2113168E0,4.1761494E-1,0E0,2.015667E-1,6.997332E-1,1.1414623E-1,0E0,1.6022515E-1,0E0,5.839356E-1,5.4982674E-1,5.5208087E-2,9.610137E-2,0E0,0E0,1.9135988E-1,6.425917E-1,2.0813164E-1,3.2552123E-2,0E0,5.13438E-2,0E0,0E0,2.6268983E-1,1.0350229E-1,5.529088E-1,7.2405493E-1,2.1111116E-1,1.2990257E-1,3.477204E-2,0E0,0E0,0E0,0E0,0E0,0E0,0E0,0E0,0E0,0E0,0E0,0E0,0E0,0E0,0E0,0E0,0E0],"parents":[2147483647,0,0,1,1,2,2,3,3,5,5,6,6,7,7,9,9,11,11,12,12,13,13,14,14,17,17,18,18,19,19,20,20,22,22,25,25,26,26,27,27,28,28,29,29,30,30,31,31],"right_children":[2,4,6,8,-1,10,12,14,-1,16,-1,18,20,22,24,-1,-1,26,28,30,32,-1,34,-1,-1,36,38,40,42,44,46,48,-1,-1,-1,-1,-1,-1,-1,-1,-1,-1,-1,-1,-1,-1,-1,-1,-1],"split_conditions":[5.272E3,3.121766E8,3.1850692E7,4.998E3,2.386495E-2,1.5E2,5.39E4,6.8E1,-0E0,9.695E3,-0E0,7.9857E5,3.785E5,7.17295E5,7.79327E5,-9.077929E-3,-0E0,1.5262487E10,4.7153267E10,2.765E5,1.35E4,3.218396E-6,-1.2E3,-0E0,2.3050446E-3,1.2099E4,1.7730742E10,1.8491363E8,9.037E3,5.2843815E10,2.62451E5,3.88E5,-0E0,-0E0,5.943381E-3,-0E0,2.8412784E-3,-2.0927713E-4,1.1433332E-3,2.5829033E-3,-7.4536505E-4,7.0894086E-3,-0E0,-3.1521404E-4,2.2300742E-4,-9.902811E-4,-1.7986723E-4,-0E0,-4.1112346E-3],"split_indices":[6,2,2,4,0,0,4,0,0,4,0,1,6,1,1,0,0,2,2,4,0,0,0,0,0,6,2,2,3,2,1,4,0,0,0,0,0,0,0,0,0,0,0,0,0,0,0,0,0],"split_type":[0,0,0,0,0,0,0,0,0,0,0,0,0,0,0,0,0,0,0,0,0,0,0,0,0,0,0,0,0,0,0,0,0,0,0,0,0,0,0,0,0,0,0,0,0,0,0,0,0],"sum_hessian":[2.504E3,6.8E1,2.436E3,6E1,8E0,2.4E1,2.412E3,4.6E1,1.4E1,2.2E1,2E0,4.72E2,1.94E3,2.6E1,2E1,2.1E1,1E0,1.87E2,2.85E2,1.918E3,2.2E1,5E0,2.1E1,2E0,1.8E1,9.3E1,9.4E1,2.51E2,3.4E1,1.455E3,4.63E2,2.1E1,1E0,1E0,2E1,1.6E1,7.7E1,2.3E1,7.1E1,2.5E1,2.26E2,1.2E1,2.2E1,9.47E2,5.08E2,2.61E2,2.02E2,1E0,2E1],"tree_param":{"num_deleted":"0","num_feature":"116","num_nodes":"49","size_leaf_vector":"1"}},{"base_weights":[-0E0,3.0307475E-1,-8.929367E-3,1.3831788E-1,2.4637945E-2,-3.3395594E-1,-5.6090346E-3,2.064099E-1,7.787556E-4,-7.769225E-3,-0E0,2.8993353E-2,-1.4459707E-2,2.4494408E-1,5.1721968E-2,1.9343304E-3,-6.8885763E-3,4.8483558E-2,-0E0,-1.2876721E-2,-1.5411957E-1,2.401598E-2,2.8394946E-1,-0E0,1.8920305E-3,-3.8971473E-2,-0E0,1.9660795E-1,3.9202254E-2,1.9887598E-2,-4.1611925E-2,-3.3001464E-2,-6.4092125E-3,-3.5289444E-3,-0E0,-0E0,1.2587407E-3,-0E0,6.3968776E-3,-0E0,-1.485061E-3,-0E0,1.2348809E-2,-2.351013E-3,1.2630655E-3,-9.0476584E-5,4.5258165E-3,-2.5379718E-3,2.741034E-4,-0E0,-8.616693E-4,-3.35927E-4,3.0980284E-6],"categories":[],"categories_nodes":[],"categories_segments":[],"categories_sizes":[],"default_left":[0,0,0,0,0,0,0,0,0,0,0,0,0,0,0,0,0,0,0,0,0,0,0,0,0,0,0,0,0,0,0,0,0,0,0,0,0,0,0,0,0,0,0,0,0,0,0,0,0,0,0,0,0],"id":15,"left_children":[1,3,5,7,-1,9,11,13,15,-1,-1,17,19,21,23,-1,25,27,29,31,33,35,37,-1,-1,39,-1,41,43,45,47,49,51,-1,-1,-1,-1,-1,-1,-1,-1,-1,-1,-1,-1,-1,-1,-1,-1,-1,-1,-1,-1],"loss_changes":[6.6233187E0,9.012833E0,2.4472358E0,4.476229E-1,0E0,1.5212941E-1,7.2887504E-1,7.030094E-2,5.684401E-2,0E0,0E0,2.8457767E-1,3.412236E-1,7.6699615E-2,1.9291304E-2,0E0,1.5994811E-2,2.820109E-1,1.6040851E-1,2.2837982E-1,2.6277483E-2,1.3521798E-2,6.1189532E-2,0E0,0E0,1.63869E-2,0E0,7.6641303E-1,7.6791066E-1,6.5652066E-1,3.209697E-1,8.99204E-2,9.5464036E-2,0E0,0E0,0E0,0E0,0E0,0E0,0E0,0E0,0E0,0E0,0E0,0E0,0E0,0E0,0E0,0E0,0E0,0E0,0E0,0E0],"parents":[2147483647,0,0,1,1,2,2,3,3,5,5,6,6,7,7,8,8,11,11,12,12,13,13,14,14,16,16,17,17,18,18,19,19,20,20,21,21,22,22,25,25,27,27,28,28,29,29,30,30,31,31,32,32],"right_children":[2,4,6,8,-1,10,12,14,16,-1,-1,18,20,22,24,-1,26,28,30,32,34,36,38,-1,-1,40,-1,42,44,46,48,50,52,-1,-1,-1,-1,-1,-1,-1,-1,-1,-1,-1,-1,-1,-1,-1,-1,-1,-1,-1,-1],"split_conditions":[5.469E3,3.121766E8,3.1850692E7,6.8E1,2.4637945E-2,1.5E2,5.39E4,4.998E3,3.936E3,-7.769225E-3,-0E0,1.17323E6,3.88E5,7.47551E5,-2.12E2,1.9343304E-3,4.17E2,6.7E3,9.448E3,1.82766E5,1.35E4,-1.6E2,-1.2E3,-0E0,1.8920305E-3,1.24E2,-0E0,5.871281E9,1.15E4,2.7550173E10,1.59E4,2.35E5,1.005E5,-3.5289444E-3,-0E0,-0E0,1.2587407E-3,-0E0,6.3968776E-3,-0E0,-1.485061E-3,-0E0,1.2348809E-2,-2.351013E-3,1.2630655E-3,-9.0476584E-5,4.5258165E-3,-2.5379718E-3,2.741034E-4,-0E0,-8.616693E-4,-3.35927E-4,3.0980284E-6],"split_indices":[4,2,2,0,0,0,4,4,5,0,0,1,4,1,0,0,0,4,4,1,0,0,0,0,0,0,0,2,5,2,4,5,5,0,0,0,0,0,0,0,0,0,0,0,0,0,0,0,0,0,0,0,0],"split_type":[0,0,0,0,0,0,0,0,0,0,0,0,0,0,0,0,0,0,0,0,0,0,0,0,0,0,0,0,0,0,0,0,0,0,0,0,0,0,0,0,0,0,0,0,0,0,0,0,0,0,0,0,0],"sum_hessian":[2.497E3,7E1,2.427E3,5.9E1,1.1E1,2.3E1,2.404E3,3.7E1,2.2E1,2.1E1,2E0,4.78E2,1.926E3,2.7E1,1E1,7E0,1.5E1,2.92E2,1.86E2,1.908E3,1.8E1,6E0,2.1E1,4E0,6E0,1.1E1,4E0,1.4E1,2.78E2,1.21E2,6.5E1,4.45E2,1.463E3,1.7E1,1E0,1E0,5E0,1E0,2E1,4E0,7E0,1E1,4E0,2.9E1,2.49E2,1.05E2,1.6E1,3.1E1,3.4E1,8.4E1,3.61E2,6.43E2,8.2E2],"tree_param":{"num_deleted":"0","num_feature":"116","num_nodes":"53","size_leaf_vector":"1"}},{"base_weights":[-3.162896E-3,2.5530744E-1,-1.0155855E-2,1.4626999E-1,2.279181E-2,-7.5211017E-3,-6.5293964E-3,1.7776306E-1,-0E0,6.9277734E-3,-3.0208392E-2,-0E0,2.0237233E-1,3.5862E-3,5.5218907E-3,-2.6308225E-2,-3.5572273E-3,4.5894682E-3,-0E0,-1.1095084E-3,3.149394E-2,-3.260959E-2,-3.3169605E-3,1.7055332E-4,-7.598243E-4,4.016199E-4,1.1232427E-3,-5.6328E-4,-1.064262E-3,-0E0,-3.0743433E-4],"categories":[],"categories_nodes":[],"categories_segments":[],"categories_sizes":[],"default_left":[0,0,0,0,0,0,0,0,0,0,0,0,0,0,0,0,0,0,0,0,0,0,0,0,0,0,0,0,0,0,0],"id":16,"left_children":[1,3,5,7,-1,-1,9,11,-1,13,15,-1,17,-1,19,21,-1,-1,-1,23,25,27,29,-1,-1,-1,-1,-1,-1,-1,-1],"loss_changes":[4.3294544E0,4.8865776E0,2.7639322E0,2.8707147E-1,0E0,0E0,7.6922697E-1,1.9395137E-1,0E0,2.49098E-1,3.6222935E-1,0E0,8.1795454E-2,0E0,2.7235693E-1,1.0552931E-1,0E0,0E0,0E0,3.7373623E-1,4.8646033E-2,3.2898486E-2,1.1363339E-2,0E0,0E0,0E0,0E0,0E0,0E0,0E0,0E0],"parents":[2147483647,0,0,1,1,2,2,3,3,6,6,7,7,9,9,10,10,12,12,14,14,15,15,19,19,20,20,21,21,22,22],"right_children":[2,4,6,8,-1,-1,10,12,-1,14,16,-1,18,-1,20,22,-1,-1,-1,24,26,28,30,-1,-1,-1,-1,-1,-1,-1,-1],"split_conditions":[5.272E3,3.121766E8,3.1850692E7,5.066E3,2.279181E-2,-7.5211017E-3,2.36E5,7.47551E5,-0E0,1.2898099E8,3.785E5,-0E0,5E3,3.5862E-3,1.065E5,3.19158E5,-3.5572273E-3,4.5894682E-3,-0E0,8.53E4,2.065E5,2.935E5,2.97E5,1.7055332E-4,-7.598243E-4,4.016199E-4,1.1232427E-3,-5.6328E-4,-1.064262E-3,-0E0,-3.0743433E-4],"split_indices":[6,2,2,6,0,0,3,1,0,2,6,0,3,0,3,1,0,0,0,6,3,6,3,0,0,0,0,0,0,0,0],"split_type":[0,0,0,0,0,0,0,0,0,0,0,0,0,0,0,0,0,0,0,0,0,0,0,0,0,0,0,0,0,0,0],"sum_hessian":[2.464E3,6.3E1,2.401E3,5.6E1,7E0,2.4E1,2.377E3,4.7E1,9E0,1.502E3,8.75E2,6E0,4.1E1,1E1,1.492E3,8.54E2,2.1E1,3.9E1,2E0,1.173E3,3.19E2,6.53E2,2.01E2,9.16E2,2.57E2,2.11E2,1.08E2,4.91E2,1.62E2,1.34E2,6.7E1],"tree_param":{"num_deleted":"0","num_feature":"116","num_nodes":"31","size_leaf_vector":"1"}},{"base_weights":[-3.2297117E-3,2.3648882E-1,-9.816764E-3,-0E0,2.5868124E-1,-2.69823E-1,-7.425067E-3,4.0834856E-1,1.8427116E-1,-8.158348E-3,-0E0,4.2318883E-3,-2.794987E-2,2.692159E-1,1.9196847E-2,2.2714695E-1,-0E0,-1.691255E-1,6.0805865E-3,-2.3958419E-2,-1.6059555E-1,6.3313353E-3,-0E0,1.68229E-1,4.0786627E-1,-0E0,-2.881562E-1,1.6612309E-3,4.6452727E-2,-3.3767443E-2,-0E0,-1.6857672E-1,-0E0,4.4594593E-3,-0E0,1.4640795E-2,-0E0,-6.9451155E-3,-0E0,4.2850673E-4,-1.65862E-4,1.223496E-3,-0E0,-5.8386655E-4,-1.1397053E-3,2.74552E-4,-1.4379379E-4,-0E0,-3.8276797E-3],"categories":[],"categories_nodes":[],"categories_segments":[],"categories_sizes":[],"default_left":[0,0,0,0,0,0,0,0,0,0,0,0,0,0,0,0,0,0,0,0,0,0,0,0,0,0,0,0,0,0,0,0,0,0,0,0,0,0,0,0,0,0,0,0,0,0,0,0,0],"id":17,"left_children":[1,3,5,-1,7,9,11,13,15,-1,-1,17,19,21,-1,23,-1,25,27,29,31,-1,-1,33,35,-1,37,39,41,43,45,47,-1,-1,-1,-1,-1,-1,-1,-1,-1,-1,-1,-1,-1,-1,-1,-1,-1],"loss_changes":[3.7854266E0,3.0180192E-1,1.3557732E0,0E0,3.4579515E-1,3.9873064E-1,5.8287853E-1,5.4991126E-1,3.1046999E-1,0E0,0E0,4.0007666E-1,3.7244678E-1,1.0240722E-1,0E0,5.9603572E-2,0E0,2.0939589E-1,2.4201189E-1,2.0761043E-1,2.9380023E-2,0E0,0E0,8.847821E-2,3.8037467E-1,0E0,3.9151013E-2,2.3657288E-1,7.234812E-2,3.815323E-2,2.1720305E-2,3.135681E-2,0E0,0E0,0E0,0E0,0E0,0E0,0E0,0E0,0E0,0E0,0E0,0E0,0E0,0E0,0E0,0E0,0E0],"parents":[2147483647,0,0,1,1,2,2,4,4,5,5,6,6,7,7,8,8,11,11,12,12,13,13,15,15,17,17,18,18,19,19,20,20,23,23,24,24,26,26,27,27,28,28,29,29,30,30,31,31],"right_children":[2,4,6,-1,8,10,12,14,16,-1,-1,18,20,22,-1,24,-1,26,28,30,32,-1,-1,34,36,-1,38,40,42,44,46,48,-1,-1,-1,-1,-1,-1,-1,-1,-1,-1,-1,-1,-1,-1,-1,-1,-1],"split_conditions":[5.272E3,7.17295E5,7.0923E4,-0E0,1.17323E6,9.695E3,2.335E5,4.84E3,5.34E3,-8.158348E-3,-0E0,1.14426E5,3.785E5,4.998E3,1.9196847E-2,2.613888E6,-0E0,-2.73E2,1.78E5,2.87355E5,1.35E4,6.3313353E-3,-0E0,1.876573E6,3.25721E6,-0E0,1.5E2,5.39E4,8.6154E4,2.94E5,3.6385E5,3.88E5,-0E0,4.4594593E-3,-0E0,1.4640795E-2,-0E0,-6.9451155E-3,-0E0,4.2850673E-4,-1.65862E-4,1.223496E-3,-0E0,-5.8386655E-4,-1.1397053E-3,2.74552E-4,-1.4379379E-4,-0E0,-3.8276797E-3],"split_indices":[6,1,1,0,1,4,5,5,4,0,0,1,6,4,0,1,0,0,6,1,0,0,0,1,1,0,0,4,16,6,1,4,0,0,0,0,0,0,0,0,0,0,0,0,0,0,0,0,0],"split_type":[0,0,0,0,0,0,0,0,0,0,0,0,0,0,0,0,0,0,0,0,0,0,0,0,0,0,0,0,0,0,0,0,0,0,0,0,0,0,0,0,0,0,0,0,0,0,0,0,0],"sum_hessian":[2.47E3,6.4E1,2.406E3,6E0,5.8E1,2E1,2.386E3,1.7E1,4.1E1,1.3E1,7E0,1.506E3,8.8E2,1.4E1,3E0,3.3E1,8E0,1.3E1,1.493E3,8.58E2,2.2E1,1.3E1,1E0,2.7E1,6E0,6E0,7E0,1.357E3,1.36E2,6.14E2,2.44E2,2.1E1,1E0,2E1,7E0,3E0,3E0,6E0,1E0,4.79E2,8.78E2,1.14E2,2.2E1,4.73E2,1.41E2,9.3E1,1.51E2,1E0,2E1],"tree_param":{"num_deleted":"0","num_feature":"116","num_nodes":"49","size_leaf_vector":"1"}},{"base_weights":[1.3663493E-3,2.8227004E-1,-6.7216847E-3,1.4729907E-1,2.3076702E-2,-2.6570612E-1,-4.586071E-3,1.8053174E-1,2.031634E-4,-6.0450844E-3,-0E0,9.342716E-3,-2.910011E-2,-0E0,4.639357E-3,1.6626069E-1,7.4547753E-3,-2.5200222E-2,-1.6636406E-1,1.2542979E-3,-0E0,4.2567286E-3,-0E0,2.8556856E-4,3.0213008E-2,-3.557378E-2,-0E0,-0E0,-3.7774998E-3,5.0516665E-4,-3.3044064E-4,8.856091E-4,2.171768E-4,-7.9949165E-4,-0E0,1.9240846E-4,-9.859886E-5],"categories":[],"categories_nodes":[],"categories_segments":[],"categories_sizes":[],"default_left":[0,0,0,0,0,0,0,0,0,0,0,0,0,0,0,0,0,0,0,0,0,0,0,0,0,0,0,0,0,0,0,0,0,0,0,0,0],"id":18,"left_children":[1,3,5,7,-1,9,11,13,-1,-1,-1,15,17,19,-1,21,23,25,27,-1,-1,-1,-1,29,31,33,35,-1,-1,-1,-1,-1,-1,-1,-1,-1,-1],"loss_changes":[5.8421683E0,7.0242176E0,1.2115449E0,1.879232E-1,0E0,6.090629E-2,8.3631724E-1,2.2147477E-1,0E0,0E0,0E0,3.6528656E-1,3.7941122E-1,1.3490238E-2,0E0,9.031141E-2,2.3173898E-1,2.3274672E-1,3.0558765E-2,0E0,0E0,0E0,0E0,4.2501006E-1,4.9399257E-2,2.6546836E-2,1.08070765E-2,0E0,0E0,0E0,0E0,0E0,0E0,0E0,0E0,0E0,0E0],"parents":[2147483647,0,0,1,1,2,2,3,3,5,5,6,6,7,7,11,11,12,12,13,13,15,15,16,16,17,17,18,18,23,23,24,24,25,25,26,26],"right_children":[2,4,6,8,-1,10,12,14,-1,-1,-1,16,18,20,-1,22,24,26,28,-1,-1,-1,-1,30,32,34,36,-1,-1,-1,-1,-1,-1,-1,-1,-1,-1],"split_conditions":[5.469E3,3.121766E8,1.146518E7,4.785E3,2.3076702E-2,9.7077E4,2.335E5,7.79327E5,2.031634E-4,-6.0450844E-3,-0E0,1.2898099E8,3.785E5,6.55827E5,4.639357E-3,1.586425E6,1.025E5,2.87355E5,3.88E5,1.2542979E-3,-0E0,4.2567286E-3,-0E0,5.39E4,7.864225E10,8.7378E4,3.6385E5,-0E0,-3.7774998E-3,5.0516665E-4,-3.3044064E-4,8.856091E-4,2.171768E-4,-7.9949165E-4,-0E0,1.9240846E-4,-9.859886E-5],"split_indices":[4,2,2,6,0,1,5,1,0,0,0,2,6,1,0,1,4,1,4,0,0,0,0,6,2,7,1,0,0,0,0,0,0,0,0,0,0],"split_type":[0,0,0,0,0,0,0,0,0,0,0,0,0,0,0,0,0,0,0,0,0,0,0,0,0,0,0,0,0,0,0,0,0,0,0,0,0],"sum_hessian":[2.51E3,7.2E1,2.438E3,6.2E1,1E1,1.8E1,2.42E3,4.7E1,1.5E1,1.7E1,1E0,1.53E3,8.9E2,9E0,3.8E1,1.5E1,1.515E3,8.69E2,2.1E1,4E0,5E0,1.3E1,2E0,1.169E3,3.46E2,6.2E2,2.49E2,1E0,2E1,4.84E2,6.85E2,2.09E2,1.37E2,5.92E2,2.8E1,9.6E1,1.53E2],"tree_param":{"num_deleted":"0","num_feature":"116","num_nodes":"37","size_leaf_vector":"1"}},{"base_weights":[-7.658295E-5,2.9718515E-1,-6.7822896E-3,1.5238877E-1,2.2642843E-2,-3.0720428E-1,-3.6947904E-3,3.152319E-1,8.480822E-2,-3.2117453E-1,-0E0,2.8735092E-2,-1.2121099E-2,7.638678E-3,-0E0,1.2038576E-1,-0E0,-7.241837E-3,-0E0,8.846697E-2,1.181696E-2,-1.0217771E-2,-1.6751908E-1,-0E0,3.091732E-3,1.1526593E-1,2.914834E-2,1.4226495E-1,2.8504776E-3,-5.641663E-3,-3.0821895E-2,-3.8208505E-3,-0E0,-0E0,2.6298617E-3,-2.1531293E-4,1.4726425E-3,3.984101E-3,-0E0,-1.0772285E-3,5.8884337E-4,-2.6713646E-4,1.7905218E-4,-9.248577E-4,-0E0],"categories":[],"categories_nodes":[],"categories_segments":[],"categories_sizes":[],"default_left":[0,0,0,0,0,0,0,0,0,0,0,0,0,0,0,0,0,0,0,0,0,0,0,0,0,0,0,0,0,0,0,0,0,0,0,0,0,0,0,0,0,0,0,0,0],"id":19,"left_children":[1,3,5,7,-1,9,11,13,15,17,-1,19,21,-1,-1,23,-1,-1,-1,25,27,29,31,-1,-1,33,35,37,39,41,43,-1,-1,-1,-1,-1,-1,-1,-1,-1,-1,-1,-1,-1,-1],"loss_changes":[4.7924466E0,5.156498E0,2.0918596E0,2.92624E-1,0E0,9.875536E-2,6.479664E-1,3.264308E-2,1.1777583E-1,9.149146E-2,0E0,4.3730754E-1,4.775737E-1,0E0,0E0,6.7986876E-2,0E0,0E0,0E0,8.582866E-2,3.7448558E-1,1.6058335E-1,3.335005E-2,0E0,0E0,6.734294E-2,8.597846E-2,1.1939487E-1,4.5450565E-1,1.4957029E-1,1.0014492E-1,0E0,0E0,0E0,0E0,0E0,0E0,0E0,0E0,0E0,0E0,0E0,0E0,0E0,0E0],"parents":[2147483647,0,0,1,1,2,2,3,3,5,5,6,6,7,7,8,8,9,9,11,11,12,12,15,15,19,19,20,20,21,21,22,22,25,25,26,26,27,27,28,28,29,29,30,30],"right_children":[2,4,6,8,-1,10,12,14,16,18,-1,20,22,-1,-1,24,-1,-1,-1,26,28,30,32,-1,-1,34,36,38,40,42,44,-1,-1,-1,-1,-1,-1,-1,-1,-1,-1,-1,-1,-1,-1],"split_conditions":[5.34E3,3.121766E8,3.1850692E7,3.485E3,2.2642843E-2,9.695E3,5.39E4,1.586425E6,1.88E2,1.5E2,-0E0,5.80713E5,3.88E5,7.638678E-3,-0E0,-1.6E2,-0E0,-7.241837E-3,-0E0,4.01E4,1.2898099E8,2.89E5,1.35E4,-0E0,3.091732E-3,1.2223E4,4.76E4,1.76174E6,1.0262343E10,5.770494E10,9.2059795E10,-3.8208505E-3,-0E0,-0E0,2.6298617E-3,-2.1531293E-4,1.4726425E-3,3.984101E-3,-0E0,-1.0772285E-3,5.8884337E-4,-2.6713646E-4,1.7905218E-4,-9.248577E-4,-0E0],"split_indices":[4,2,2,3,0,4,4,1,0,0,0,1,4,0,0,0,0,0,0,3,2,4,0,0,0,3,3,1,2,2,2,0,0,0,0,0,0,0,0,0,0,0,0,0,0],"split_type":[0,0,0,0,0,0,0,0,0,0,0,0,0,0,0,0,0,0,0,0,0,0,0,0,0,0,0,0,0,0,0,0,0,0,0,0,0,0,0,0,0,0,0,0,0],"sum_hessian":[2.478E3,5.3E1,2.425E3,4.5E1,8E0,2.3E1,2.402E3,1.1E1,3.4E1,2.2E1,1E0,4.83E2,1.919E3,9E0,2E0,2.5E1,9E0,2.1E1,1E0,1E2,3.83E2,1.899E3,2E1,4E0,2.1E1,6.3E1,3.7E1,2.1E1,3.62E2,1.574E3,3.25E2,1.9E1,1E0,2E0,6.1E1,1.2E1,2.5E1,1.6E1,5E0,1.08E2,2.54E2,1.086E3,4.88E2,2.23E2,1.02E2],"tree_param":{"num_deleted":"0","num_feature":"116","num_nodes":"45","size_leaf_vector":"1"}},{"base_weights":[1.5565039E-3,2.8283134E-1,-6.21231E-3,1.348596E-1,2.196569E-2,-3.122386E-1,-2.567598E-3,3.960647E-3,-0E0,-7.00338E-3,-0E0,3.498186E-2,-1.2262263E-2,2.920572E-2,1.3793986E-1,-1.0660708E-2,-1.4609921E-1,-5.588799E-3,5.3210918E-2,2.8409496E-1,-3.6256216E-2,-1.8220455E-3,-2.25357E-2,-0E0,-3.3359702E-3,1.184566E-3,-1.2499709E-3,2.3600613E-3,2.6255965E-4,-0E0,6.6582775E-3,-2.2981835E-3,-0E0,-3.29435E-4,4.7465853E-4,-6.8216986E-4,-4.533727E-5],"categories":[],"categories_nodes":[],"categories_segments":[],"categories_sizes":[],"default_left":[0,0,0,0,0,0,0,0,0,0,0,0,0,0,0,0,0,0,0,0,0,0,0,0,0,0,0,0,0,0,0,0,0,0,0,0,0],"id":20,"left_children":[1,3,5,7,-1,9,11,-1,-1,-1,-1,13,15,17,19,21,23,25,27,29,31,33,35,-1,-1,-1,-1,-1,-1,-1,-1,-1,-1,-1,-1,-1,-1],"loss_changes":[5.6073947E0,6.912545E0,2.5542798E0,3.574736E-1,0E0,1.0133505E-1,8.643485E-1,0E0,0E0,0E0,0E0,2.025885E-1,3.327983E-1,4.1000357E-1,6.6017264E-1,1.87506E-1,2.3853421E-2,5.702852E-1,5.875175E-1,9.1174126E-2,4.60943E-2,3.5330102E-1,1.2865761E-1,0E0,0E0,0E0,0E0,0E0,0E0,0E0,0E0,0E0,0E0,0E0,0E0,0E0,0E0],"parents":[2147483647,0,0,1,1,2,2,3,3,5,5,6,6,11,11,12,12,13,13,14,14,15,15,16,16,17,17,18,18,19,19,20,20,21,21,22,22],"right_children":[2,4,6,8,-1,10,12,-1,-1,-1,-1,14,16,18,20,22,24,26,28,30,32,34,36,-1,-1,-1,-1,-1,-1,-1,-1,-1,-1,-1,-1,-1,-1],"split_conditions":[5.272E3,3.121766E8,3.1850692E7,4.785E3,2.196569E-2,9.695E3,5.39E4,3.960647E-3,-0E0,-7.00338E-3,-0E0,5.213426E10,3.785E5,1.2099E4,5.9637953E10,2.43E5,3.88E5,6.778E3,1.6954244E10,7.31E3,1.55E4,1.005E5,7.788955E10,-0E0,-3.3359702E-3,1.184566E-3,-1.2499709E-3,2.3600613E-3,2.6255965E-4,-0E0,6.6582775E-3,-2.2981835E-3,-0E0,-3.29435E-4,4.7465853E-4,-6.8216986E-4,-4.533727E-5],"split_indices":[6,2,2,6,0,4,4,0,0,0,0,2,6,6,2,3,4,3,2,3,3,5,2,0,0,0,0,0,0,0,0,0,0,0,0,0,0],"split_type":[0,0,0,0,0,0,0,0,0,0,0,0,0,0,0,0,0,0,0,0,0,0,0,0,0,0,0,0,0,0,0,0,0,0,0,0,0],"sum_hessian":[2.502E3,6.9E1,2.433E3,5.8E1,1.1E1,2.7E1,2.406E3,4.2E1,1.6E1,2.6E1,1E0,4.83E2,1.923E3,4.62E2,2.1E1,1.904E3,1.9E1,1.8E2,2.82E2,1.3E1,8E0,1.116E3,7.88E2,1E0,1.8E1,7.9E1,1.01E2,1.14E2,1.68E2,1E0,1.2E1,5E0,3E0,7.27E2,3.89E2,5.29E2,2.59E2],"tree_param":{"num_deleted":"0","num_feature":"116","num_nodes":"37","size_leaf_vector":"1"}},{"base_weights":[-1.5626701E-4,2.755019E-1,-7.6618865E-3,1.3085853E-1,2.1726504E-2,-6.3952114E-3,-4.80212E-3,1.7683116E-1,-0E0,2.7644226E-2,-1.3582274E-2,7.319852E-5,4.2969105E-3,6.801789E-2,-0E0,-7.944391E-3,-4.823786E-2,1.1741273E-1,3.8437188E-2,1.12964615E-1,-7.321111E-3,-1.745367E-2,9.672338E-3,-3.9073143E-2,-1.296839E-1,-0E0,3.2607517E-3,-4.0827726E-5,1.2708666E-3,-0E0,2.8926001E-3,-1.5213069E-3,3.1410097E-4,-2.4157496E-4,-7.097501E-4,4.4041988E-4,-0E0,-1.102168E-3,-0E0,-3.57536E-3,-0E0],"categories":[],"categories_nodes":[],"categories_segments":[],"categories_sizes":[],"default_left":[0,0,0,0,0,0,0,0,0,0,0,0,0,0,0,0,0,0,0,0,0,0,0,0,0,0,0,0,0,0,0,0,0,0,0,0,0,0,0,0,0],"id":21,"left_children":[1,3,5,7,-1,-1,9,11,-1,13,15,-1,-1,17,19,21,23,25,27,29,31,33,35,37,39,-1,-1,-1,-1,-1,-1,-1,-1,-1,-1,-1,-1,-1,-1,-1,-1],"loss_changes":[4.999574E0,6.1859436E0,1.8421028E0,2.948084E-1,0E0,0E0,6.7546016E-1,4.711044E-2,0E0,5.26208E-1,3.423855E-1,0E0,0E0,2.0745158E-1,2.9575032E-1,2.7951527E-1,1.0337907E-1,2.1597159E-1,1.3498582E-1,6.004563E-2,4.1468757E-1,8.268291E-2,6.297408E-2,1.3123319E-1,4.7279477E-2,0E0,0E0,0E0,0E0,0E0,0E0,0E0,0E0,0E0,0E0,0E0,0E0,0E0,0E0,0E0,0E0],"parents":[2147483647,0,0,1,1,2,2,3,3,6,6,7,7,9,9,10,10,13,13,14,14,15,15,16,16,17,17,18,18,19,19,20,20,21,21,22,22,23,23,24,24],"right_children":[2,4,6,8,-1,-1,10,12,-1,14,16,-1,-1,18,20,22,24,26,28,30,32,34,36,38,40,-1,-1,-1,-1,-1,-1,-1,-1,-1,-1,-1,-1,-1,-1,-1,-1],"split_conditions":[5.272E3,3.121766E8,3.1850692E7,4.785E3,2.1726504E-2,-6.3952114E-3,5.22E4,7.47551E5,-0E0,7.9857E5,2.885E5,7.319852E-5,4.2969105E-3,2.545E4,1.6972072E8,5.693575E10,3.785E5,1.2099E4,3.075E4,5.469E3,9.925598E9,2.45E5,2.3E5,3.195E5,3.38859E5,-0E0,3.2607517E-3,-4.0827726E-5,1.2708666E-3,-0E0,2.8926001E-3,-1.5213069E-3,3.1410097E-4,-2.4157496E-4,-7.097501E-4,4.4041988E-4,-0E0,-1.102168E-3,-0E0,-3.57536E-3,-0E0],"split_indices":[6,2,2,6,0,0,5,1,0,1,5,0,0,6,2,2,6,6,6,6,2,6,3,6,1,0,0,0,0,0,0,0,0,0,0,0,0,0,0,0,0],"split_type":[0,0,0,0,0,0,0,0,0,0,0,0,0,0,0,0,0,0,0,0,0,0,0,0,0,0,0,0,0,0,0,0,0,0,0,0,0,0,0,0,0],"sum_hessian":[2.482E3,6.4E1,2.418E3,5.4E1,1E1,2.2E1,2.396E3,3.9E1,1.5E1,4.98E2,1.898E3,7E0,3.2E1,1.96E2,3.02E2,1.645E3,2.53E2,6.7E1,1.29E2,2.2E1,2.8E2,1.087E3,5.58E2,2.33E2,2E1,1.7E1,5E1,3.5E1,9.4E1,3E0,1.9E1,7.8E1,2.02E2,7.96E2,2.91E2,2.77E2,2.81E2,1.87E2,4.6E1,1.4E1,6E0],"tree_param":{"num_deleted":"0","num_feature":"116","num_nodes":"41","size_leaf_vector":"1"}},{"base_weights":[-6.018346E-4,2.5407574E-1,-7.460994E-3,1.3235797E-1,2.2194041E-2,-6.8939375E-3,-4.249218E-3,6.7663635E-3,9.542221E-2,7.8146225E-3,-2.6181936E-2,-0E0,1.0757603E-1,2.68384E-2,-6.5953465E-4,-2.2757718E-2,-1.3405964E-1,1.1493755E-1,-0E0,1.8914841E-2,1.4845946E-1,-8.707545E-3,4.095942E-2,-3.1792767E-2,-5.9808856E-3,-0E0,-3.102203E-3,2.6139761E-3,-0E0,-4.0139494E-4,9.480274E-4,5.275569E-3,-1.8672944E-3,-1.3653707E-4,-1.2465422E-3,1.1483826E-3,-0E0,-4.3483917E-4,-9.0502936E-4,6.48913E-5,-3.5299474E-4],"categories":[],"categories_nodes":[],"categories_segments":[],"categories_sizes":[],"default_left":[0,0,0,0,0,0,0,0,0,0,0,0,0,0,0,0,0,0,0,0,0,0,0,0,0,0,0,0,0,0,0,0,0,0,0,0,0,0,0,0,0],"id":22,"left_children":[1,3,5,7,-1,-1,9,-1,11,13,15,-1,17,19,21,23,25,27,-1,29,31,33,35,37,39,-1,-1,-1,-1,-1,-1,-1,-1,-1,-1,-1,-1,-1,-1,-1,-1],"loss_changes":[4.2003617E0,5.3438997E0,2.2520697E0,1.6054684E-1,0E0,0E0,6.4167905E-1,0E0,6.056282E-2,2.5942674E-1,2.3936886E-1,0E0,3.0803919E-2,3.8646805E-1,3.3134386E-1,1.0834777E-1,1.721114E-2,1.3523102E-2,0E0,4.464962E-1,6.650267E-1,7.0464894E-2,7.134104E-2,3.0703723E-2,3.5992566E-2,0E0,0E0,0E0,0E0,0E0,0E0,0E0,0E0,0E0,0E0,0E0,0E0,0E0,0E0,0E0,0E0],"parents":[2147483647,0,0,1,1,2,2,3,3,6,6,8,8,9,9,10,10,12,12,13,13,14,14,15,15,16,16,17,17,19,19,20,20,21,21,22,22,23,23,24,24],"right_children":[2,4,6,8,-1,-1,10,-1,12,14,16,-1,18,20,22,24,26,28,-1,30,32,34,36,38,40,-1,-1,-1,-1,-1,-1,-1,-1,-1,-1,-1,-1,-1,-1,-1,-1],"split_conditions":[5.066E3,3.121766E8,3.1850692E7,3.423E3,2.2194041E-2,-6.8939375E-3,2.35E5,6.7663635E-3,3.1850692E7,5.3E4,3.785E5,-0E0,5E3,4.9807E10,1.78E5,6.8201652E10,3.74E5,4.84E3,-0E0,1.15E4,5.9637953E10,1.595E5,2.3E5,2.645E5,2.83E5,-0E0,-3.102203E-3,2.6139761E-3,-0E0,-4.0139494E-4,9.480274E-4,5.275569E-3,-1.8672944E-3,-1.3653707E-4,-1.2465422E-3,1.1483826E-3,-0E0,-4.3483917E-4,-9.0502936E-4,6.48913E-5,-3.5299474E-4],"split_indices":[6,2,2,5,0,0,5,0,2,6,6,0,3,2,6,2,5,5,0,5,2,6,3,3,6,0,0,0,0,0,0,0,0,0,0,0,0,0,0,0,0],"split_type":[0,0,0,0,0,0,0,0,0,0,0,0,0,0,0,0,0,0,0,0,0,0,0,0,0,0,0,0,0,0,0,0,0,0,0,0,0,0,0,0,0],"sum_hessian":[2.476E3,6.3E1,2.413E3,5.5E1,8E0,2.3E1,2.39E3,7E0,4.8E1,1.527E3,8.63E2,5E0,4.3E1,4.89E2,1.038E3,8.41E2,2.2E1,4E1,3E0,4.63E2,2.6E1,8.8E2,1.58E2,5.27E2,3.14E2,2E0,2E1,3.7E1,3E0,1.77E2,2.86E2,2E1,6E0,8.49E2,3.1E1,1.19E2,3.9E1,2.68E2,2.59E2,1.42E2,1.72E2],"tree_param":{"num_deleted":"0","num_feature":"116","num_nodes":"41","size_leaf_vector":"1"}},{"base_weights":[-1.8931882E-3,2.7470657E-1,-9.996144E-3,1.1930009E-1,2.1244928E-2,-3.168888E-1,-6.8816943E-3,2.7023116E-1,6.444305E-2,-3.4393528E-1,-0E0,-9.3873293E-4,-3.984655E-2,6.3980767E-3,-0E0,1.1376721E-1,-0E0,-7.81441E-3,-0E0,3.453897E-3,-1.9649267E-3,-3.1021105E-2,-1.4637111E-1,2.737408E-3,-0E0,-1.2439502E-1,-0E0,-3.944482E-2,7.810094E-3,-3.322005E-3,-0E0,-0E0,-3.0605951E-3,-1.4793183E-4,3.365307E-4,-8.9190947E-4,-0E0,-0E0,3.8398933E-4],"categories":[],"categories_nodes":[],"categories_segments":[],"categories_sizes":[],"default_left":[0,0,0,0,0,0,0,0,0,0,0,0,0,0,0,0,0,0,0,0,0,0,0,0,0,0,0,0,0,0,0,0,0,0,0,0,0,0,0],"id":23,"left_children":[1,3,5,7,-1,9,11,13,15,17,-1,19,21,-1,-1,23,-1,-1,-1,-1,25,27,29,-1,-1,31,33,35,37,-1,-1,-1,-1,-1,-1,-1,-1,-1,-1],"loss_changes":[5.5184336E0,7.153411E0,2.1796515E0,3.1072152E-1,0E0,1.7449617E-1,4.552068E-1,1.5938342E-2,1.2375103E-1,1.3391614E-1,0E0,2.6185787E-1,2.4672443E-1,0E0,0E0,1.0632902E-2,0E0,0E0,0E0,0E0,4.5626697E-1,1.2560093E-1,2.7683616E-2,0E0,0E0,5.785808E-2,2.1396966E-1,2.7375966E-2,1.12345535E-2,0E0,0E0,0E0,0E0,0E0,0E0,0E0,0E0,0E0,0E0],"parents":[2147483647,0,0,1,1,2,2,3,3,5,5,6,6,7,7,8,8,9,9,11,11,12,12,15,15,20,20,21,21,22,22,25,25,26,26,27,27,28,28],"right_children":[2,4,6,8,-1,10,12,14,16,18,-1,20,22,-1,-1,24,-1,-1,-1,-1,26,28,30,-1,-1,32,34,36,38,-1,-1,-1,-1,-1,-1,-1,-1,-1,-1],"split_conditions":[5.469E3,3.121766E8,3.1850692E7,3.485E3,2.1244928E-2,1.5E2,2.89E5,1.586425E6,5E1,9.695E3,-0E0,8.360744E7,3.88E5,6.3980767E-3,-0E0,5E3,-0E0,-7.81441E-3,-0E0,3.453897E-3,6.463E3,3.225E5,1.35E4,2.737408E-3,-0E0,5.073E3,5.213426E10,1.6997243E11,6.6095927E10,-3.322005E-3,-0E0,-0E0,-3.0605951E-3,-1.4793183E-4,3.365307E-4,-8.9190947E-4,-0E0,-0E0,3.8398933E-4],"split_indices":[4,2,2,3,0,0,4,1,0,4,0,2,4,0,0,3,0,0,0,0,4,4,0,0,0,5,2,2,2,0,0,0,0,0,0,0,0,0,0],"split_type":[0,0,0,0,0,0,0,0,0,0,0,0,0,0,0,0,0,0,0,0,0,0,0,0,0,0,0,0,0,0,0,0,0,0,0,0,0,0,0],"sum_hessian":[2.522E3,7E1,2.452E3,5.8E1,1.2E1,2.3E1,2.429E3,1.3E1,4.5E1,2.1E1,2E0,2.071E3,3.58E2,1.1E1,2E0,2.4E1,2.1E1,2E1,1E0,1E1,2.061E3,3.35E2,2.3E1,2E1,4E0,3E1,2.031E3,2.86E2,4.9E1,2.2E1,1E0,4E0,2.6E1,1.425E3,6.06E2,2.77E2,9E0,4E0,4.5E1],"tree_param":{"num_deleted":"0","num_feature":"116","num_nodes":"39","size_leaf_vector":"1"}},{"base_weights":[8.484238E-4,2.4086662E-1,-5.619507E-3,1.1040284E-1,2.0169988E-2,-6.28067E-3,-2.777821E-3,1.5636997E-1,-0E0,3.1451687E-2,-1.2120985E-2,-0E0,3.9532995E-3,6.798489E-2,6.0276124E-3,-7.425302E-3,-4.3414973E-2,-0E0,7.507053E-2,-5.3026825E-3,8.849561E-2,-1.6079254E-2,9.395255E-3,-3.3812102E-2,-1.2441255E-1,1.4977339E-3,-1.6872206E-3,3.081008E-3,9.842591E-4,1.1896911E-3,-7.094458E-4,5.5999793E-3,-0E0,-2.2112126E-4,-5.716859E-4,3.436456E-4,-2.1956876E-4,-9.845764E-4,-0E0,-0E0,-2.9095397E-3],"categories":[],"categories_nodes":[],"categories_segments":[],"categories_sizes":[],"default_left":[0,0,0,0,0,0,0,0,0,0,0,0,0,0,0,0,0,0,0,0,0,0,0,0,0,0,0,0,0,0,0,0,0,0,0,0,0,0,0,0,0],"id":24,"left_children":[1,3,5,7,-1,-1,9,11,-1,13,15,-1,-1,17,19,21,23,25,27,29,31,33,35,37,39,-1,-1,-1,-1,-1,-1,-1,-1,-1,-1,-1,-1,-1,-1,-1,-1],"loss_changes":[3.9613838E0,5.5286436E0,1.8026937E0,3.0775392E-1,0E0,0E0,7.5328124E-1,1.03057146E-1,0E0,4.269276E-1,2.5139317E-1,0E0,0E0,1.3205999E-1,3.2525253E-1,2.4414848E-1,1.0031834E-1,6.934757E-2,2.734834E-1,4.2284986E-1,5.4499626E-1,4.889694E-2,7.19865E-2,1.03517264E-1,1.4405757E-2,0E0,0E0,0E0,0E0,0E0,0E0,0E0,0E0,0E0,0E0,0E0,0E0,0E0,0E0,0E0,0E0],"parents":[2147483647,0,0,1,1,2,2,3,3,6,6,7,7,9,9,10,10,13,13,14,14,15,15,16,16,17,17,18,18,19,19,20,20,21,21,22,22,23,23,24,24],"right_children":[2,4,6,8,-1,-1,10,12,-1,14,16,-1,-1,18,20,22,24,26,28,30,32,34,36,38,40,-1,-1,-1,-1,-1,-1,-1,-1,-1,-1,-1,-1,-1,-1,-1,-1],"split_conditions":[5.272E3,3.121766E8,3.1850692E7,4.785E3,2.0169988E-2,-6.28067E-3,5.3E4,7.47551E5,-0E0,7.9857E5,2.925E5,-0E0,3.9532995E-3,1.1104E4,4.4228837E10,5.891124E10,3.785E5,6.0040036E7,2.43E4,6.753E3,9.106E3,2.335E5,2.735E5,3.195E5,3.74E5,1.4977339E-3,-1.6872206E-3,3.081008E-3,9.842591E-4,1.1896911E-3,-7.094458E-4,5.5999793E-3,-0E0,-2.2112126E-4,-5.716859E-4,3.436456E-4,-2.1956876E-4,-9.845764E-4,-0E0,-0E0,-2.9095397E-3],"split_indices":[6,2,2,6,0,0,5,1,0,1,6,0,0,6,2,2,6,2,5,6,5,5,6,6,5,0,0,0,0,0,0,0,0,0,0,0,0,0,0,0,0],"split_type":[0,0,0,0,0,0,0,0,0,0,0,0,0,0,0,0,0,0,0,0,0,0,0,0,0,0,0,0,0,0,0,0,0,0,0,0,0,0,0,0,0],"sum_hessian":[2.475E3,6.7E1,2.408E3,5.7E1,1E1,2.2E1,2.386E3,4.1E1,1.6E1,5E2,1.886E3,8E0,3.3E1,1.97E2,3.03E2,1.654E3,2.32E2,1.2E1,1.85E2,2.61E2,4.2E1,1.112E3,5.42E2,2.13E2,1.9E1,3E0,9E0,5.1E1,1.34E2,7.6E1,1.85E2,1.3E1,2.9E1,7.43E2,3.69E2,4.26E2,1.16E2,1.67E2,4.6E1,2E0,1.7E1],"tree_param":{"num_deleted":"0","num_feature":"116","num_nodes":"41","size_leaf_vector":"1"}},{"base_weights":[-3.252544E-5,2.5583187E-1,-7.99665E-3,1.2606132E-1,2.0583762E-2,-2.829563E-1,-5.05685E-3,1.8443148E-1,1.7080432E-2,-6.614745E-3,-0E0,6.1858287E-3,-2.4845568E-2,4.4280724E-3,-0E0,5.262654E-2,-1.614981E-3,2.3866888E-2,-1.5726924E-3,-2.172023E-2,-1.3035563E-1,-0E0,6.6234596E-2,-1.824829E-2,3.25583E-2,-1.3353811E-2,2.3011236E-2,-2.974695E-2,-5.1642423E-3,-1.3789706E-1,-0E0,-0E0,1.6968114E-3,1.4016652E-3,-1.6859885E-3,4.50998E-3,4.9133366E-4,-2.2145241E-5,-7.1173115E-4,2.2864272E-4,9.712243E-4,-3.7487206E-4,-8.953634E-4,1.1852742E-4,-3.7304297E-4,-3.1580124E-3,-0E0],"categories":[],"categories_nodes":[],"categories_segments":[],"categories_sizes":[],"default_left":[0,0,0,0,0,0,0,0,0,0,0,0,0,0,0,0,0,0,0,0,0,0,0,0,0,0,0,0,0,0,0,0,0,0,0,0,0,0,0,0,0,0,0,0,0,0,0],"id":25,"left_children":[1,3,5,7,-1,9,11,13,15,-1,-1,17,19,-1,-1,21,-1,23,25,27,29,-1,31,33,35,37,39,41,43,45,-1,-1,-1,-1,-1,-1,-1,-1,-1,-1,-1,-1,-1,-1,-1,-1,-1],"loss_changes":[4.999389E0,6.148594E0,1.82726E0,2.9870164E-1,0E0,1.4194715E-1,5.471801E-1,9.449577E-2,7.0409946E-2,0E0,0E0,2.2048876E-1,2.1712184E-1,0E0,0E0,3.1197373E-2,0E0,1.8477687E-1,2.963202E-1,9.806654E-2,2.346769E-2,0E0,1.8967196E-2,3.6970142E-1,5.950705E-1,1.5603773E-1,5.9981644E-2,5.232334E-2,4.530354E-2,2.5883079E-2,0E0,0E0,0E0,0E0,0E0,0E0,0E0,0E0,0E0,0E0,0E0,0E0,0E0,0E0,0E0,0E0,0E0],"parents":[2147483647,0,0,1,1,2,2,3,3,5,5,6,6,7,7,8,8,11,11,12,12,15,15,17,17,18,18,19,19,20,20,22,22,23,23,24,24,25,25,26,26,27,27,28,28,29,29],"right_children":[2,4,6,8,-1,10,12,14,16,-1,-1,18,20,-1,-1,22,-1,24,26,28,30,-1,32,34,36,38,40,42,44,46,-1,-1,-1,-1,-1,-1,-1,-1,-1,-1,-1,-1,-1,-1,-1,-1,-1],"split_conditions":[5.484E3,4.6390115E8,3.1850692E7,6.8E1,2.0583762E-2,1.5E2,2.36E5,1.0002286E8,5E3,-6.614745E-3,-0E0,5.28E4,3.825E5,4.4280724E-3,-0E0,3.1850692E7,-1.614981E-3,5.871281E9,1.03E5,6.8712698E10,1.5245692E11,-0E0,9.1E1,1.8491363E8,6.629E3,8.49E4,2.065E5,2.645E5,2.83E5,1.35E4,-0E0,-0E0,1.6968114E-3,1.4016652E-3,-1.6859885E-3,4.50998E-3,4.9133366E-4,-2.2145241E-5,-7.1173115E-4,2.2864272E-4,9.712243E-4,-3.7487206E-4,-8.953634E-4,1.1852742E-4,-3.7304297E-4,-3.1580124E-3,-0E0],"split_indices":[3,2,2,0,0,0,3,2,3,0,0,3,3,0,0,2,0,2,3,2,2,0,0,2,3,3,3,3,3,0,0,0,0,0,0,0,0,0,0,0,0,0,0,0,0,0,0],"split_type":[0,0,0,0,0,0,0,0,0,0,0,0,0,0,0,0,0,0,0,0,0,0,0,0,0,0,0,0,0,0,0,0,0,0,0,0,0,0,0,0,0,0,0,0,0,0,0],"sum_hessian":[2.515E3,7.4E1,2.441E3,6.3E1,1.1E1,2.4E1,2.417E3,3.8E1,2.5E1,2.2E1,2E0,1.525E3,8.92E2,3.3E1,5E0,2.2E1,3E0,4.85E2,1.04E3,8.71E2,2.1E1,1E0,2.1E1,7.3E1,4.12E2,7.17E2,3.23E2,5.66E2,3.05E2,2E1,1E0,3E0,1.8E1,2.7E1,4.6E1,1.9E1,3.93E2,4.56E2,2.61E2,2.21E2,1.02E2,2.96E2,2.7E2,1.4E2,1.65E2,1.9E1,1E0],"tree_param":{"num_deleted":"0","num_feature":"116","num_nodes":"47","size_leaf_vector":"1"}},{"base_weights":[-3.5485777E-4,2.577671E-1,-7.410917E-3,1.2114183E-1,2.0408299E-2,-3.2994568E-1,-4.231397E-3,2.6715487E-1,7.6446526E-2,-7.4676317E-3,-0E0,2.5247576E-2,-1.188144E-2,6.5634632E-3,-0E0,-0E0,9.836962E-2,6.273252E-2,5.397917E-3,-1.0183254E-2,-1.3475013E-1,1.3900426E-1,-0E0,9.4093375E-2,2.0713516E-2,1.0765793E-1,-3.7553902E-3,-1.6795395E-2,1.8830555E-4,-1.4212558E-1,-0E0,-0E0,3.2341648E-3,-4.4893217E-4,2.442785E-3,-6.256631E-4,1.1117186E-3,3.929385E-3,5.5899966E-4,-2.178034E-3,2.679502E-4,-1.8577001E-4,-6.97656E-4,1.9301067E-4,-3.1092155E-4,-0E0,-3.309821E-3],"categories":[],"categories_nodes":[],"categories_segments":[],"categories_sizes":[],"default_left":[0,0,0,0,0,0,0,0,0,0,0,0,0,0,0,0,0,0,0,0,0,0,0,0,0,0,0,0,0,0,0,0,0,0,0,0,0,0,0,0,0,0,0,0,0,0,0],"id":26,"left_children":[1,3,5,7,-1,9,11,13,15,-1,-1,17,19,-1,-1,-1,21,23,25,27,29,31,-1,33,35,37,39,41,43,45,-1,-1,-1,-1,-1,-1,-1,-1,-1,-1,-1,-1,-1,-1,-1,-1,-1],"loss_changes":[4.384626E0,5.468357E0,2.3053002E0,1.783908E-1,0E0,1.15362644E-1,5.3243804E-1,2.5053859E-2,1.2024778E-1,0E0,0E0,3.2190147E-1,3.2554406E-1,0E0,0E0,0E0,1.0566831E-1,1.487428E-1,3.5401934E-1,1.3802354E-1,2.4726242E-2,3.265527E-2,0E0,2.2797817E-1,1.2447888E-1,8.303577E-2,5.013826E-1,1.2972307E-1,8.730617E-2,2.1992832E-2,0E0,0E0,0E0,0E0,0E0,0E0,0E0,0E0,0E0,0E0,0E0,0E0,0E0,0E0,0E0,0E0,0E0],"parents":[2147483647,0,0,1,1,2,2,3,3,5,5,6,6,7,7,8,8,11,11,12,12,16,16,17,17,18,18,19,19,20,20,21,21,23,23,24,24,25,25,26,26,27,27,28,28,29,29],"right_children":[2,4,6,8,-1,10,12,14,16,-1,-1,18,20,-1,-1,-1,22,24,26,28,30,32,-1,34,36,38,40,42,44,46,-1,-1,-1,-1,-1,-1,-1,-1,-1,-1,-1,-1,-1,-1,-1,-1,-1],"split_conditions":[5.272E3,3.121766E8,3.1850692E7,3.423E3,2.0408299E-2,1.5E2,5.22E4,1.586425E6,7.79327E5,-7.4676317E-3,-0E0,7.17295E5,3.785E5,6.5634632E-3,-0E0,-0E0,4.785E3,1.5508269E10,1.8491363E8,5.693575E10,1.35E4,-8E2,-0E0,1.2099E4,3.5E4,1.586425E6,5.871281E9,2.44E5,2.795E5,3.74E5,-0E0,-0E0,3.2341648E-3,-4.4893217E-4,2.442785E-3,-6.256631E-4,1.1117186E-3,3.929385E-3,5.5899966E-4,-2.178034E-3,2.679502E-4,-1.8577001E-4,-6.97656E-4,1.9301067E-4,-3.1092155E-4,-0E0,-3.309821E-3],"split_indices":[6,2,2,5,0,0,5,1,1,0,0,1,6,0,0,0,6,2,2,2,0,0,0,6,6,1,2,6,6,5,0,0,0,0,0,0,0,0,0,0,0,0,0,0,0,0,0],"split_type":[0,0,0,0,0,0,0,0,0,0,0,0,0,0,0,0,0,0,0,0,0,0,0,0,0,0,0,0,0,0,0,0,0,0,0,0,0,0,0,0,0,0,0,0,0,0,0],"sum_hessian":[2.477E3,6.4E1,2.413E3,5.4E1,1E1,2.2E1,2.391E3,1E1,4.4E1,2.1E1,1E0,4.79E2,1.912E3,8E0,2E0,5E0,3.9E1,1.57E2,3.22E2,1.89E3,2.2E1,2.5E1,1.4E1,8.3E1,7.4E1,3.1E1,2.91E2,1.184E3,7.06E2,2.1E1,1E0,2E0,2.3E1,8E0,7.5E1,2.2E1,5.2E1,1.3E1,1.8E1,4.6E1,2.45E2,7.96E2,3.88E2,4.63E2,2.43E2,2E0,1.9E1],"tree_param":{"num_deleted":"0","num_feature":"116","num_nodes":"47","size_leaf_vector":"1"}},{"base_weights":[4.5769816E-4,2.3419648E-1,-5.897686E-3,1.1041992E-1,1.9737333E-2,-5.579895E-3,-3.3051653E-3,1.4253572E-1,-0E0,2.9439036E-2,-1.20708365E-2,-0E0,1.6513088E-1,-0E0,9.907703E-4,6.410474E-2,6.1479784E-3,-1.0295018E-2,-1.3221999E-1,3.7160309E-3,-0E0,8.854376E-2,3.3562865E-2,-4.9850047E-3,1.01678245E-1,-3.8621854E-4,-2.1473784E-2,-2.953419E-3,-0E0,-0E0,2.2092822E-3,-3.7693395E-4,1.3486409E-3,3.308942E-3,-2.9357462E-4,5.302833E-3,-0E0,-1.7065677E-4,9.523413E-4,-6.344012E-4,-0E0],"categories":[],"categories_nodes":[],"categories_segments":[],"categories_sizes":[],"default_left":[0,0,0,0,0,0,0,0,0,0,0,0,0,0,0,0,0,0,0,0,0,0,0,0,0,0,0,0,0,0,0,0,0,0,0,0,0,0,0,0,0],"id":27,"left_children":[1,3,5,7,-1,-1,9,11,13,15,17,-1,19,-1,-1,21,23,25,27,-1,-1,29,31,33,35,37,39,-1,-1,-1,-1,-1,-1,-1,-1,-1,-1,-1,-1,-1,-1],"loss_changes":[3.8694808E0,5.2857256E0,1.4761949E0,1.7456222E-1,0E0,0E0,6.9010943E-1,8.773297E-2,1.0521392E-2,3.6973563E-1,3.402538E-1,0E0,2.47913E-2,0E0,0E0,8.22165E-2,3.7760353E-1,2.003853E-1,1.0491252E-2,0E0,0E0,1.3149726E-1,1.627423E-1,2.996432E-1,5.2167046E-1,3.2797018E-1,1.3665342E-1,0E0,0E0,0E0,0E0,0E0,0E0,0E0,0E0,0E0,0E0,0E0,0E0,0E0,0E0],"parents":[2147483647,0,0,1,1,2,2,3,3,6,6,7,7,8,8,9,9,10,10,12,12,15,15,16,16,17,17,18,18,21,21,22,22,23,23,24,24,25,25,26,26],"right_children":[2,4,6,8,-1,-1,10,12,14,16,18,-1,20,-1,-1,22,24,26,28,-1,-1,30,32,34,36,38,40,-1,-1,-1,-1,-1,-1,-1,-1,-1,-1,-1,-1,-1,-1],"split_conditions":[5.272E3,3.121766E8,3.1850692E7,4.998E3,1.9737333E-2,-5.579895E-3,5.39E4,7.47551E5,3.712043E6,7.9857E5,3.88E5,-0E0,3.25721E6,-0E0,9.907703E-4,1.5508269E10,4.7153267E10,2.335E5,4.63735E5,3.7160309E-3,-0E0,1.1104E4,3.32E4,1.2898099E8,9.448E3,1.78E5,2.87355E5,-2.953419E-3,-0E0,-0E0,2.2092822E-3,-3.7693395E-4,1.3486409E-3,3.308942E-3,-2.9357462E-4,5.302833E-3,-0E0,-1.7065677E-4,9.523413E-4,-6.344012E-4,-0E0],"split_indices":[6,2,2,4,0,0,4,1,1,1,4,0,1,0,0,2,2,5,1,0,0,6,4,2,4,6,1,0,0,0,0,0,0,0,0,0,0,0,0,0,0],"split_type":[0,0,0,0,0,0,0,0,0,0,0,0,0,0,0,0,0,0,0,0,0,0,0,0,0,0,0,0,0,0,0,0,0,0,0,0,0,0,0,0,0],"sum_hessian":[2.527E3,6.9E1,2.458E3,5.9E1,1E1,2.3E1,2.435E3,4.4E1,1.5E1,5.02E2,1.933E3,8E0,3.6E1,1E1,5E0,1.93E2,3.09E2,1.909E3,2.4E1,3.4E1,2E0,9.8E1,9.5E1,2.72E2,3.7E1,1.036E3,8.73E2,2.3E1,1E0,1.2E1,8.6E1,2.8E1,6.7E1,1.1E1,2.61E2,1.5E1,2.2E1,8.96E2,1.4E2,6.25E2,2.48E2],"tree_param":{"num_deleted":"0","num_feature":"116","num_nodes":"41","size_leaf_vector":"1"}},{"base_weights":[2.2267732E-3,2.4558948E-1,-4.729805E-3,1.1786128E-1,1.9357525E-2,-2.1655853E-1,-2.5671034E-3,1.5740034E-1,-0E0,-8.0313515E-3,-1.1032586E-1,8.257947E-3,-2.1569539E-2,-0E0,3.944975E-3,-0E0,7.181497E-4,-1.2101869E-1,-0E0,9.867487E-2,6.0127764E-3,-1.8889403E-2,-2.5255242E-3,-0E0,-2.8273123E-3,-0E0,2.5569748E-3,-9.430669E-2,9.526306E-3,-2.7002364E-2,-0E0,-2.626557E-3,2.572329E-3,7.2035234E-4,-0E0,-5.985995E-4,-0E0,-2.7969584E-4,9.546234E-5],"categories":[],"categories_nodes":[],"categories_segments":[],"categories_sizes":[],"default_left":[0,0,0,0,0,0,0,0,0,0,0,0,0,0,0,0,0,0,0,0,0,0,0,0,0,0,0,0,0,0,0,0,0,0,0,0,0,0,0],"id":28,"left_children":[1,3,5,7,-1,9,11,13,15,-1,17,19,21,-1,-1,-1,-1,23,-1,25,27,29,-1,-1,-1,-1,-1,31,33,35,37,-1,-1,-1,-1,-1,-1,-1,-1],"loss_changes":[4.3239393E0,5.3869967E0,9.935564E-1,2.0706826E-1,0E0,1.1873019E-1,4.981646E-1,1.2709785E-1,8.844549E-3,0E0,2.2460505E-2,2.5249785E-1,1.5714678E-1,0E0,0E0,0E0,0E0,1.7726377E-2,0E0,9.059331E-2,4.7661144E-1,1.4268976E-1,0E0,0E0,0E0,0E0,0E0,2.6345572E-1,3.0858523E-1,2.0292193E-2,1.0880295E-2,0E0,0E0,0E0,0E0,0E0,0E0,0E0,0E0],"parents":[2147483647,0,0,1,1,2,2,3,3,5,5,6,6,7,7,8,8,10,10,11,11,12,12,17,17,19,19,20,20,21,21,27,27,28,28,29,29,30,30],"right_children":[2,4,6,8,-1,10,12,14,16,-1,18,20,22,-1,-1,-1,-1,24,-1,26,28,30,-1,-1,-1,-1,-1,32,34,36,38,-1,-1,-1,-1,-1,-1,-1,-1],"split_conditions":[5.272E3,3.121766E8,3.1850692E7,4.998E3,1.9357525E-2,8.991E3,2.335E5,7.47551E5,2.365827E6,-8.0313515E-3,9.695E3,1.8491363E8,3.88E5,-0E0,3.944975E-3,-0E0,7.181497E-4,8.908E3,-0E0,5.303E3,4.93335E9,2.87355E5,-2.5255242E-3,-0E0,-2.8273123E-3,-0E0,2.5569748E-3,7.102E3,5.39E4,3.31E5,2.56E5,-2.626557E-3,2.572329E-3,7.2035234E-4,-0E0,-5.985995E-4,-0E0,-2.7969584E-4,9.546234E-5],"split_indices":[6,2,2,4,0,6,5,1,1,0,4,2,4,0,0,0,0,3,0,5,2,1,0,0,0,0,0,5,4,3,3,0,0,0,0,0,0,0,0],"split_type":[0,0,0,0,0,0,0,0,0,0,0,0,0,0,0,0,0,0,0,0,0,0,0,0,0,0,0,0,0,0,0,0,0,0,0,0,0,0,0],"sum_hessian":[2.482E3,7.1E1,2.411E3,6E1,1.1E1,2.2E1,2.389E3,4.2E1,1.8E1,7E0,1.5E1,1.505E3,8.84E2,7E0,3.5E1,1E1,8E0,1.4E1,1E0,3.1E1,1.474E3,8.65E2,1.9E1,1E0,1.3E1,3E0,2.8E1,4.5E1,1.429E3,6.19E2,2.46E2,4.2E1,3E0,3.94E2,1.035E3,6.14E2,5E0,4.1E1,2.05E2],"tree_param":{"num_deleted":"0","num_feature":"116","num_nodes":"39","size_leaf_vector":"1"}},{"base_weights":[9.987089E-4,2.2332343E-1,-5.563261E-3,1.0363185E-1,1.8634865E-2,-5.134438E-3,-3.036962E-3,1.1765585E-1,-0E0,2.5321579E-2,-1.0441742E-2,4.9688136E-3,8.896921E-2,1.3615611E-1,1.9703696E-2,-8.801809E-3,-2.6743943E-3,-0E0,2.0399336E-3,-0E0,3.3199503E-3,-3.6264017E-2,3.0230822E-2,-4.5795846E-4,-1.784857E-2,-2.7443736E-3,-0E0,4.628212E-3,4.0315298E-4,-2.5713557E-4,4.9918174E-4,-5.223677E-4,-2.1782002E-5],"categories":[],"categories_nodes":[],"categories_segments":[],"categories_sizes":[],"default_left":[0,0,0,0,0,0,0,0,0,0,0,0,0,0,0,0,0,0,0,0,0,0,0,0,0,0,0,0,0,0,0,0,0],"id":29,"left_children":[1,3,5,7,-1,-1,9,11,-1,13,15,-1,17,19,21,23,-1,-1,-1,-1,-1,25,27,29,31,-1,-1,-1,-1,-1,-1,-1,-1],"loss_changes":[3.7633414E0,5.174383E0,1.3032684E0,1.124531E-1,0E0,0E0,4.97697E-1,2.2215307E-2,0E0,2.2242942E-1,2.9020452E-1,0E0,1.3558388E-2,7.306266E-2,2.7091283E-1,1.3407427E-1,0E0,0E0,0E0,0E0,0E0,2.5225177E-1,7.313255E-1,2.687222E-1,8.136079E-2,0E0,0E0,0E0,0E0,0E0,0E0,0E0,0E0],"parents":[2147483647,0,0,1,1,2,2,3,3,6,6,7,7,9,9,10,10,12,12,13,13,14,14,15,15,21,21,22,22,23,23,24,24],"right_children":[2,4,6,8,-1,-1,10,12,-1,14,16,-1,18,20,22,24,-1,-1,-1,-1,-1,26,28,30,32,-1,-1,-1,-1,-1,-1,-1,-1],"split_conditions":[5.073E3,3.121766E8,3.1850692E7,4.84E3,1.8634865E-2,-5.134438E-3,5.3E4,3.423E3,-0E0,1.2898099E8,3.74E5,4.9688136E-3,3.1850692E7,5.303E3,5.871281E9,2.335E5,-2.6743943E-3,-0E0,2.0399336E-3,-0E0,3.3199503E-3,6.1E3,6.422E3,1.005E5,7.788955E10,-2.7443736E-3,-0E0,4.628212E-3,4.0315298E-4,-2.5713557E-4,4.9918174E-4,-5.223677E-4,-2.1782002E-5],"split_indices":[5,2,2,5,0,0,5,5,0,2,5,0,2,5,2,5,0,0,0,0,0,5,5,5,2,0,0,0,0,0,0,0,0],"split_type":[0,0,0,0,0,0,0,0,0,0,0,0,0,0,0,0,0,0,0,0,0,0,0,0,0,0,0,0,0,0,0,0,0],"sum_hessian":[2.504E3,7.4E1,2.43E3,6.3E1,1.1E1,2.4E1,2.406E3,5.7E1,6E0,4.84E2,1.922E3,8E0,4.9E1,1.9E1,4.65E2,1.899E3,2.3E1,4E0,4.5E1,1E0,1.8E1,6.6E1,3.99E2,1.017E3,8.82E2,2.1E1,4.5E1,2.1E1,3.78E2,6.99E2,3.18E2,6.19E2,2.63E2],"tree_param":{"num_deleted":"0","num_feature":"116","num_nodes":"33","size_leaf_vector":"1"}},{"base_weights":[4.2542486E-4,2.2543184E-1,-5.885882E-3,-0E0,2.5779754E-1,-1.642377E-1,-4.2431485E-3,3.3180892E-1,1.13497816E-1,-5.3258575E-3,-0E0,-0E0,-4.3369804E-2,2.7937415E-1,5.7658285E-1,3.0781606E-1,-0E0,1.9605065E-2,-5.6016673E-3,-3.1436082E-2,-1.2908293E-1,3.6793855E-1,3.0093759E-3,-0E0,1.4619476E-2,-0E0,9.745002E-3,-7.3927396E-4,-0E0,5.5488866E-2,9.6308877E-4,-1.5268133E-2,5.6977116E-4,-4.5656513E-2,6.3137566E-3,-0E0,-2.9079427E-3,3.890861E-3,1.6304826E-2,-3.2141588E-3,1.4683285E-3,-8.521587E-5,1.7899178E-3,-1.6674274E-4,-9.5627503E-4,5.79227E-4,-2.4429112E-4,-1.038212E-3,-0E0,-0E0,3.3260154E-4],"categories":[],"categories_nodes":[],"categories_segments":[],"categories_sizes":[],"default_left":[0,0,0,0,0,0,0,0,0,0,0,0,0,0,0,0,0,0,0,0,0,0,0,0,0,0,0,0,0,0,0,0,0,0,0,0,0,0,0,0,0,0,0,0,0,0,0,0,0,0,0],"id":30,"left_children":[1,3,5,-1,7,9,11,13,15,-1,-1,17,19,21,23,25,27,29,31,33,35,37,-1,-1,-1,-1,-1,-1,-1,39,41,43,45,47,49,-1,-1,-1,-1,-1,-1,-1,-1,-1,-1,-1,-1,-1,-1,-1,-1],"loss_changes":[3.6926434E0,4.4584846E-1,5.522507E-1,0E0,4.2594147E-1,1.9702548E-1,4.2085972E-1,5.420828E-2,6.512307E-1,0E0,0E0,2.4531123E-1,1.713551E-1,1.5237808E-1,1.704055E-1,4.7749847E-1,1.1715639E-2,3.0655122E-1,1.07725754E-1,1.3909914E-1,1.8486947E-2,8.3449674E-1,0E0,0E0,0E0,0E0,0E0,0E0,0E0,3.7258035E-1,1.7626952E-1,1.2408216E-1,3.178198E-1,2.7107596E-2,9.112472E-3,0E0,0E0,0E0,0E0,0E0,0E0,0E0,0E0,0E0,0E0,0E0,0E0,0E0,0E0,0E0,0E0],"parents":[2147483647,0,0,1,1,2,2,4,4,5,5,6,6,7,7,8,8,11,11,12,12,13,13,14,14,15,15,16,16,17,17,18,18,19,19,20,20,21,21,29,29,30,30,31,31,32,32,33,33,34,34],"right_children":[2,4,6,-1,8,10,12,14,16,-1,-1,18,20,22,24,26,28,30,32,34,36,38,-1,-1,-1,-1,-1,-1,-1,40,42,44,46,48,50,-1,-1,-1,-1,-1,-1,-1,-1,-1,-1,-1,-1,-1,-1,-1,-1],"split_conditions":[5.469E3,7.9857E5,7.0923E4,-0E0,1.876573E6,1.1187E4,2.94E5,5E3,4.785E3,-5.3258575E-3,-0E0,5.39E4,3.785E5,4.381E3,8.1919E5,4.607E3,3.712043E6,6.66049E5,1.025E5,3.225E5,3.88E5,4.039E3,3.0093759E-3,-0E0,1.4619476E-2,-0E0,9.745002E-3,-7.3927396E-4,-0E0,1.20124E5,6.530068E6,8.99E4,2.345E5,5.536E5,2.07467E5,-0E0,-2.9079427E-3,3.890861E-3,1.6304826E-2,-3.2141588E-3,1.4683285E-3,-8.521587E-5,1.7899178E-3,-1.6674274E-4,-9.5627503E-4,5.79227E-4,-2.4429112E-4,-1.038212E-3,-0E0,-0E0,3.3260154E-4],"split_indices":[4,1,1,0,1,3,6,3,6,0,0,4,6,3,1,4,1,1,4,4,4,3,0,0,0,0,0,0,0,1,1,6,4,1,1,0,0,0,0,0,0,0,0,0,0,0,0,0,0,0,0],"split_type":[0,0,0,0,0,0,0,0,0,0,0,0,0,0,0,0,0,0,0,0,0,0,0,0,0,0,0,0,0,0,0,0,0,0,0,0,0,0,0,0,0,0,0,0,0,0,0,0,0,0,0],"sum_hessian":[2.522E3,7.1E1,2.451E3,1E1,6.1E1,2.2E1,2.429E3,3.8E1,2.3E1,1.3E1,9E0,2.182E3,2.47E2,3.3E1,5E0,1E1,1.3E1,5.01E2,1.681E3,2.22E2,2.5E1,1.8E1,1.5E1,1E0,4E0,3E0,7E0,1E1,3E0,1.62E2,3.39E2,6.87E2,9.94E2,1.71E2,5.1E1,1E0,2.4E1,1.3E1,5E0,7E0,1.55E2,3.14E2,2.5E1,5.59E2,1.28E2,3.23E2,6.71E2,1.66E2,5E0,4E0,4.7E1],"tree_param":{"num_deleted":"0","num_feature":"116","num_nodes":"51","size_leaf_vector":"1"}},{"base_weights":[-7.4690586E-4,2.1777254E-1,-6.19813E-3,1.2887172E-1,1.7404571E-2,-2.5897852E-1,-3.392551E-3,1.4818297E-1,-0E0,-5.865343E-3,-0E0,2.4769675E-2,-1.0920681E-2,5.26496E-3,1.0097491E-1,-5.27524E-3,4.554071E-2,-9.160346E-3,-1.2991154E-1,-0E0,1.2262634E-1,-3.2051582E-2,1.5547448E-1,9.479667E-2,1.5158086E-2,-4.6313237E-3,-2.3267435E-2,-0E0,-2.9318323E-3,2.7783166E-3,-0E0,6.644613E-4,-2.0047105E-3,4.529571E-3,-0E0,2.2878237E-3,-0E0,-1.4284862E-3,5.236402E-4,-3.2011478E-4,8.148378E-5,-6.104992E-4,1.0006778E-4],"categories":[],"categories_nodes":[],"categories_segments":[],"categories_sizes":[],"default_left":[0,0,0,0,0,0,0,0,0,0,0,0,0,0,0,0,0,0,0,0,0,0,0,0,0,0,0,0,0,0,0,0,0,0,0,0,0,0,0,0,0,0,0],"id":31,"left_children":[1,3,5,7,-1,9,11,13,-1,-1,-1,15,17,-1,19,21,23,25,27,-1,29,31,33,35,37,39,41,-1,-1,-1,-1,-1,-1,-1,-1,-1,-1,-1,-1,-1,-1,-1,-1],"loss_changes":[2.8910944E0,2.6110334E0,1.6103239E0,1.0254884E-1,0E0,9.316361E-2,5.0880384E-1,2.3943543E-2,0E0,0E0,0E0,3.3180055E-1,3.3466953E-1,0E0,9.9613816E-2,7.725248E-1,4.0075332E-1,1.0790302E-1,1.875034E-2,0E0,1.0687143E-2,6.7650694E-1,2.7531773E-1,1.4472932E-1,1.2282454E-1,1.3173631E-1,7.291189E-2,0E0,0E0,0E0,0E0,0E0,0E0,0E0,0E0,0E0,0E0,0E0,0E0,0E0,0E0,0E0,0E0],"parents":[2147483647,0,0,1,1,2,2,3,3,5,5,6,6,7,7,11,11,12,12,14,14,15,15,16,16,17,17,18,18,20,20,21,21,22,22,23,23,24,24,25,25,26,26],"right_children":[2,4,6,8,-1,10,12,14,-1,-1,-1,16,18,-1,20,22,24,26,28,-1,30,32,34,36,38,40,42,-1,-1,-1,-1,-1,-1,-1,-1,-1,-1,-1,-1,-1,-1,-1,-1],"split_conditions":[5.34E3,2.2282163E8,3.1850692E7,4.998E3,1.7404571E-2,9.695E3,5.39E4,3.485E3,-0E0,-5.865343E-3,-0E0,1.2099E4,3.785E5,5.26496E-3,3.1850692E7,2.7550173E10,1.6131271E10,2.725E5,3.88E5,-0E0,1.2898099E8,6.778E3,9.448E3,4.01E4,1.59E4,1.025E5,3.225E5,-0E0,-2.9318323E-3,2.7783166E-3,-0E0,6.644613E-4,-2.0047105E-3,4.529571E-3,-0E0,2.2878237E-3,-0E0,-1.4284862E-3,5.236402E-4,-3.2011478E-4,8.148378E-5,-6.104992E-4,1.0006778E-4],"split_indices":[4,2,2,4,0,4,4,3,0,0,0,6,6,0,2,2,2,6,4,0,2,3,4,3,4,4,4,0,0,0,0,0,0,0,0,0,0,0,0,0,0,0,0],"split_type":[0,0,0,0,0,0,0,0,0,0,0,0,0,0,0,0,0,0,0,0,0,0,0,0,0,0,0,0,0,0,0,0,0,0,0,0,0,0,0,0,0,0,0],"sum_hessian":[2.517E3,5.9E1,2.458E3,5.2E1,7E0,2.5E1,2.433E3,4.4E1,8E0,2.4E1,1E0,4.99E2,1.934E3,1.1E1,3.3E1,1.94E2,3.05E2,1.91E3,2.4E1,4E0,2.9E1,1.69E2,2.5E1,1.1E2,1.95E2,1.473E3,4.37E2,1E0,2.3E1,2.7E1,2E0,7.9E1,9E1,2E1,5E0,1.01E2,9E0,1.4E1,1.81E2,6.93E2,7.8E2,3.86E2,5.1E1],"tree_param":{"num_deleted":"0","num_feature":"116","num_nodes":"43","size_leaf_vector":"1"}},{"base_weights":[-2.0846764E-3,1.975264E-1,-8.014753E-3,9.868712E-2,1.7282654E-2,-2.1447136E-1,-5.723889E-3,1.374245E-1,1.9478759E-2,-5.0427443E-3,-0E0,3.5977354E-3,-2.1713182E-2,-0E0,1.7162542E-1,-0E0,9.3618245E-4,-2.0785205E-4,4.682691E-2,-1.8869385E-2,-1.0788125E-1,-0E0,2.0164925E-1,1.16875485E-1,-1.8964402E-3,5.4310046E-2,-0E0,-2.681118E-2,-8.337428E-4,-2.4694891E-3,-0E0,4.788559E-3,-0E0,3.061213E-3,-0E0,-6.2733673E-4,3.8876427E-5,3.49531E-4,1.4671432E-3,-6.071427E-4,-0E0,9.207131E-5,-1.7209796E-4],"categories":[],"categories_nodes":[],"categories_segments":[],"categories_sizes":[],"default_left":[0,0,0,0,0,0,0,0,0,0,0,0,0,0,0,0,0,0,0,0,0,0,0,0,0,0,0,0,0,0,0,0,0,0,0,0,0,0,0,0,0,0,0],"id":32,"left_children":[1,3,5,7,-1,9,11,13,15,-1,-1,17,19,-1,21,-1,-1,23,25,27,29,-1,31,33,35,37,-1,39,41,-1,-1,-1,-1,-1,-1,-1,-1,-1,-1,-1,-1,-1,-1],"loss_changes":[2.8360686E0,3.654801E0,1.027379E0,1.0463536E-1,0E0,9.52996E-2,3.6450073E-1,1.1541551E-1,3.222694E-2,0E0,0E0,2.680758E-1,1.5585667E-1,0E0,5.8618665E-2,0E0,0E0,2.0965956E-1,4.0152043E-2,1.1133015E-1,1.9918561E-2,0E0,8.002418E-2,5.6248322E-2,1.4827213E-1,1.5034229E-2,0E0,2.22027E-2,1.2312045E-2,0E0,0E0,0E0,0E0,0E0,0E0,0E0,0E0,0E0,0E0,0E0,0E0,0E0,0E0],"parents":[2147483647,0,0,1,1,2,2,3,3,5,5,6,6,7,7,8,8,11,11,12,12,14,14,17,17,18,18,19,19,20,20,22,22,23,23,24,24,25,25,27,27,28,28],"right_children":[2,4,6,8,-1,10,12,14,16,-1,-1,18,20,-1,22,-1,-1,24,26,28,30,-1,32,34,36,38,-1,40,42,-1,-1,-1,-1,-1,-1,-1,-1,-1,-1,-1,-1,-1,-1],"split_conditions":[5.272E3,3.121766E8,3.1850692E7,5E1,1.7282654E-2,1.5E2,2.335E5,-2.12E2,7.79327E5,-5.0427443E-3,-0E0,1.78E5,3.785E5,-0E0,7.47551E5,-0E0,9.3618245E-4,1.2898099E8,2.33759E5,2.64977E5,1.35E4,-0E0,5.066E3,1.586425E6,1.2099E4,2.065E5,-0E0,2.7645E5,2.795E5,-2.4694891E-3,-0E0,4.788559E-3,-0E0,3.061213E-3,-0E0,-6.2733673E-4,3.8876427E-5,3.49531E-4,1.4671432E-3,-6.071427E-4,-0E0,9.207131E-5,-1.7209796E-4],"split_indices":[6,2,2,0,0,0,6,0,1,0,0,6,6,0,1,0,0,2,14,1,0,0,6,1,6,6,0,7,6,0,0,0,0,0,0,0,0,0,0,0,0,0,0],"split_type":[0,0,0,0,0,0,0,0,0,0,0,0,0,0,0,0,0,0,0,0,0,0,0,0,0,0,0,0,0,0,0,0,0,0,0,0,0,0,0,0,0,0,0],"sum_hessian":[2.477E3,6.9E1,2.408E3,6E1,9E0,2.4E1,2.384E3,3.6E1,2.4E1,2.2E1,2E0,1.486E3,8.98E2,9E0,2.7E1,2E0,2.2E1,1.355E3,1.31E2,8.75E2,2.3E1,6E0,2.1E1,1.5E1,1.34E3,1.11E2,2E1,5.88E2,2.87E2,2.2E1,1E0,1.9E1,2E0,1.3E1,2E0,1.77E2,1.163E3,3.9E1,7.2E1,5.63E2,2.5E1,1.26E2,1.61E2],"tree_param":{"num_deleted":"0","num_feature":"116","num_nodes":"43","size_leaf_vector":"1"}},{"base_weights":[6.688535E-4,2.1938473E-1,-4.927101E-3,-0E0,2.4667694E-1,-3.0810352E-2,1.3674038E-3,3.4196523E-1,9.4552994E-2,-2.2935763E-1,-2.0062365E-2,2.3958359E-2,-5.9245056E-3,1.4761819E-1,4.7578406E-1,2.2488421E-1,-0E0,-5.414433E-3,-0E0,7.524981E-3,-2.845289E-2,6.2152345E-2,6.6386363E-3,-4.6210485E-3,-9.1989405E-2,3.672236E-3,-0E0,-0E0,5.4003733E-1,-0E0,2.7593666E-1,-0E0,4.223696E-2,-1.44815855E-2,-8.412483E-4,1.1843863E-1,4.0348824E-2,-3.3936765E-2,2.8212678E-2,3.1715161E-3,-1.013924E-2,-0E0,-2.1288912E-3,-0E0,1.2410071E-2,-0E0,7.372745E-3,2.924606E-4,-1.0749674E-3,1.2576644E-3,-0E0,-0E0,-4.551091E-4,-0E0,2.9305823E-3,-0E0,1.3187965E-3,-0E0,-1.7635203E-3,4.0013366E-3,3.129396E-4,2.2987493E-4,-1.3861002E-4,1.4363666E-4,-2.5480395E-4],"categories":[],"categories_nodes":[],"categories_segments":[],"categories_sizes":[],"default_left":[0,0,0,0,0,0,0,0,0,0,0,0,0,0,0,0,0,0,0,0,0,0,0,0,0,0,0,0,0,0,0,0,0,0,0,0,0,0,0,0,0,0,0,0,0,0,0,0,0,0,0,0,0,0,0,0,0,0,0,0,0,0,0,0,0],"id":33,"left_children":[1,3,5,-1,7,9,11,13,15,17,19,21,23,25,27,29,-1,-1,-1,31,33,35,37,39,41,-1,-1,-1,43,-1,45,47,49,51,-1,53,55,57,59,61,63,-1,-1,-1,-1,-1,-1,-1,-1,-1,-1,-1,-1,-1,-1,-1,-1,-1,-1,-1,-1,-1,-1,-1,-1],"loss_changes":[3.1867821E0,3.3999467E-1,4.1407096E-1,0E0,6.0517454E-1,9.3000245E-1,3.311828E-1,5.4251504E-1,3.923104E-1,1.0979748E-1,1.1985394E-1,2.9194623E-1,1.1496911E-1,4.893419E-2,2.9993868E-1,7.8395665E-2,0E0,0E0,0E0,3.7379105E-2,2.8080106E-2,9.75312E-2,3.0260712E-1,6.566507E-2,1.0338053E-2,0E0,0E0,0E0,2.4739552E-1,0E0,1.3039339E-1,5.9076514E-2,1.4826041E-2,1.0227788E-2,0E0,3.85468E-2,1.1755167E-1,1.765282E-1,4.0748125E-1,4.23333E-2,2.7215645E-2,0E0,0E0,0E0,0E0,0E0,0E0,0E0,0E0,0E0,0E0,0E0,0E0,0E0,0E0,0E0,0E0,0E0,0E0,0E0,0E0,0E0,0E0,0E0,0E0],"parents":[2147483647,0,0,1,1,2,2,4,4,5,5,6,6,7,7,8,8,9,9,10,10,11,11,12,12,13,13,14,14,15,15,19,19,20,20,21,21,22,22,23,23,24,24,28,28,30,30,31,31,32,32,33,33,35,35,36,36,37,37,38,38,39,39,40,40],"right_children":[2,4,6,-1,8,10,12,14,16,18,20,22,24,26,28,30,-1,-1,-1,32,34,36,38,40,42,-1,-1,-1,44,-1,46,48,50,52,-1,54,56,58,60,62,64,-1,-1,-1,-1,-1,-1,-1,-1,-1,-1,-1,-1,-1,-1,-1,-1,-1,-1,-1,-1,-1,-1,-1,-1],"split_conditions":[5.272E3,7.9857E5,1.85367E5,-0E0,1.876573E6,9.695E3,5.39E4,4.039E3,4.785E3,1.5E2,2.35E5,6.55827E5,3.785E5,1.670938E6,-6.5E2,4.607E3,-0E0,-5.414433E-3,-0E0,2.03E5,2.645E5,2.43E4,-1.6E2,-7E2,3.88E5,3.672236E-3,-0E0,-0E0,8.53694E5,-0E0,-3.4E2,8.18E4,8.1943E4,1.24784E5,-8.412483E-4,1.2099E4,3.075E4,-3.4E2,-1E2,2.425E5,1.9893E5,-0E0,-2.1288912E-3,-0E0,1.2410071E-2,-0E0,7.372745E-3,2.924606E-4,-1.0749674E-3,1.2576644E-3,-0E0,-0E0,-4.551091E-4,-0E0,2.9305823E-3,-0E0,1.3187965E-3,-0E0,-1.7635203E-3,4.0013366E-3,3.129396E-4,2.2987493E-4,-1.3861002E-4,1.4363666E-4,-2.5480395E-4],"split_indices":[6,1,1,0,1,4,4,3,6,0,5,1,6,1,0,4,0,0,0,3,3,5,0,0,4,0,0,0,1,0,0,5,7,1,0,6,6,0,0,3,1,0,0,0,0,0,0,0,0,0,0,0,0,0,0,0,0,0,0,0,0,0,0,0,0],"split_type":[0,0,0,0,0,0,0,0,0,0,0,0,0,0,0,0,0,0,0,0,0,0,0,0,0,0,0,0,0,0,0,0,0,0,0,0,0,0,0,0,0,0,0,0,0,0,0,0,0,0,0,0,0,0,0,0,0,0,0,0,0,0,0,0,0],"sum_hessian":[2.515E3,6.5E1,2.45E3,8E0,5.7E1,4.95E2,1.955E3,3.3E1,2.4E1,2.3E1,4.72E2,4.94E2,1.461E3,1.5E1,1.8E1,1.2E1,1.2E1,2.1E1,2E0,9.6E1,3.76E2,1.45E2,3.49E2,1.445E3,1.6E1,1.3E1,2E0,3E0,1.5E1,3E0,9E0,7.2E1,2.4E1,1.82E2,1.94E2,3.4E1,1.11E2,1.13E2,2.36E2,5.61E2,8.84E2,1E0,1.5E1,1E0,1.4E1,2E0,7E0,5.2E1,2E1,1.7E1,7E0,7.3E1,1.09E2,6E0,2.8E1,3.1E1,8E1,6.7E1,4.6E1,1.6E1,2.2E2,3.45E2,2.16E2,5.2E1,8.32E2],"tree_param":{"num_deleted":"0","num_feature":"116","num_nodes":"65","size_leaf_vector":"1"}},{"base_weights":[4.6393945E-4,1.8494572E-1,-5.5903303E-3,1.01087935E-1,6.801659E-1,-2.7138245E-1,-3.2712505E-3,1.5078856E-1,6.6743027E-3,1.644544E-2,-0E0,-2.8911424E-1,-0E0,1.9970901E-2,-9.085277E-3,-0E0,1.7558213E-1,-0E0,2.5883704E-2,-6.6393125E-3,-0E0,1.2418043E-2,1.6941595E-1,-5.4771136E-3,-3.2784007E-2,4.1203205E-3,-0E0,1.4275482E-3,-0E0,3.655635E-2,-2.5181932E-2,2.784563E-1,-0E0,-1.1735268E-2,5.612306E-3,-3.5540048E-2,-0E0,6.4229156E-4,4.3925843E-3,-2.9282987E-3,-8.06517E-5,6.318404E-3,-0E0,-1.538681E-4,-4.8285263E-4,-3.269134E-4,1.9454032E-4,-9.30369E-4,-1.5871611E-4],"categories":[],"categories_nodes":[],"categories_segments":[],"categories_sizes":[],"default_left":[0,0,0,0,0,0,0,0,0,0,0,0,0,0,0,0,0,0,0,0,0,0,0,0,0,0,0,0,0,0,0,0,0,0,0,0,0,0,0,0,0,0,0,0,0,0,0,0,0],"id":34,"left_children":[1,3,5,7,9,11,13,15,17,-1,-1,19,-1,21,23,-1,25,-1,27,-1,-1,29,31,33,35,-1,-1,-1,-1,37,39,41,-1,43,45,47,-1,-1,-1,-1,-1,-1,-1,-1,-1,-1,-1,-1,-1],"loss_changes":[2.8797405E0,3.0096312E0,1.3494903E0,2.534142E-1,7.086692E-1,1.0524702E-1,3.182596E-1,1.321482E-1,1.617185E-2,0E0,0E0,1.0181415E-1,0E0,4.2938632E-1,1.4599675E-1,0E0,5.472243E-2,0E0,2.1897769E-2,0E0,0E0,4.0782732E-1,4.6266156E-1,1.2087162E-1,2.5681615E-2,0E0,0E0,0E0,0E0,1.9815275E-1,3.2012683E-1,1.8957376E-2,0E0,3.9627016E-2,3.7960567E-2,2.1624357E-2,0E0,0E0,0E0,0E0,0E0,0E0,0E0,0E0,0E0,0E0,0E0,0E0,0E0],"parents":[2147483647,0,0,1,1,2,2,3,3,4,4,5,5,6,6,7,7,8,8,11,11,13,13,14,14,16,16,18,18,21,21,22,22,23,23,24,24,29,29,30,30,31,31,33,33,34,34,35,35],"right_children":[2,4,6,8,10,12,14,16,18,-1,-1,20,-1,22,24,-1,26,-1,28,-1,-1,30,32,34,36,-1,-1,-1,-1,38,40,42,-1,44,46,48,-1,-1,-1,-1,-1,-1,-1,-1,-1,-1,-1,-1,-1],"split_conditions":[5.682E3,3.121766E8,3.1850692E7,6.8E1,5.484E3,9.695E3,5.39E4,-2.12E2,7.79327E5,1.644544E-2,-0E0,1.5E2,-0E0,5.547387E10,2.94E5,-0E0,2.365827E6,-0E0,1.76174E6,-6.6393125E-3,-0E0,1.17323E6,5.9637953E10,5.693575E10,5.43237E5,4.1203205E-3,-0E0,1.4275482E-3,-0E0,1.11545E6,6.1E3,1.5E2,-0E0,2.45E5,9.89E4,3.195E5,-0E0,6.4229156E-4,4.3925843E-3,-2.9282987E-3,-8.06517E-5,6.318404E-3,-0E0,-1.538681E-4,-4.8285263E-4,-3.269134E-4,1.9454032E-4,-9.30369E-4,-1.5871611E-4],"split_indices":[4,2,2,0,3,4,4,0,1,0,0,0,0,2,6,0,1,0,1,0,0,1,2,2,1,0,0,0,0,1,5,0,0,6,4,6,0,0,0,0,0,0,0,0,0,0,0,0,0],