{"learner":{"attributes":{"scikit_learn":"{\"_estimator_type\": \"regressor\"}"},"feature_names":["prdy_vrss_x","acml_vol_x","acml_tr_pbmn_x","stck_oprc_x","stck_hgpr_x","stck_lwpr_x","stck_clpr","sale_account","sale_cost","sale_totl_prfi","bsop_prti","op_prfi","thtr_ntin","cras","fxas","total_aset","flow_lblt","fix_lblt","total_lblt","total_cptl","grs","bsop_prfi_inrt","ntin_inrt","roe_val","eps_x","sps","bps_x","rsrv_rate","lblt_rate","bram_depn","crnt_rate","quck_rate","equt_inrt","totl_aset_inrt","cptl_ntin_rate","sale_ntin_rate","sale_totl_rate","payout_rate","ebitda","lstg_stqt","cpta","papr","sbst_pric","marg_rate","prdy_ctrt","prdy_vrss_vol_rate","stck_mxpr","stck_llam","stck_sdpr","wghn_avrg_stck_prc","hts_frgn_ehrt","frgn_ntby_qty","pgtr_ntby_qty","pvt_scnd_dmrs_prc","pvt_frst_dmrs_prc","pvt_pont_val","pvt_frst_dmsp_prc","pvt_scnd_dmsp_prc","dmrs_val","dmsp_val","stck_sspr","aspr_unit","hts_avls","per","pbr","vol_tnrt","d250_hgpr","d250_hgpr_vrss_prpr_rate","d250_lwpr","d250_lwpr_vrss_prpr_rate","stck_dryy_hgpr","dryy_hgpr_vrss_prpr_rate","stck_dryy_lwpr","dryy_lwpr_vrss_prpr_rate","w52_hgpr","w52_hgpr_vrss_prpr_ctrt","w52_lwpr","w52_lwpr_vrss_prpr_ctrt","whol_loan_rmnd_rate","frgn_hldn_qty","last_ssts_cntg_qty","aspr_acpt_hour","askp1","askp10","bidp1","bidp10","askp_rsqn1","askp_rsqn2","askp_rsqn3","askp_rsqn4","askp_rsqn5","askp_rsqn6","askp_rsqn7","askp_rsqn8","askp_rsqn9","askp_rsqn10","bidp_rsqn1","bidp_rsqn2","bidp_rsqn3","bidp_rsqn4","bidp_rsqn5","bidp_rsqn6","bidp_rsqn7","bidp_rsqn8","bidp_rsqn9","bidp_rsqn10","total_askp_rsqn","total_bidp_rsqn","ntby_aspr_rsqn","prdy_clpr_vrss_oprc_rate","lwpr_vrss_prpr","prdy_clpr_vrss_lwpr_rate","hgpr_vrss_prpr","prdy_clpr_vrss_hgpr_rate","oprc_vrss_prpr","prdy_vol"],"feature_types":["float","float","float","float","float","float","float","float","float","float","float","float","float","float","float","float","float","float","float","float","float","float","float","float","float","float","float","float","float","float","float","float","float","float","float","float","float","float","float","float","float","float","float","float","float","float","float","float","float","float","float","float","float","float","float","float","float","float","float","float","float","float","float","float","float","float","float","float","float","float","float","float","float","float","float","float","float","float","float","float","float","float","float","float","float","float","float","float","float","float","float","float","float","float","float","float","float","float","float","float","float","float","float","float","float","float","float","float","float","float","float","float","float","float","float","float"],"gradient_booster":{"model":{"cats":{"enc":[],"feature_segments":[],"sorted_idx":[]},"gbtree_model_param":{"num_parallel_tree":"1","num_trees":"200"},"iteration_indptr":[0,1,2,3,4,5,6,7,8,9,10,11,12,13,14,15,16,17,18,19,20,21,22,23,24,25,26,27,28,29,30,31,32,33,34,35,36,37,38,39,40,41,42,43,44,45,46,47,48,49,50,51,52,53,54,55,56,57,58,59,60,61,62,63,64,65,66,67,68,69,70,71,72,73,74,75,76,77,78,79,80,81,82,83,84,85,86,87,88,89,90,91,92,93,94,95,96,97,98,99,100,101,102,103,104,105,106,107,108,109,110,111,112,113,114,115,116,117,118,119,120,121,122,123,124,125,126,127,128,129,130,131,132,133,134,135,136,137,138,139,140,141,142,143,144,145,146,147,148,149,150,151,152,153,154,155,156,157,158,159,160,161,162,163,164,165,166,167,168,169,170,171,172,173,174,175,176,177,178,179,180,181,182,183,184,185,186,187,188,189,190,191,192,193,194,195,196,197,198,199,200],"tree_info":[0,0,0,0,0,0,0,0,0,0,0,0,0,0,0,0,0,0,0,0,0,0,0,0,0,0,0,0,0,0,0,0,0,0,0,0,0,0,0,0,0,0,0,0,0,0,0,0,0,0,0,0,0,0,0,0,0,0,0,0,0,0,0,0,0,0,0,0,0,0,0,0,0,0,0,0,0,0,0,0,0,0,0,0,0,0,0,0,0,0,0,0,0,0,0,0,0,0,0,0,0,0,0,0,0,0,0,0,0,0,0,0,0,0,0,0,0,0,0,0,0,0,0,0,0,0,0,0,0,0,0,0,0,0,0,0,0,0,0,0,0,0,0,0,0,0,0,0,0,0,0,0,0,0,0,0,0,0,0,0,0,0,0,0,0,0,0,0,0,0,0,0,0,0,0,0,0,0,0,0,0,0,0,0,0,0,0,0,0,0,0,0,0,0,0,0,0,0,0,0],"trees":[{"base_weights":[-8.091269E-5,-6.3799154E-3,9.155329E-2,2.3446366E-2,-2.8441133E-2,1.1861231E-2,7.103242E-2,2.504938E-1,2.126645E-2,-2.4756733E-2,-1.4865683E-1,2.1219231E-2,6.469047E-2,4.771615E-3,3.3866104E-1,-7.206135E-3,3.9437804E-2,-2.3093224E-2,-1.2191322E-2,-5.8775884E-3,-1.1294731E-2,1.6046954E-2,9.856718E-2,1.8918367E-2,5.36594E-3,4.3115936E-2,-4.264932E-2,1.21174976E-1,1.76096E-2,-1.8193673E-2,-2.89815E-3,-4.5410884E-3,1.1341433E-3,1.15984954E-1,-8.7841955E-4,4.5720693E-3,8.27694E-4,1.525186E-3,-2.8881887E-3,6.9261496E-3,3.7578475E-3,6.2632636E-4,7.0400564E-3,-1.9789534E-3,-3.8828183E-4,-8.448768E-4,6.5786904E-3],"categories":[],"categories_nodes":[],"categories_segments":[],"categories_sizes":[],"default_left":[0,0,0,0,0,0,0,0,0,0,0,0,0,0,0,0,0,0,0,0,0,0,0,0,0,0,0,0,0,0,0,0,0,0,0,0,0,0,0,0,0,0,0,0,0,0,0],"id":0,"left_children":[1,3,5,7,9,-1,11,13,15,17,19,-1,21,-1,23,25,27,29,-1,-1,-1,31,33,-1,-1,35,37,39,41,43,-1,-1,-1,45,-1,-1,-1,-1,-1,-1,-1,-1,-1,-1,-1,-1,-1],"loss_changes":[1.2296338E0,1.3127929E0,4.2991912E-1,4.165214E-1,5.059936E-1,0E0,2.7683187E-1,1.01626694E-1,4.349852E-1,4.1875243E-1,7.351977E-2,0E0,1.9477946E-1,0E0,5.4576218E-2,5.832708E-1,9.1367984E-1,1.9926816E-1,0E0,0E0,0E0,3.949503E-2,1.435551E-1,0E0,0E0,1.7971313E-1,2.4577773E-1,1.0194075E-1,2.3864976E-1,2.2543615E-1,0E0,0E0,0E0,1.6728741E-1,0E0,0E0,0E0,0E0,0E0,0E0,0E0,0E0,0E0,0E0,0E0,0E0,0E0],"parents":[2147483647,0,0,1,1,2,2,3,3,4,4,6,6,7,7,8,8,9,9,10,10,12,12,14,14,15,15,16,16,17,17,21,21,22,22,25,25,26,26,27,27,28,28,29,29,33,33],"right_children":[2,4,6,8,10,-1,12,14,16,18,20,-1,22,-1,24,26,28,30,-1,-1,-1,32,34,-1,-1,36,38,40,42,44,-1,-1,-1,46,-1,-1,-1,-1,-1,-1,-1,-1,-1,-1,-1,-1,-1],"split_conditions":[5.2708E4,5.87E4,1.22373E5,6.621E3,1.78252E5,1.1861231E-2,1.3091E4,7.032368E6,1.1553E4,2.096E1,1.82E5,2.1219231E-2,1.81257E5,4.771615E-3,7.974634E10,9.085E3,2.7843E4,1.65434E5,-1.2191322E-2,-5.8775884E-3,-1.1294731E-2,1.22974E5,3.085E5,1.8918367E-2,5.36594E-3,2.1039956E10,1.121672E6,2.3789E4,5.7413E4,6.7583E4,-2.89815E-3,-4.5410884E-3,1.1341433E-3,3.41145E5,-8.7841955E-4,4.5720693E-3,8.27694E-4,1.525186E-3,-2.8881887E-3,6.9261496E-3,3.7578475E-3,6.2632636E-4,7.0400564E-3,-1.9789534E-3,-3.8828183E-4,-8.448768E-4,6.5786904E-3],"split_indices":[14,4,3,5,4,0,9,1,6,20,5,0,6,0,2,4,4,4,0,0,0,3,4,0,0,2,1,6,6,4,0,0,0,1,0,0,0,0,0,0,0,0,0,0,0,0,0],"split_type":[0,0,0,0,0,0,0,0,0,0,0,0,0,0,0,0,0,0,0,0,0,0,0,0,0,0,0,0,0,0,0,0,0,0,0,0,0,0,0,0,0,0,0,0,0,0,0],"sum_hessian":[2.132E3,1.995E3,1.37E2,8.48E2,1.147E3,1.6E1,1.21E2,8E0,8.4E2,1.113E3,3.4E1,2E0,1.19E2,3E0,5E0,3.27E2,5.13E2,1.105E3,8E0,2.6E1,8E0,4.9E1,7E1,4E0,1E0,1.35E2,1.92E2,1.08E2,4.05E2,9.76E2,1.29E2,3E0,4.6E1,6.1E1,9E0,4.5E1,9E1,3.6E1,1.56E2,7.1E1,3.7E1,3.91E2,1.4E1,3E2,6.76E2,8E0,5.3E1],"tree_param":{"num_deleted":"0","num_feature":"116","num_nodes":"47","size_leaf_vector":"1"}},{"base_weights":[7.2684066E-5,-5.73058E-3,8.633356E-2,2.2923704E-2,-2.5739757E-2,1.1199202E-2,6.502934E-2,1.5959814E-1,1.9831588E-2,-2.3260878E-2,-1.1850257E-2,1.86444E-2,6.2116288E-2,5.256963E-4,2.1583849E-1,-8.179001E-3,3.757581E-2,-1.5621549E-2,-7.2664276E-2,1.5576385E-3,9.072868E-2,1.4632001E-2,1.3883366E-1,4.378308E-2,-4.150736E-2,1.15523554E-1,1.5504905E-2,-3.007352E-2,3.4101072E-3,-2.9321383E-3,-9.72124E-3,1.7924699E-1,1.4309101E-3,1.606822E-2,5.01297E-3,4.2522373E-3,9.251784E-4,1.4217616E-3,-2.9550905E-3,5.9508304E-3,-7.428836E-4,-5.8163627E-4,1.5023988E-3,-2.2711944E-4,-1.8976046E-3,4.520101E-3,-3.268376E-4,1.2153524E-2,5.63044E-3],"categories":[],"categories_nodes":[],"categories_segments":[],"categories_sizes":[],"default_left":[0,0,0,0,0,0,0,0,0,0,0,0,0,0,0,0,0,0,0,0,0,0,0,0,0,0,0,0,0,0,0,0,0,0,0,0,0,0,0,0,0,0,0,0,0,0,0,0,0],"id":1,"left_children":[1,3,5,7,9,-1,11,13,15,17,-1,-1,19,-1,21,23,25,27,29,-1,31,-1,33,35,37,39,41,43,45,-1,-1,47,-1,-1,-1,-1,-1,-1,-1,-1,-1,-1,-1,-1,-1,-1,-1,-1,-1],"loss_changes":[1.064204E0,1.1410114E0,4.1260308E-1,3.435963E-1,6.3561946E-1,0E0,1.040771E-1,1.4800364E-1,3.9796987E-1,4.363907E-1,0E0,0E0,9.7571045E-2,0E0,8.197069E-2,5.3688145E-1,8.414756E-1,2.76457E-1,2.3429048E-1,0E0,3.1654572E-1,0E0,4.209593E-2,1.308097E-1,2.652154E-1,1.1178124E-1,1.6482659E-1,1.335696E-1,3.9911222E-1,0E0,0E0,1.044935E-1,0E0,0E0,0E0,0E0,0E0,0E0,0E0,0E0,0E0,0E0,0E0,0E0,0E0,0E0,0E0,0E0,0E0],"parents":[2147483647,0,0,1,1,2,2,3,3,4,4,6,6,7,7,8,8,9,9,12,12,14,14,15,15,16,16,17,17,18,18,20,20,22,22,23,23,24,24,25,25,26,26,27,27,28,28,31,31],"right_children":[2,4,6,8,10,-1,12,14,16,18,-1,-1,20,-1,22,24,26,28,30,-1,32,-1,34,36,38,40,42,44,46,-1,-1,48,-1,-1,-1,-1,-1,-1,-1,-1,-1,-1,-1,-1,-1,-1,-1,-1,-1],"split_conditions":[1.08961E5,5.8386E4,1.22373E5,6.805E3,2.096E1,1.1199202E-2,1.3091E4,3.900151E6,1.1794E4,1.65434E5,-1.1850257E-2,1.86444E-2,1.82E5,5.256963E-4,7.005E3,9.085E3,2.7843E4,8.9776E4,1.84E5,1.5576385E-3,2.5E5,1.4632001E-2,4.370592E6,2.323662E6,1.108606E6,3.374648E6,3.7668E4,6.1054E4,1.18968E5,-2.9321383E-3,-9.72124E-3,5.14E2,1.4309101E-3,1.606822E-2,5.01297E-3,4.2522373E-3,9.251784E-4,1.4217616E-3,-2.9550905E-3,5.9508304E-3,-7.428836E-4,-5.8163627E-4,1.5023988E-3,-2.2711944E-4,-1.8976046E-3,4.520101E-3,-3.268376E-4,1.2153524E-2,5.63044E-3],"split_indices":[15,4,3,5,20,0,7,1,4,4,0,0,5,0,4,4,4,5,4,0,4,0,1,1,1,1,3,4,5,0,0,0,0,0,0,0,0,0,0,0,0,0,0,0,0,0,0,0,0],"split_type":[0,0,0,0,0,0,0,0,0,0,0,0,0,0,0,0,0,0,0,0,0,0,0,0,0,0,0,0,0,0,0,0,0,0,0,0,0,0,0,0,0,0,0,0,0,0,0,0,0],"sum_hessian":[2.124E3,1.99E3,1.34E2,8.18E2,1.172E3,1.7E1,1.17E2,1.8E1,8E2,1.159E3,1.3E1,1E0,1.16E2,5E0,1.3E1,3.1E2,4.9E2,1.004E3,1.55E2,5.7E1,5.9E1,6E0,7E0,1.21E2,1.89E2,1.08E2,3.82E2,5.71E2,4.33E2,1.42E2,1.3E1,2.4E1,3.5E1,1E0,6E0,4.3E1,7.8E1,4.1E1,1.48E2,1.02E2,6E0,1.38E2,2.44E2,1.53E2,4.18E2,4.4E1,3.89E2,1.1E1,1.3E1],"tree_param":{"num_deleted":"0","num_feature":"116","num_nodes":"49","size_leaf_vector":"1"}},{"base_weights":[8.4354484E-4,-4.410653E-3,7.075756E-2,2.0221844E-2,-2.4027623E-2,1.23438435E-2,5.1165268E-2,1.7188291E-1,1.735091E-2,-2.172698E-2,-1.1054208E-2,1.9308355E-2,4.5709465E-2,2.5278604E-1,5.882643E-3,-6.782225E-3,3.0877572E-2,-1.4572027E-2,-7.108956E-2,1.8696375E-2,6.449785E-2,1.5827846E-2,4.6021035E-3,3.617159E-2,-3.3206996E-2,1.09471224E-1,1.1648783E-2,-3.6935087E-2,-5.9127323E-3,-3.0244344E-3,-8.473014E-3,4.8301265E-2,-4.049263E-4,1.2599568E-1,4.2693865E-2,3.741258E-3,5.172234E-4,-8.336125E-4,-5.4994165E-3,5.9822192E-3,1.2615717E-3,-5.758943E-4,1.1748621E-3,-9.0842973E-4,-4.7131064E-3,5.011578E-3,-4.060493E-4,4.9656485E-3,8.9993805E-4,3.5420812E-3,1.188568E-2,2.700587E-3,-5.689807E-4],"categories":[],"categories_nodes":[],"categories_segments":[],"categories_sizes":[],"default_left":[0,0,0,0,0,0,0,0,0,0,0,0,0,0,0,0,0,0,0,0,0,0,0,0,0,0,0,0,0,0,0,0,0,0,0,0,0,0,0,0,0,0,0,0,0,0,0,0,0,0,0,0,0],"id":2,"left_children":[1,3,5,7,9,-1,11,13,15,17,-1,-1,19,21,-1,23,25,27,29,31,33,-1,-1,35,37,39,41,43,45,-1,-1,47,-1,49,51,-1,-1,-1,-1,-1,-1,-1,-1,-1,-1,-1,-1,-1,-1,-1,-1,-1,-1],"loss_changes":[7.7255833E-1,9.4425845E-1,5.293981E-1,3.7485233E-1,5.104015E-1,0E0,2.4791342E-1,6.000474E-2,2.7775896E-1,3.790341E-1,0E0,0E0,6.55199E-2,6.595412E-2,0E0,3.4618497E-1,8.222459E-1,1.8153587E-1,1.16594195E-1,4.3781366E-2,1.0125452E-1,0E0,0E0,1.2112871E-1,2.416658E-1,1.2768173E-1,1.3136217E-1,2.8684494E-1,1.852355E-1,0E0,0E0,4.070014E-2,0E0,1.227296E-1,4.1768648E-2,0E0,0E0,0E0,0E0,0E0,0E0,0E0,0E0,0E0,0E0,0E0,0E0,0E0,0E0,0E0,0E0,0E0,0E0],"parents":[2147483647,0,0,1,1,2,2,3,3,4,4,6,6,7,7,8,8,9,9,12,12,13,13,15,15,16,16,17,17,18,18,19,19,20,20,23,23,24,24,25,25,26,26,27,27,28,28,31,31,33,33,34,34],"right_children":[2,4,6,8,10,-1,12,14,16,18,-1,-1,20,22,-1,24,26,28,30,32,34,-1,-1,36,38,40,42,44,46,-1,-1,48,-1,50,52,-1,-1,-1,-1,-1,-1,-1,-1,-1,-1,-1,-1,-1,-1,-1,-1,-1,-1],"split_conditions":[5.2708E4,5.8386E4,1.20971E5,6.805E3,2.096E1,1.23438435E-2,1.3091E4,-2E2,1.1794E4,1.65234E5,-1.1054208E-2,1.9308355E-2,4.58184E5,6.0938162E10,5.882643E-3,9.085E3,2.7278E4,6.7583E4,1.8E5,5.6253E4,2.0256E4,1.5827846E-2,4.6021035E-3,2.1039956E10,4.227705E10,5.5346295E10,3.6255E4,6.3408E4,6.7489E4,-3.0244344E-3,-8.473014E-3,1.55019E5,-4.049263E-4,1.84061E5,3.015E5,3.741258E-3,5.172234E-4,-8.336125E-4,-5.4994165E-3,5.9822192E-3,1.2615717E-3,-5.758943E-4,1.1748621E-3,-9.0842973E-4,-4.7131064E-3,5.011578E-3,-4.060493E-4,4.9656485E-3,8.9993805E-4,3.5420812E-3,1.188568E-2,2.700587E-3,-5.689807E-4],"split_indices":[14,6,5,5,20,0,7,0,4,3,0,0,1,2,0,4,6,4,3,13,17,0,0,2,2,2,4,3,3,0,0,3,0,3,3,0,0,0,0,0,0,0,0,0,0,0,0,0,0,0,0,0,0],"split_type":[0,0,0,0,0,0,0,0,0,0,0,0,0,0,0,0,0,0,0,0,0,0,0,0,0,0,0,0,0,0,0,0,0,0,0,0,0,0,0,0,0,0,0,0,0,0,0,0,0,0,0,0,0],"sum_hessian":[2.101E3,1.954E3,1.47E2,8.66E2,1.088E3,1.4E1,1.33E2,1.6E1,8.5E2,1.076E3,1.2E1,2E0,1.31E2,6E0,1E1,3.05E2,5.45E2,9.4E2,1.36E2,5.4E1,7.7E1,4E0,2E0,1.16E2,1.89E2,1.07E2,4.38E2,2.62E2,6.78E2,1.26E2,1E1,2.6E1,2.8E1,2E1,5.7E1,4.4E1,7.2E1,1.58E2,3.1E1,9.1E1,1.6E1,1.53E2,2.85E2,2.02E2,6E1,1.5E1,6.63E2,9E0,1.7E1,1.4E1,6E0,4.6E1,1.1E1],"tree_param":{"num_deleted":"0","num_feature":"116","num_nodes":"53","size_leaf_vector":"1"}},{"base_weights":[-1.179794E-4,-5.500716E-3,7.602463E-2,1.771068E-2,-2.540068E-2,1.0403646E-2,5.8185264E-2,9.817385E-2,1.1935353E-2,-2.320057E-2,-1.0641739E-2,1.8382803E-2,5.284611E-2,1.2215106E-3,1.5780213E-1,2.0973086E-2,-5.489649E-2,-2.0223707E-2,-7.937932E-3,1.1528537E-3,7.290711E-2,1.44009385E-2,1.3302763E-1,3.8541578E-2,1.0236444E-2,-2.8253837E-2,-7.535808E-2,-4.5648072E-2,-1.3069105E-2,1.099811E-1,1.2072119E-3,1.3036951E-2,5.627111E-3,-5.9848153E-5,5.5483775E-3,-7.6104305E-4,1.0162567E-3,-4.238771E-3,-4.1525488E-4,-4.281391E-3,9.872251E-4,-1.2387946E-3,-5.659158E-3,3.6317393E-5,-1.951715E-3,1.5832635E-3,8.493684E-3],"categories":[],"categories_nodes":[],"categories_segments":[],"categories_sizes":[],"default_left":[0,0,0,0,0,0,0,0,0,0,0,0,0,0,0,0,0,0,0,0,0,0,0,0,0,0,0,0,0,0,0,0,0,0,0,0,0,0,0,0,0,0,0,0,0,0,0],"id":3,"left_children":[1,3,5,7,9,-1,11,13,15,17,-1,-1,19,-1,21,23,25,27,-1,-1,29,-1,31,33,35,37,39,41,43,45,-1,-1,-1,-1,-1,-1,-1,-1,-1,-1,-1,-1,-1,-1,-1,-1,-1],"loss_changes":[8.8161814E-1,9.289933E-1,3.5036087E-1,4.2996588E-1,4.6215105E-1,0E0,2.119385E-1,2.6724344E-1,5.227035E-1,4.4840527E-1,0E0,0E0,7.088983E-2,0E0,1.1305606E-1,1.433579E-1,5.4937094E-2,1.9013304E-1,0E0,0E0,1.2803206E-1,0E0,6.0402095E-2,8.8036215E-1,1.3354966E-1,5.1588714E-2,7.518202E-2,3.2744783E-1,3.1043658E-1,2.0659205E-1,0E0,0E0,0E0,0E0,0E0,0E0,0E0,0E0,0E0,0E0,0E0,0E0,0E0,0E0,0E0,0E0,0E0],"parents":[2147483647,0,0,1,1,2,2,3,3,4,4,6,6,7,7,8,8,9,9,12,12,14,14,15,15,16,16,17,17,20,20,22,22,23,23,24,24,25,25,26,26,27,27,28,28,29,29],"right_children":[2,4,6,8,10,-1,12,14,16,18,-1,-1,20,-1,22,24,26,28,-1,-1,30,-1,32,34,36,38,40,42,44,46,-1,-1,-1,-1,-1,-1,-1,-1,-1,-1,-1,-1,-1,-1,-1,-1,-1],"split_conditions":[5.2708E4,5.9955E4,1.22373E5,7.882E3,2.096E1,1.0403646E-2,1.3091E4,2.899211E10,3.374648E6,1.805E5,-1.0641739E-2,1.8382803E-2,1.815E5,1.2215106E-3,7.005E3,2.8452E4,9.085E3,6.7583E4,-7.937932E-3,1.1528537E-3,2.5E5,1.44009385E-2,3.0337274E10,1.2025E4,3.6255E4,4.176533E6,1.2025E4,6.4193E4,1.56822E5,4.77365E5,1.2072119E-3,1.3036951E-2,5.627111E-3,-5.9848153E-5,5.5483775E-3,-7.6104305E-4,1.0162567E-3,-4.238771E-3,-4.1525488E-4,-4.281391E-3,9.872251E-4,-1.2387946E-3,-5.659158E-3,3.6317393E-5,-1.951715E-3,1.5832635E-3,8.493684E-3],"split_indices":[14,4,3,3,20,0,7,2,1,4,0,0,4,0,4,4,4,4,0,0,4,0,2,3,4,1,3,3,4,1,0,0,0,0,0,0,0,0,0,0,0,0,0,0,0,0,0],"split_type":[0,0,0,0,0,0,0,0,0,0,0,0,0,0,0,0,0,0,0,0,0,0,0,0,0,0,0,0,0,0,0,0,0,0,0,0,0,0,0,0,0,0,0,0,0,0,0],"sum_hessian":[2.153E3,2.011E3,1.42E2,9.28E2,1.083E3,1.6E1,1.26E2,6.2E1,8.66E2,1.071E3,1.2E1,2E0,1.24E2,2.8E1,3.4E1,7.63E2,1.03E2,1.049E3,2.2E1,5.1E1,7.3E1,5E0,2.9E1,2.89E2,4.74E2,4.5E1,5.8E1,2.3E2,8.19E2,4.1E1,3.2E1,3E0,2.6E1,1.9E2,9.9E1,1.39E2,3.35E2,1.1E1,3.4E1,5.1E1,7E0,1.8E2,5E1,5.44E2,2.75E2,1.9E1,2.2E1],"tree_param":{"num_deleted":"0","num_feature":"116","num_nodes":"47","size_leaf_vector":"1"}},{"base_weights":[7.408171E-4,-4.9335333E-3,7.6091155E-2,1.7070409E-2,-2.5702354E-2,1.9776702E-1,5.5070173E-2,7.880752E-2,1.2895327E-2,-1.7443113E-2,-6.8013005E-2,1.624566E-1,1.3965699E-2,1.4220583E-3,7.969083E-2,1.1431769E-2,1.5271783E-1,-1.7904297E-2,2.7071865E-2,-3.5227023E-2,-7.96854E-4,-5.851332E-2,-7.882514E-3,-4.1124155E-3,1.9870904E-1,1.2390476E-1,1.757961E-3,4.3561354E-2,-1.4020014E-3,1.6638549E-2,1.3789965E-1,2.2631558E-2,-3.3505928E-2,1.11409724E-1,9.456103E-3,-3.085056E-2,-6.9119395E-3,8.250354E-2,-1.1426546E-2,-2.6399372E-3,-1.1687346E-2,-6.593873E-4,1.04180565E-2,9.095711E-3,1.6166931E-1,1.3908152E-3,1.3465771E-2,1.2248003E-2,5.021862E-3,-9.663141E-4,2.8277861E-3,-8.536197E-4,-4.494737E-3,7.1296357E-3,3.937348E-3,1.6150926E-3,-2.113942E-5,-2.3671677E-3,-7.378833E-4,-1.4470792E-3,4.877287E-3,-4.2281044E-4,-1.0384805E-2,1.1422996E-2,-1.06944E-3,9.825541E-3,5.347396E-3],"categories":[],"categories_nodes":[],"categories_segments":[],"categories_sizes":[],"default_left":[0,0,0,0,0,0,0,0,0,0,0,0,0,0,0,0,0,0,0,0,0,0,0,0,0,0,0,0,0,0,0,0,0,0,0,0,0,0,0,0,0,0,0,0,0,0,0,0,0,0,0,0,0,0,0,0,0,0,0,0,0,0,0,0,0,0,0],"id":4,"left_children":[1,3,5,7,9,11,13,15,17,19,21,23,-1,-1,25,27,29,31,33,35,37,39,-1,-1,41,43,-1,45,-1,-1,47,49,51,53,55,57,-1,59,61,-1,-1,-1,-1,63,65,-1,-1,-1,-1,-1,-1,-1,-1,-1,-1,-1,-1,-1,-1,-1,-1,-1,-1,-1,-1,-1,-1],"loss_changes":[9.158171E-1,9.0953296E-1,3.806426E-1,2.4792814E-1,3.5684615E-1,6.5454006E-2,7.938591E-2,3.0191803E-1,3.9526954E-1,2.532912E-1,1.4861989E-1,1.4531514E-1,0E0,0E0,1.224305E-1,4.1830145E-2,7.642627E-2,1.8038456E-1,9.1973317E-1,1.9368225E-1,3.9146328E-1,1.0245824E-1,0E0,0E0,5.3609848E-2,1.368143E-1,0E0,5.8865916E-2,0E0,0E0,1.01454616E-1,1.2172921E-1,1.9304082E-1,1.1316955E-1,1.2229681E-1,1.1201605E-1,0E0,1.0541949E-1,2.1072547E-1,0E0,0E0,0E0,0E0,5.9567213E-2,4.733032E-2,0E0,0E0,0E0,0E0,0E0,0E0,0E0,0E0,0E0,0E0,0E0,0E0,0E0,0E0,0E0,0E0,0E0,0E0,0E0,0E0,0E0,0E0],"parents":[2147483647,0,0,1,1,2,2,3,3,4,4,5,5,6,6,7,7,8,8,9,9,10,10,11,11,14,14,15,15,16,16,17,17,18,18,19,19,20,20,21,21,24,24,25,25,27,27,30,30,31,31,32,32,33,33,34,34,35,35,37,37,38,38,43,43,44,44],"right_children":[2,4,6,8,10,12,14,16,18,20,22,24,-1,-1,26,28,30,32,34,36,38,40,-1,-1,42,44,-1,46,-1,-1,48,50,52,54,56,58,-1,60,62,-1,-1,-1,-1,64,66,-1,-1,-1,-1,-1,-1,-1,-1,-1,-1,-1,-1,-1,-1,-1,-1,-1,-1,-1,-1,-1,-1],"split_conditions":[5.2708E4,6.074E4,5.999E3,7.751E3,1.63632E5,2.57E3,1.87E5,2.981229E10,1.1794E4,8.7736E4,1.84E5,4.784169E10,1.3965699E-2,1.4220583E-3,2.5E5,2.1039956E10,3.0337274E10,9.085E3,2.7843E4,8.7893E4,1.18968E5,1.1547E4,-7.882514E-3,-4.1124155E-3,-2.448E3,7.441844E10,1.757961E-3,2.0751708E10,-1.4020014E-3,1.6638549E-2,6.784E3,-3.1E1,3.9634113E10,2.3719508E10,2.9588204E10,6.7583E4,-6.9119395E-3,9.1429E4,2.096E1,-2.6399372E-3,-1.1687346E-2,-6.593873E-4,1.04180565E-2,-1.883E3,2.002E3,1.3908152E-3,1.3465771E-2,1.2248003E-2,5.021862E-3,-9.663141E-4,2.8277861E-3,-8.536197E-4,-4.494737E-3,7.1296357E-3,3.937348E-3,1.6150926E-3,-2.113942E-5,-2.3671677E-3,-7.378833E-4,-1.4470792E-3,4.877287E-3,-4.2281044E-4,-1.0384805E-2,1.1422996E-2,-1.06944E-3,9.825541E-3,5.347396E-3],"split_indices":[14,4,10,6,4,10,4,2,4,5,4,2,0,0,4,2,2,4,4,4,5,7,0,0,0,2,0,2,0,0,6,0,2,2,2,4,0,6,20,0,0,0,0,0,0,0,0,0,0,0,0,0,0,0,0,0,0,0,0,0,0,0,0,0,0,0,0],"split_type":[0,0,0,0,0,0,0,0,0,0,0,0,0,0,0,0,0,0,0,0,0,0,0,0,0,0,0,0,0,0,0,0,0,0,0,0,0,0,0,0,0,0,0,0,0,0,0,0,0,0,0,0,0,0,0,0,0,0,0,0,0,0,0,0,0,0,0],"sum_hessian":[2.14E3,1.99E3,1.5E2,9.66E2,1.024E3,2.2E1,1.28E2,6.1E1,9.05E2,8.57E2,1.67E2,1.6E1,6E0,6.3E1,6.5E1,3.2E1,2.9E1,2.85E2,6.2E2,4.14E2,4.43E2,1.52E2,1.5E1,2E0,1.4E1,3.2E1,3.3E1,1.8E1,1.4E1,2E0,2.7E1,7.9E1,2.06E2,1.07E2,5.13E2,3.98E2,1.6E1,5E1,3.93E2,1.49E2,3E0,1E0,1.3E1,8E0,2.4E1,1.7E1,1E0,6E0,2.1E1,3.6E1,4.3E1,1.63E2,4.3E1,4.8E1,5.9E1,1.5E2,3.63E2,1.83E2,2.15E2,7E0,4.3E1,3.88E2,5E0,1E0,7E0,1.3E1,1.1E1],"tree_param":{"num_deleted":"0","num_feature":"116","num_nodes":"67","size_leaf_vector":"1"}},{"base_weights":[4.8311037E-4,-4.108277E-3,6.795731E-2,1.7766697E-2,-2.3705557E-2,1.8309012E-1,5.1532786E-2,7.338295E-2,1.3260254E-2,-2.1885859E-2,-1.0302304E-2,1.5993571E-1,1.6832165E-2,1.9842733E-2,6.7827836E-2,2.7531708E-4,1.3182981E-1,-2.3621796E-2,2.7937744E-2,-1.7279824E-2,-8.5285164E-2,1.0435265E-2,2.1553668E-3,3.177543E-2,-3.0702776E-3,3.9293777E-2,1.1934714E-1,1.3784098E-2,1.0806484E-1,2.0876132E-2,-4.275825E-2,7.9708755E-2,1.2541093E-2,-3.6360815E-2,-1.1610441E-2,-3.4220617E-3,-8.813764E-3,1.2398793E-3,1.1099406E-2,2.5618826E-3,-7.792298E-4,-0E0,1.3968366E-1,5.8073457E-3,-3.6865815E-3,3.5019103E-3,-7.382832E-4,-1.1170331E-3,-3.9127865E-3,3.2438646E-4,4.887518E-3,-4.4381988E-4,1.0154153E-3,-7.1167207E-4,-4.4690273E-3,-1.3211094E-4,-1.5552376E-3,8.975273E-3,3.5462035E-3],"categories":[],"categories_nodes":[],"categories_segments":[],"categories_sizes":[],"default_left":[0,0,0,0,0,0,0,0,0,0,0,0,0,0,0,0,0,0,0,0,0,0,0,0,0,0,0,0,0,0,0,0,0,0,0,0,0,0,0,0,0,0,0,0,0,0,0,0,0,0,0,0,0,0,0,0,0,0,0],"id":5,"left_children":[1,3,5,7,9,11,13,15,17,19,-1,21,-1,23,25,-1,27,29,31,33,35,-1,-1,37,-1,39,41,-1,43,45,47,49,51,53,55,-1,-1,-1,-1,-1,-1,-1,57,-1,-1,-1,-1,-1,-1,-1,-1,-1,-1,-1,-1,-1,-1,-1,-1],"loss_changes":[6.661935E-1,8.621751E-1,2.5626796E-1,2.3709312E-1,3.6372447E-1,5.8719516E-2,6.0946852E-2,2.7929813E-1,4.7589958E-1,3.0571634E-1,0E0,9.4378084E-2,0E0,4.0513508E-2,1.1426607E-1,0E0,1.340614E-1,2.1315779E-1,5.003114E-1,1.05457574E-1,9.621602E-2,0E0,0E0,4.037369E-2,0E0,3.948102E-2,6.952059E-2,0E0,7.5532734E-2,1.4099327E-1,1.3033122E-1,2.256909E-1,8.981326E-2,2.7112928E-1,1.3793185E-1,0E0,0E0,0E0,0E0,0E0,0E0,0E0,7.0481956E-2,0E0,0E0,0E0,0E0,0E0,0E0,0E0,0E0,0E0,0E0,0E0,0E0,0E0,0E0,0E0,0E0],"parents":[2147483647,0,0,1,1,2,2,3,3,4,4,5,5,6,6,7,7,8,8,9,9,11,11,13,13,14,14,16,16,17,17,18,18,19,19,20,20,23,23,25,25,26,26,28,28,29,29,30,30,31,31,32,32,33,33,34,34,42,42],"right_children":[2,4,6,8,10,12,14,16,18,20,-1,22,-1,24,26,-1,28,30,32,34,36,-1,-1,38,-1,40,42,-1,44,46,48,50,52,54,56,-1,-1,-1,-1,-1,-1,-1,58,-1,-1,-1,-1,-1,-1,-1,-1,-1,-1,-1,-1,-1,-1,-1,-1],"split_conditions":[5.2708E4,5.9955E4,7.094E3,7.667E3,2.096E1,1.24776E5,6.402845E10,2.9435265E10,1.087E4,1.74247E5,-1.0302304E-2,1.2E5,1.6832165E-2,1.85462E5,4.3562E4,2.7531708E-4,7.005E3,9.085E3,2.8452E4,6.7583E4,1.805E5,1.0435265E-2,2.1553668E-3,1.87E5,-3.0702776E-3,3.015E5,1.815E5,1.3784098E-2,7.56E2,2.2834043E10,3.2046975E10,1.1773E4,3.861E4,6.2466E4,1.52416E5,-3.4220617E-3,-8.813764E-3,1.2398793E-3,1.1099406E-2,2.5618826E-3,-7.792298E-4,-0E0,1.001E3,5.8073457E-3,-3.6865815E-3,3.5019103E-3,-7.382832E-4,-1.1170331E-3,-3.9127865E-3,3.2438646E-4,4.887518E-3,-4.4381988E-4,1.0154153E-3,-7.1167207E-4,-4.4690273E-3,-1.3211094E-4,-1.5552376E-3,8.975273E-3,3.5462035E-3],"split_indices":[14,4,11,5,20,3,2,2,5,4,0,5,0,3,7,0,4,4,4,4,5,0,0,4,0,3,4,0,0,2,2,5,4,5,5,0,0,0,0,0,0,0,0,0,0,0,0,0,0,0,0,0,0,0,0,0,0,0,0],"split_type":[0,0,0,0,0,0,0,0,0,0,0,0,0,0,0,0,0,0,0,0,0,0,0,0,0,0,0,0,0,0,0,0,0,0,0,0,0,0,0,0,0,0,0,0,0,0,0,0,0,0,0,0,0,0,0,0,0,0,0],"sum_hessian":[2.148E3,2.011E3,1.37E2,9.5E2,1.061E3,1.7E1,1.2E2,7.1E1,8.79E2,1.051E3,1E1,1.5E1,2E0,4.1E1,7.9E1,3.3E1,3.8E1,2.5E2,6.29E2,9.8E2,7.1E1,1E1,5E0,3.6E1,5E0,5.1E1,2.8E1,5E0,3.3E1,7.5E1,1.75E2,1.44E2,4.85E2,2.24E2,7.56E2,6.2E1,9E0,3.5E1,1E0,4.1E1,1E1,4E0,2.4E1,3.1E1,2E0,3.1E1,4.4E1,1.16E2,5.9E1,3.3E1,1.11E2,1.36E2,3.49E2,1.62E2,6.2E1,5.29E2,2.27E2,1.4E1,1E1],"tree_param":{"num_deleted":"0","num_feature":"116","num_nodes":"59","size_leaf_vector":"1"}},{"base_weights":[-3.1271143E-4,-4.528319E-3,5.8590043E-2,1.4653179E-2,-2.3934966E-2,1.0139416E-2,4.575591E-2,1.9487445E-1,1.300063E-2,-2.058654E-2,-1.1750542E-1,6.0726064E-3,7.090503E-2,2.4756019E-3,2.644752E-1,2.4101209E-2,-1.790731E-3,-1.8667465E-2,-8.869966E-3,-4.4214283E-3,-8.22001E-3,1.7207501E-3,-1.1697968E-3,1.8813876E-3,1.2971136E-1,1.4679348E-2,2.5517931E-3,7.199338E-2,1.1187883E-2,5.4139167E-2,-9.300397E-3,-4.7265213E-2,-1.24975275E-2,4.74326E-2,8.106651E-3,7.1999263E-3,2.7661875E-3,1.6981689E-3,1.8586173E-4,-2.9784162E-4,5.110451E-3,-1.4801354E-3,8.264204E-4,-1.1900993E-3,-3.3508532E-3,-3.7820777E-5,-1.5909928E-3,-2.1012437E-3,1.1223495E-2],"categories":[],"categories_nodes":[],"categories_segments":[],"categories_sizes":[],"default_left":[0,0,0,0,0,0,0,0,0,0,0,0,0,0,0,0,0,0,0,0,0,0,0,0,0,0,0,0,0,0,0,0,0,0,0,0,0,0,0,0,0,0,0,0,0,0,0,0,0],"id":6,"left_children":[1,3,5,7,9,-1,11,13,15,17,19,21,23,-1,25,27,29,31,-1,-1,-1,-1,-1,-1,33,-1,-1,35,37,39,41,43,45,47,-1,-1,-1,-1,-1,-1,-1,-1,-1,-1,-1,-1,-1,-1,-1],"loss_changes":[5.2803826E-1,7.397741E-1,2.7316836E-1,2.9510444E-1,3.0793655E-1,0E0,1.298593E-1,8.624774E-2,1.6281027E-1,2.965148E-1,4.3289065E-2,4.591057E-2,1.4814115E-1,0E0,4.628116E-2,3.4908116E-1,1.7758216E-1,1.6569549E-1,0E0,0E0,0E0,0E0,0E0,0E0,8.571434E-2,0E0,0E0,1.334014E-1,7.810086E-2,1.5735067E-1,2.1147323E-1,8.2629204E-2,1.8575338E-1,1.5417063E-1,0E0,0E0,0E0,0E0,0E0,0E0,0E0,0E0,0E0,0E0,0E0,0E0,0E0,0E0,0E0],"parents":[2147483647,0,0,1,1,2,2,3,3,4,4,6,6,7,7,8,8,9,9,10,10,11,11,12,12,14,14,15,15,16,16,17,17,24,24,27,27,28,28,29,29,30,30,31,31,32,32,33,33],"right_children":[2,4,6,8,10,-1,12,14,16,18,20,22,24,-1,26,28,30,32,-1,-1,-1,-1,-1,-1,34,-1,-1,36,38,40,42,44,46,48,-1,-1,-1,-1,-1,-1,-1,-1,-1,-1,-1,-1,-1,-1,-1],"split_conditions":[5.2708E4,6.0583E4,1.2E5,6.621E3,1.75849E5,1.0139416E-2,4.00386E5,5.699263E6,1.282965E6,2.096E1,1.805E5,5.6253E4,3.37E0,2.4756019E-3,6.784E3,2.8357E4,7.751E3,6.6076E4,-8.869966E-3,-4.4214283E-3,-8.22001E-3,1.7207501E-3,-1.1697968E-3,1.8813876E-3,-9.41E2,1.4679348E-2,2.5517931E-3,-2.62E2,5.30107E5,3.900151E6,1.1983E4,6.3251E4,1.53016E5,1.82E5,8.106651E-3,7.1999263E-3,2.7661875E-3,1.6981689E-3,1.8586173E-4,-2.9784162E-4,5.110451E-3,-1.4801354E-3,8.264204E-4,-1.1900993E-3,-3.3508532E-3,-3.7820777E-5,-1.5909928E-3,-2.1012437E-3,1.1223495E-2],"split_indices":[14,6,5,5,6,0,1,1,1,20,5,13,34,0,6,6,6,5,0,0,0,0,0,0,0,0,0,0,1,1,6,6,6,5,0,0,0,0,0,0,0,0,0,0,0,0,0,0,0],"split_type":[0,0,0,0,0,0,0,0,0,0,0,0,0,0,0,0,0,0,0,0,0,0,0,0,0,0,0,0,0,0,0,0,0,0,0,0,0,0,0,0,0,0,0,0,0,0,0,0,0],"sum_hessian":[2.129E3,1.987E3,1.42E2,9.99E2,9.88E2,1.1E1,1.31E2,9E0,9.9E2,9.54E2,3.4E1,5.1E1,8E1,3E0,6E0,5.66E2,4.24E2,9.43E2,1.1E1,2.3E1,1.1E1,2.6E1,2.5E1,5.2E1,2.8E1,5E0,1E0,1.2E2,4.46E2,5E1,3.74E2,1.67E2,7.76E2,9E0,1.9E1,1.9E1,1.01E2,1.04E2,3.42E2,2.3E1,2.7E1,2.07E2,1.67E2,8.3E1,8.4E1,4.94E2,2.82E2,6E0,3E0],"tree_param":{"num_deleted":"0","num_feature":"116","num_nodes":"49","size_leaf_vector":"1"}},{"base_weights":[-1.1327496E-3,1.9017896E-2,-1.4240337E-2,-5.7212288E-5,3.170696E-2,-2.2828491E-2,5.4262944E-2,4.4417612E-2,-2.7221568E-2,9.9008955E-2,1.5425282E-2,-2.100742E-2,-8.788667E-3,8.388714E-3,4.137694E-2,3.7226938E-2,1.0539988E-2,2.618405E-3,-3.7309214E-2,1.7343654E-1,7.756868E-2,1.1388077E-2,1.0799903E-1,-1.7023187E-2,-8.109965E-2,1.6415428E-2,3.895562E-2,1.8683841E-2,8.169676E-2,-3.129409E-2,-6.385845E-3,-6.345145E-4,1.9266693E-1,-3.1580823E-3,3.934465E-3,3.7137046E-2,5.623167E-4,1.5289335E-1,-1.6916496E-3,-2.5648156E-2,-7.49759E-3,-3.1013254E-3,-7.1715144E-3,7.322172E-4,6.405385E-2,5.2380427E-3,-1.4456091E-4,6.135752E-3,1.4970475E-5,-2.306886E-3,-4.0357414E-4,1.6233442E-2,8.482897E-3,1.9169756E-3,-5.03435E-3,-1.7563894E-3,7.931126E-4,1.1347263E-2,9.002302E-4,-1.0449884E-3,-5.3547653E-3,4.4623055E-3,-7.177319E-4,5.446311E-3,1.0634182E-3],"categories":[],"categories_nodes":[],"categories_segments":[],"categories_sizes":[],"default_left":[0,0,0,0,0,0,0,0,0,0,0,0,0,0,0,0,0,0,0,0,0,0,0,0,0,0,0,0,0,0,0,0,0,0,0,0,0,0,0,0,0,0,0,0,0,0,0,0,0,0,0,0,0,0,0,0,0,0,0,0,0,0,0,0,0],"id":7,"left_children":[1,3,5,7,9,11,13,15,17,19,21,23,-1,-1,25,27,-1,-1,29,31,33,35,37,39,41,-1,43,45,47,49,-1,-1,51,-1,-1,53,55,57,-1,59,61,-1,-1,-1,63,-1,-1,-1,-1,-1,-1,-1,-1,-1,-1,-1,-1,-1,-1,-1,-1,-1,-1,-1,-1],"loss_changes":[5.6782365E-1,2.0537987E-1,7.6623863E-1,4.0818146E-1,5.564339E-1,3.3360595E-1,2.209248E-1,1.5715185E-1,1.7247365E-1,1.5493476E-1,1.5184751E-1,2.729931E-1,0E0,0E0,9.026569E-2,1.00262076E-1,0E0,0E0,1.04979515E-1,8.10858E-2,4.4073105E-2,1.0911897E-1,1.1069453E-1,8.785465E-2,7.809907E-2,0E0,7.666996E-2,1.7077594E-1,1.3181674E-1,6.601727E-2,0E0,0E0,4.1815042E-2,0E0,0E0,4.189913E-2,1.6234767E-1,1.4077076E-1,0E0,1.9011545E-1,3.761085E-1,0E0,0E0,0E0,1.2768024E-1,0E0,0E0,0E0,0E0,0E0,0E0,0E0,0E0,0E0,0E0,0E0,0E0,0E0,0E0,0E0,0E0,0E0,0E0,0E0,0E0],"parents":[2147483647,0,0,1,1,2,2,3,3,4,4,5,5,6,6,7,7,8,8,9,9,10,10,11,11,14,14,15,15,18,18,19,19,20,20,21,21,22,22,23,23,24,24,26,26,27,27,28,28,29,29,32,32,35,35,36,36,37,37,39,39,40,40,44,44],"right_children":[2,4,6,8,10,12,14,16,18,20,22,24,-1,-1,26,28,-1,-1,30,32,34,36,38,40,42,-1,44,46,48,50,-1,-1,52,-1,-1,54,56,58,-1,60,62,-1,-1,-1,64,-1,-1,-1,-1,-1,-1,-1,-1,-1,-1,-1,-1,-1,-1,-1,-1,-1,-1,-1,-1],"split_conditions":[5.87E4,1.1553E4,5.2708E4,8.928E3,2.7297E4,2.096E1,1.22373E5,8.769E3,8.39268E5,-2.2E2,5.7413E4,1.74247E5,-8.788667E-3,8.388714E-3,1.3091E4,5.530379E6,1.0539988E-2,2.618405E-3,8.777363E10,-9.41E2,1.1794E4,2.9588204E10,8.42853E5,9.1429E4,1.8E5,1.6415428E-2,1.845E5,1.3579E6,7.882E3,8.4E1,-6.385845E-3,-6.345145E-4,-7.21E2,-3.1580823E-3,3.934465E-3,5.713E4,3.6098E4,5.7915E4,-1.6916496E-3,8.6323E4,1.19E5,-3.1013254E-3,-7.1715144E-3,7.322172E-4,2.5E5,5.2380427E-3,-1.4456091E-4,6.135752E-3,1.4970475E-5,-2.306886E-3,-4.0357414E-4,1.6233442E-2,8.482897E-3,1.9169756E-3,-5.03435E-3,-1.7563894E-3,7.931126E-4,1.1347263E-2,9.002302E-4,-1.0449884E-3,-5.3547653E-3,4.4623055E-3,-7.177319E-4,5.446311E-3,1.0634182E-3],"split_indices":[4,6,14,4,4,20,3,3,1,0,6,4,0,0,7,1,0,0,2,0,4,2,1,6,3,0,6,1,6,0,0,0,0,0,0,3,3,3,0,3,3,0,0,0,4,0,0,0,0,0,0,0,0,0,0,0,0,0,0,0,0,0,0,0,0],"split_type":[0,0,0,0,0,0,0,0,0,0,0,0,0,0,0,0,0,0,0,0,0,0,0,0,0,0,0,0,0,0,0,0,0,0,0,0,0,0,0,0,0,0,0,0,0,0,0,0,0,0,0,0,0,0,0,0,0,0,0,0,0,0,0,0,0],"sum_hessian":[2.15E3,8.47E2,1.303E3,3.38E2,5.09E2,1.158E3,1.45E2,1.28E2,2.1E2,9.9E1,4.1E2,1.145E3,1.3E1,1.4E1,1.31E2,1.23E2,5E0,2.3E1,1.87E2,2.2E1,7.7E1,3.93E2,1.7E1,1.074E3,7.1E1,1E0,1.3E2,8.7E1,3.6E1,1.76E2,1.1E1,2E0,2E1,2E0,7.5E1,1.16E2,2.77E2,1.3E1,4E0,5.63E2,5.11E2,5.7E1,1.4E1,6.7E1,6.3E1,1.7E1,7E1,2.3E1,1.3E1,1.02E2,7.4E1,2E0,1.8E1,1.14E2,2E0,8.3E1,1.94E2,8E0,5E0,5.38E2,2.5E1,3.5E1,4.76E2,2.9E1,3.4E1],"tree_param":{"num_deleted":"0","num_feature":"116","num_nodes":"65","size_leaf_vector":"1"}},{"base_weights":[-4.428238E-4,1.6982555E-1,-1.991349E-3,1.3331798E-1,1.1895529E-2,1.41081745E-2,-1.260199E-2,7.3330724E-3,-3.7837552E-3,1.2460768E-2,2.06476E-1,-1.8470002E-2,4.3288626E-2,-5.9770765E-3,2.5190784E-2,2.6091808E-1,-5.209152E-3,-1.6977048E-2,-8.256782E-3,8.4888464E-4,6.63448E-2,2.7760426E-2,-3.0306386E-2,1.0217482E-1,9.649426E-3,2.0118822E-4,1.4948501E-2,-1.2651822E-2,-7.15966E-2,1.7345261E-3,1.7177163E-1,7.943891E-3,9.894869E-4,3.5796303E-3,-1.794285E-3,1.70185E-3,6.503438E-3,5.2850056E-3,3.6737268E-4,-1.1446773E-3,-2.5030027E-5,-2.766196E-3,-6.532076E-3,1.0086784E-2,-2.2268405E-3],"categories":[],"categories_nodes":[],"categories_segments":[],"categories_sizes":[],"default_left":[0,0,0,0,0,0,0,0,0,0,0,0,0,0,0,0,0,0,0,0,0,0,0,0,0,0,0,0,0,0,0,0,0,0,0,0,0,0,0,0,0,0,0,0,0],"id":8,"left_children":[1,3,5,7,-1,9,11,-1,-1,13,15,17,19,21,23,25,-1,27,-1,-1,29,31,33,35,37,-1,-1,39,41,-1,43,-1,-1,-1,-1,-1,-1,-1,-1,-1,-1,-1,-1,-1,-1],"loss_changes":[5.5625427E-1,4.8454404E-2,3.5838073E-1,5.2443847E-2,0E0,2.614346E-1,4.14607E-1,0E0,0E0,1.9410004E-1,1.2218365E-1,2.5876576E-1,7.011591E-2,2.76664E-1,5.837728E-1,7.187569E-2,0E0,2.6691976E-1,0E0,0E0,1.9944704E-1,1.378094E-1,1.4058469E-1,1.7694539E-1,8.138204E-2,0E0,0E0,1.4092454E-1,7.3210746E-2,0E0,1.1587727E-1,0E0,0E0,0E0,0E0,0E0,0E0,0E0,0E0,0E0,0E0,0E0,0E0,0E0,0E0],"parents":[2147483647,0,0,1,1,2,2,3,3,5,5,6,6,9,9,10,10,11,11,12,12,13,13,14,14,15,15,17,17,20,20,21,21,22,22,23,23,24,24,27,27,28,28,30,30],"right_children":[2,4,6,8,-1,10,12,-1,-1,14,16,18,20,22,24,26,-1,28,-1,-1,30,32,34,36,38,-1,-1,40,42,-1,44,-1,-1,-1,-1,-1,-1,-1,-1,-1,-1,-1,-1,-1,-1],"split_conditions":[1.374E3,2.57E3,5.8386E4,1.22373E5,1.1895529E-2,5.7413E4,5.4972E4,7.3330724E-3,-3.7837552E-3,1.1794E4,7.19379E5,1.381E1,5.32299E5,9.085E3,2.3789E4,5.7695E4,-5.209152E-3,1.6944E5,-8.256782E-3,8.4888464E-4,4.3562E4,6.805E3,7.01433E5,1.3716E4,1.4931312E10,2.0118822E-4,1.4948501E-2,8.7736E4,1.8E5,1.7345261E-3,7.31178E5,7.943891E-3,9.894869E-4,3.5796303E-3,-1.794285E-3,1.70185E-3,6.503438E-3,5.2850056E-3,3.6737268E-4,-1.1446773E-3,-2.5030027E-5,-2.766196E-3,-6.532076E-3,1.0086784E-2,-2.2268405E-3],"split_indices":[12,10,4,3,0,6,13,0,0,4,1,23,1,4,6,4,0,6,0,0,7,3,1,5,2,0,0,5,3,0,1,0,0,0,0,0,0,0,0,0,0,0,0,0,0],"split_type":[0,0,0,0,0,0,0,0,0,0,0,0,0,0,0,0,0,0,0,0,0,0,0,0,0,0,0,0,0,0,0,0,0,0,0,0,0,0,0,0,0,0,0,0,0],"sum_hessian":[2.117E3,1.9E1,2.098E3,1.3E1,6E0,8.33E2,1.265E3,1.2E1,1E0,8.26E2,7E0,1.145E3,1.2E2,3.37E2,4.89E2,6E0,1E0,1.134E3,1.1E1,5.7E1,6.3E1,1.41E2,1.96E2,8.2E1,4.07E2,1E0,5E0,1.051E3,8.3E1,4.9E1,1.4E1,7E0,1.34E2,1.2E1,1.84E2,2.7E1,5.5E1,8E0,3.99E2,5.49E2,5.02E2,6.8E1,1.5E1,1.2E1,2E0],"tree_param":{"num_deleted":"0","num_feature":"116","num_nodes":"45","size_leaf_vector":"1"}},{"base_weights":[-1.0501279E-3,-5.1028635E-3,5.464675E-2,1.1711071E-2,-2.1860596E-2,9.287817E-3,4.0860794E-2,2.3064109E-2,-2.142098E-3,-1.9956745E-2,-7.92873E-3,5.2543206E-4,5.8050044E-2,6.258364E-2,1.2790076E-2,5.946519E-2,-1.1774823E-2,-1.4931037E-2,-6.833165E-2,1.0220771E-1,1.5834477E-3,3.828863E-2,1.1148842E-1,7.68017E-2,1.1087893E-2,6.398075E-5,1.0666552E-1,-3.3440143E-2,1.766224E-2,-3.1282306E-2,-1.5042893E-3,-5.683141E-2,-6.942717E-3,6.71077E-2,2.1555556E-1,5.4076933E-3,1.159392E-3,8.902986E-3,4.384264E-3,8.7647914E-4,1.1028847E-2,1.5319991E-3,2.5829597E-4,5.852366E-3,1.0771815E-3,-1.0207801E-3,-3.867895E-3,3.512009E-3,-3.2011E-4,-1.3251618E-3,-4.0307953E-3,4.5337672E-3,-5.0772546E-4,-7.373628E-3,-2.424589E-3,2.4432273E-4,5.4952516E-3,5.6503867E-3,1.37940515E-2],"categories":[],"categories_nodes":[],"categories_segments":[],"categories_sizes":[],"default_left":[0,0,0,0,0,0,0,0,0,0,0,0,0,0,0,0,0,0,0,0,0,0,0,0,0,0,0,0,0,0,0,0,0,0,0,0,0,0,0,0,0,0,0,0,0,0,0,0,0,0,0,0,0,0,0,0,0,0,0],"id":9,"left_children":[1,3,5,7,9,-1,11,13,15,17,-1,-1,19,21,23,25,27,29,31,33,-1,35,37,39,41,-1,43,45,47,49,51,53,-1,55,57,-1,-1,-1,-1,-1,-1,-1,-1,-1,-1,-1,-1,-1,-1,-1,-1,-1,-1,-1,-1,-1,-1,-1,-1],"loss_changes":[4.7932702E-1,5.585789E-1,2.7090278E-1,1.5578903E-1,2.671868E-1,0E0,6.669229E-2,2.2000477E-1,2.6355135E-1,2.372872E-1,0E0,0E0,9.089035E-2,1.3130751E-1,4.604906E-2,1.6344185E-1,2.4573654E-1,1.9458024E-1,7.754344E-2,1.1596453E-1,0E0,7.7326104E-2,5.235088E-2,9.5121466E-2,4.9460467E-2,0E0,3.905204E-2,1.2623692E-1,2.1911684E-1,7.847917E-2,4.1926238E-1,4.8092723E-2,0E0,6.542834E-2,4.348877E-2,0E0,0E0,0E0,0E0,0E0,0E0,0E0,0E0,0E0,0E0,0E0,0E0,0E0,0E0,0E0,0E0,0E0,0E0,0E0,0E0,0E0,0E0,0E0,0E0],"parents":[2147483647,0,0,1,1,2,2,3,3,4,4,6,6,7,7,8,8,9,9,12,12,13,13,14,14,15,15,16,16,17,17,18,18,19,19,21,21,22,22,23,23,24,24,26,26,27,27,28,28,29,29,30,30,31,31,33,33,34,34],"right_children":[2,4,6,8,10,-1,12,14,16,18,-1,-1,20,22,24,26,28,30,32,34,-1,36,38,40,42,-1,44,46,48,50,52,54,-1,56,58,-1,-1,-1,-1,-1,-1,-1,-1,-1,-1,-1,-1,-1,-1,-1,-1,-1,-1,-1,-1,-1,-1,-1,-1],"split_conditions":[5.2708E4,6.0269E4,1.215E5,1.272753E6,1.381E1,9.287817E-3,4.23962E5,2.7278E4,7.751E3,1.6944E5,-7.92873E-3,5.2543206E-4,2.0256E4,1.2761E4,-2.04E3,3.900151E6,1.1983E4,9.1429E4,1.81257E5,1.865E5,1.5834477E-3,8.602E3,6.87898E5,1.195745E6,5.30107E5,6.398075E-5,3.67E2,1.0072E4,2.5721E4,8.6323E4,1.205E5,-5.007E3,-6.942717E-3,5.49265E5,4.55072E5,5.4076933E-3,1.159392E-3,8.902986E-3,4.384264E-3,8.7647914E-4,1.1028847E-2,1.5319991E-3,2.5829597E-4,5.852366E-3,1.0771815E-3,-1.0207801E-3,-3.867895E-3,3.512009E-3,-3.2011E-4,-1.3251618E-3,-4.0307953E-3,4.5337672E-3,-5.0772546E-4,-7.373628E-3,-2.424589E-3,2.4432273E-4,5.4952516E-3,5.6503867E-3,1.37940515E-2],"split_indices":[14,6,6,1,23,0,1,6,6,6,0,0,17,6,0,1,6,6,6,6,0,6,1,1,1,0,0,6,6,6,6,0,0,1,1,0,0,0,0,0,0,0,0,0,0,0,0,0,0,0,0,0,0,0,0,0,0,0,0],"split_type":[0,0,0,0,0,0,0,0,0,0,0,0,0,0,0,0,0,0,0,0,0,0,0,0,0,0,0,0,0,0,0,0,0,0,0,0,0,0,0,0,0,0,0,0,0,0,0,0,0,0,0,0,0,0,0,0,0,0,0],"sum_hessian":[2.126E3,1.982E3,1.44E2,9.89E2,9.93E2,1.3E1,1.31E2,5.44E2,4.45E2,9.8E2,1.3E1,4.8E1,8.3E1,1.12E2,4.32E2,6E1,3.85E2,8.88E2,9.2E1,3E1,5.3E1,7.5E1,3.7E1,1.1E1,4.21E2,2.7E1,3.3E1,2.22E2,1.63E2,4E2,4.88E2,8E1,1.2E1,2.3E1,7E0,1.2E1,6.3E1,8E0,2.9E1,8E0,3E0,9.1E1,3.3E2,2.8E1,5E0,1.76E2,4.6E1,5E1,1.13E2,3.73E2,2.7E1,4.2E1,4.46E2,5E0,7.5E1,1E1,1.3E1,3E0,4E0],"tree_param":{"num_deleted":"0","num_feature":"116","num_nodes":"59","size_leaf_vector":"1"}},{"base_weights":[2.3550265E-4,-3.790542E-3,5.490959E-2,1.7044106E-2,-1.5783405E-2,8.159408E-3,4.3644696E-2,1.1101208E-2,7.504601E-2,-1.1900029E-2,-2.9713532E-3,2.6224754E-3,6.901368E-2,4.1072726E-2,1.0050437E-3,4.6696365E-3,1.8350697E-3,-1.0782609E-2,-6.7045605E-3,3.050501E-2,-1.2503884E-3,1.6079203E-3,1.4123301E-1,2.3171049E-2,1.2120165E-1,6.322913E-2,-7.1423743E-3,-1.9362576E-2,6.11003E-4,4.0498036E-3,7.227392E-5,1.7405147E-2,1.23032965E-1,3.3351923E-3,3.6572514E-4,7.054042E-3,1.7991725E-3,-1.7014927E-3,5.441137E-3,-1.593569E-3,4.8914243E-4,-7.711496E-4,-4.094804E-3,4.072859E-3,-4.0551866E-4,1.4203716E-2,5.1853824E-3],"categories":[],"categories_nodes":[],"categories_segments":[],"categories_sizes":[],"default_left":[0,0,0,0,0,0,0,0,0,0,0,0,0,0,0,0,0,0,0,0,0,0,0,0,0,0,0,0,0,0,0,0,0,0,0,0,0,0,0,0,0,0,0,0,0,0,0],"id":10,"left_children":[1,3,5,7,9,-1,11,13,15,17,-1,19,21,23,25,-1,-1,27,-1,29,-1,-1,31,33,35,37,39,41,43,-1,-1,-1,45,-1,-1,-1,-1,-1,-1,-1,-1,-1,-1,-1,-1,-1,-1],"loss_changes":[4.6856987E-1,4.9472904E-1,1.8530071E-1,2.4821958E-1,2.2272342E-1,0E0,1.3759854E-1,1.9802287E-1,5.2316666E-2,1.6281337E-1,0E0,4.0655363E-2,2.0930335E-1,2.3500305E-1,2.4957828E-1,0E0,0E0,1.1253987E-1,0E0,3.9332844E-2,0E0,0E0,1.0177207E-1,9.58446E-2,6.0783654E-2,2.7916574E-1,1.9441459E-1,1.4405164E-1,3.7339032E-1,0E0,0E0,0E0,6.1650723E-2,0E0,0E0,0E0,0E0,0E0,0E0,0E0,0E0,0E0,0E0,0E0,0E0,0E0,0E0],"parents":[2147483647,0,0,1,1,2,2,3,3,4,4,6,6,7,7,8,8,9,9,11,11,12,12,13,13,14,14,17,17,19,19,22,22,23,23,24,24,25,25,26,26,27,27,28,28,32,32],"right_children":[2,4,6,8,10,-1,12,14,16,18,-1,20,22,24,26,-1,-1,28,-1,30,-1,-1,32,34,36,38,40,42,44,-1,-1,-1,46,-1,-1,-1,-1,-1,-1,-1,-1,-1,-1,-1,-1,-1,-1],"split_conditions":[5.2708E4,5.1009E4,1.20971E5,4.4166E4,1.68839E5,8.159408E-3,7.3680806E10,1.8051863E10,4.9439E4,1.1547E4,-2.9713532E-3,5.6253E4,3.37E0,1.4126E4,7.667E3,4.6696365E-3,1.8350697E-3,9.1429E4,-6.7045605E-3,1.52416E5,-1.2503884E-3,1.6079203E-3,-4.606E3,8.733E3,2.9838E4,3.900151E6,1.2183E4,8.6637E4,1.18968E5,4.0498036E-3,7.227392E-5,1.7405147E-2,1.3091E4,3.3351923E-3,3.6572514E-4,7.054042E-3,1.7991725E-3,-1.7014927E-3,5.441137E-3,-1.593569E-3,4.8914243E-4,-7.711496E-4,-4.094804E-3,4.072859E-3,-4.0551866E-4,1.4203716E-2,5.1853824E-3],"split_indices":[14,5,5,4,6,0,2,2,5,7,0,13,34,4,5,0,0,6,0,5,0,0,0,6,3,1,4,4,5,0,0,0,7,0,0,0,0,0,0,0,0,0,0,0,0,0,0],"split_type":[0,0,0,0,0,0,0,0,0,0,0,0,0,0,0,0,0,0,0,0,0,0,0,0,0,0,0,0,0,0,0,0,0,0,0,0,0,0,0,0,0,0,0,0,0,0,0],"sum_hessian":[2.126E3,1.98E3,1.46E2,7.23E2,1.257E3,1.3E1,1.33E2,6.56E2,6.7E1,1.159E3,9.8E1,5.1E1,8.2E1,1.65E2,4.91E2,4.2E1,2.5E1,1.149E3,1E1,2.6E1,2.5E1,5.5E1,2.7E1,1.35E2,3E1,5.7E1,4.34E2,6.56E2,4.93E2,9E0,1.7E1,2E0,2.5E1,3.4E1,1.01E2,2.3E1,7E0,1.9E1,3.8E1,1.74E2,2.6E2,6.24E2,3.2E1,4.8E1,4.45E2,2E0,2.3E1],"tree_param":{"num_deleted":"0","num_feature":"116","num_nodes":"47","size_leaf_vector":"1"}},{"base_weights":[8.5494097E-4,1.3866057E-1,-5.1262503E-4,8.475408E-3,6.2823735E-2,1.3337491E-2,-1.11565925E-2,-3.4691873E-3,1.1860026E-2,1.1499495E-1,1.1053863E-2,-1.649246E-2,1.6372721E-3,2.1623936E-4,1.5102996E-1,1.830111E-2,-1.6736176E-2,-7.7522714E-3,-3.8592935E-2,1.1592977E-2,4.341904E-3,3.596207E-2,6.6642324E-3,3.6881417E-2,-3.1139541E-2,-3.4684803E-2,4.915509E-3,-3.572637E-2,-8.574216E-3,7.179867E-4,3.2070351E-3,-2.013984E-3,9.0029486E-4,-8.264347E-4,4.848884E-3,-2.3266056E-3,2.2794327E-3,-6.5962935E-4,-4.3580146E-3,1.6314564E-2,2.0470608E-4,-1.522623E-3,-5.7296245E-3],"categories":[],"categories_nodes":[],"categories_segments":[],"categories_sizes":[],"default_left":[0,0,0,0,0,0,0,0,0,0,0,0,0,0,0,0,0,0,0,0,0,0,0,0,0,0,0,0,0,0,0,0,0,0,0,0,0,0,0,0,0,0,0],"id":11,"left_children":[1,3,5,-1,7,9,11,-1,-1,13,15,17,-1,-1,19,21,23,25,27,-1,-1,29,31,33,35,37,39,41,-1,-1,-1,-1,-1,-1,-1,-1,-1,-1,-1,-1,-1,-1,-1],"loss_changes":[4.0300986E-1,5.607748E-2,3.1088793E-1,0E0,1.7513058E-1,2.111828E-1,2.86846E-1,0E0,0E0,7.7899724E-2,1.8048018E-1,2.0556933E-1,0E0,0E0,7.770157E-2,1.456325E-1,1.428296E-1,2.6134855E-1,1.1790091E-1,0E0,0E0,1.8042225E-1,2.4885665E-1,1.3503203E-1,1.955492E-1,2.8525218E-1,1.1260827E-1,1.0065988E-1,0E0,0E0,0E0,0E0,0E0,0E0,0E0,0E0,0E0,0E0,0E0,0E0,0E0,0E0,0E0],"parents":[2147483647,0,0,1,1,2,2,4,4,5,5,6,6,9,9,10,10,11,11,14,14,15,15,16,16,17,17,18,18,21,21,22,22,23,23,24,24,25,25,26,26,27,27],"right_children":[2,4,6,-1,8,10,12,-1,-1,14,16,18,-1,-1,20,22,24,26,28,-1,-1,30,32,34,36,38,40,42,-1,-1,-1,-1,-1,-1,-1,-1,-1,-1,-1,-1,-1,-1,-1],"split_conditions":[1.374E3,1.22373E5,5.9955E4,8.475408E-3,2.57E3,6.805E3,5.2708E4,-3.4691873E-3,1.1860026E-2,3.900151E6,2.402591E6,1.56221E5,1.6372721E-3,2.1623936E-4,7.005E3,3.026E4,7.667E3,6.7583E4,1.1547E4,1.1592977E-2,4.341904E-3,1.3716E4,3.6255E4,4.645677E6,1.2025E4,6.278E4,6.4036E4,1.84E5,-8.574216E-3,7.179867E-4,3.2070351E-3,-2.013984E-3,9.0029486E-4,-8.264347E-4,4.848884E-3,-2.3266056E-3,2.2794327E-3,-6.5962935E-4,-4.3580146E-3,1.6314564E-2,2.0470608E-4,-1.522623E-3,-5.7296245E-3],"split_indices":[12,3,4,0,10,5,14,0,0,1,1,4,0,0,4,4,5,4,9,0,0,5,4,1,3,5,5,4,0,0,0,0,0,0,0,0,0,0,0,0,0,0,0],"split_type":[0,0,0,0,0,0,0,0,0,0,0,0,0,0,0,0,0,0,0,0,0,0,0,0,0,0,0,0,0,0,0,0,0,0,0,0,0,0,0,0,0,0,0],"sum_hessian":[2.13E3,2.1E1,2.109E3,1.4E1,7E0,9.16E2,1.193E3,4E0,3E0,2E1,8.96E2,1.067E3,1.26E2,5E0,1.5E1,7.11E2,1.85E2,7.65E2,3.02E2,6E0,9E0,2.82E2,4.29E2,3.9E1,1.46E2,2.45E2,5.2E2,2.96E2,6E0,1.67E2,1.15E2,8.5E1,3.44E2,2.1E1,1.8E1,1.2E2,2.6E1,1.78E2,6.7E1,1E0,5.19E2,2.82E2,1.4E1],"tree_param":{"num_deleted":"0","num_feature":"116","num_nodes":"43","size_leaf_vector":"1"}},{"base_weights":[3.5152314E-4,1.2881222E-1,-1.1119081E-3,1.0103878E-1,1.012329E-2,1.2945297E-2,-1.2425548E-2,6.4637046E-3,-2.878313E-3,1.4347994E-1,1.1521203E-2,-1.7255513E-2,3.4214064E-2,1.5368522E-3,2.1575277E-1,2.7517194E-2,1.5556737E-3,-1.5311998E-2,-5.4198685E-3,1.4632481E-2,5.4678194E-2,1.2240002E-2,6.696818E-4,6.44981E-2,1.6187707E-2,6.642013E-3,-2.8207218E-2,-1.3829122E-2,-6.3088764E-3,1.1849923E-3,-4.059446E-3,1.5606944E-3,1.4938374E-1,4.794482E-3,1.9320945E-3,7.2924996E-4,1.4073266E-2,3.4462314E-3,2.2007091E-4,3.3530013E-3,-2.8666274E-3,-1.6091198E-3,-3.8332876E-4,8.338365E-3,-2.3987822E-3],"categories":[],"categories_nodes":[],"categories_segments":[],"categories_sizes":[],"default_left":[0,0,0,0,0,0,0,0,0,0,0,0,0,0,0,0,0,0,0,0,0,0,0,0,0,0,0,0,0,0,0,0,0,0,0,0,0,0,0,0,0,0,0,0,0],"id":12,"left_children":[1,3,5,7,-1,9,11,-1,-1,13,15,17,19,-1,21,23,25,27,-1,29,31,-1,-1,33,35,37,39,41,-1,-1,-1,-1,43,-1,-1,-1,-1,-1,-1,-1,-1,-1,-1,-1,-1],"loss_changes":[4.0077233E-1,5.0169826E-2,3.3397835E-1,9.6278846E-2,0E0,1.7219292E-1,2.62027E-1,0E0,0E0,7.7840924E-2,1.4727911E-1,1.9345966E-1,4.2875364E-2,0E0,4.2924404E-2,1.4779902E-1,8.619653E-2,1.753292E-1,0E0,5.426673E-2,1.0995954E-1,0E0,0E0,6.913373E-2,7.682539E-2,6.49067E-2,2.5304723E-1,1.1680485E-1,0E0,0E0,0E0,0E0,4.8258707E-2,0E0,0E0,0E0,0E0,0E0,0E0,0E0,0E0,0E0,0E0,0E0,0E0],"parents":[2147483647,0,0,1,1,2,2,3,3,5,5,6,6,9,9,10,10,11,11,12,12,14,14,15,15,16,16,17,17,19,19,20,20,23,23,24,24,25,25,26,26,27,27,32,32],"right_children":[2,4,6,8,-1,10,12,-1,-1,14,16,18,20,-1,22,24,26,28,-1,30,32,-1,-1,34,36,38,40,42,-1,-1,-1,-1,44,-1,-1,-1,-1,-1,-1,-1,-1,-1,-1,-1,-1],"split_conditions":[1.374E3,2.57E3,5.9641E4,1.22373E5,1.012329E-2,6.621E3,5.2708E4,6.4637046E-3,-2.878313E-3,7.032368E6,9.65609E5,1.78052E5,5.46493E5,1.5368522E-3,7.974634E10,2.9838E4,4.645677E6,1.1547E4,-5.4198685E-3,1.88E5,4.3562E4,1.2240002E-2,6.696818E-4,7.31178E5,5.499467E10,-1.802E3,7.882E3,6.7175E4,-6.3088764E-3,1.1849923E-3,-4.059446E-3,1.5606944E-3,7.31178E5,4.794482E-3,1.9320945E-3,7.2924996E-4,1.4073266E-2,3.4462314E-3,2.2007091E-4,3.3530013E-3,-2.8666274E-3,-1.6091198E-3,-3.8332876E-4,8.338365E-3,-2.3987822E-3],"split_indices":[12,10,3,3,0,5,14,0,0,1,1,3,1,0,2,3,1,7,0,3,7,0,0,1,2,0,3,5,0,0,0,0,1,0,0,0,0,0,0,0,0,0,0,0,0],"split_type":[0,0,0,0,0,0,0,0,0,0,0,0,0,0,0,0,0,0,0,0,0,0,0,0,0,0,0,0,0,0,0,0,0,0,0,0,0,0,0,0,0,0,0,0,0],"sum_hessian":[2.124E3,2.4E1,2.1E3,1.8E1,6E0,9.36E2,1.164E3,1.5E1,3E0,1E1,9.26E2,1.055E3,1.09E2,4E0,6E0,3.55E2,5.71E2,1.034E3,2.1E1,5.6E1,5.3E1,5E0,1E0,8.3E1,2.72E2,4.88E2,8.3E1,1.021E3,1.3E1,5.1E1,5E0,4.3E1,1E1,3.4E1,4.9E1,2.71E2,1E0,1.5E1,4.73E2,2E1,6.3E1,2.36E2,7.85E2,9E0,1E0],"tree_param":{"num_deleted":"0","num_feature":"116","num_nodes":"45","size_leaf_vector":"1"}},{"base_weights":[-1.1183679E-3,1.34951845E-2,-1.0259235E-2,5.4559624E-3,1.16303805E-2,-1.606906E-2,3.6257174E-2,-7.964546E-3,2.4173694E-2,-1.089887E-2,-4.9630925E-2,7.3277215E-3,2.485571E-2,2.3121733E-2,-2.8206682E-2,9.1587655E-2,7.6291366E-3,-9.685749E-3,-5.810778E-3,-1.9981123E-3,-4.18545E-3,7.8688137E-4,4.1676786E-2,5.552125E-2,5.151978E-3,2.408415E-2,-4.4403274E-2,1.0337241E-1,1.0068474E-3,-1.6214566E-2,2.1449376E-2,-2.0569272E-2,4.4665732E-3,7.868688E-4,-2.3372502E-3,1.0848187E-3,9.317665E-2,2.1947145E-3,1.2488265E-2,-1.7454132E-3,1.2191121E-3,-2.6871767E-3,2.2782325E-3,-1.7096606E-3,-3.6652014E-3,4.0819235E-3,8.221495E-3,3.4697886E-4,-1.6813719E-3,2.0777562E-3,1.7680445E-4,-7.597413E-4,-3.5006995E-3,3.915529E-3,-2.1960275E-4,1.5996536E-3,7.6193945E-3],"categories":[],"categories_nodes":[],"categories_segments":[],"categories_sizes":[],"default_left":[0,0,0,0,0,0,0,0,0,0,0,0,0,0,0,0,0,0,0,0,0,0,0,0,0,0,0,0,0,0,0,0,0,0,0,0,0,0,0,0,0,0,0,0,0,0,0,0,0,0,0,0,0,0,0,0,0],"id":13,"left_children":[1,3,5,-1,7,9,11,13,15,17,19,-1,21,23,25,27,29,31,-1,-1,-1,33,35,37,39,41,43,45,-1,47,49,51,53,-1,-1,-1,55,-1,-1,-1,-1,-1,-1,-1,-1,-1,-1,-1,-1,-1,-1,-1,-1,-1,-1,-1,-1],"loss_changes":[2.8582868E-1,1.5138862E-1,3.5570082E-1,0E0,1.9878684E-1,2.024917E-1,1.9039483E-1,1.9828986E-1,5.487231E-1,1.333634E-1,4.606414E-2,0E0,5.33629E-2,7.149961E-2,1.6202317E-1,7.939339E-2,1.3056125E-1,1.548318E-1,0E0,0E0,0E0,4.1677937E-2,7.575023E-2,8.612287E-2,6.640432E-2,8.301758E-2,4.001382E-2,1.0131335E-1,0E0,6.356921E-2,9.5953524E-2,1.4137883E-1,3.0242452E-1,0E0,0E0,0E0,7.939115E-2,0E0,0E0,0E0,0E0,0E0,0E0,0E0,0E0,0E0,0E0,0E0,0E0,0E0,0E0,0E0,0E0,0E0,0E0,0E0,0E0],"parents":[2147483647,0,0,1,1,2,2,4,4,5,5,6,6,7,7,8,8,9,9,10,10,12,12,13,13,14,14,15,15,16,16,17,17,21,21,22,22,23,23,24,24,25,25,26,26,27,27,29,29,30,30,31,31,32,32,36,36],"right_children":[2,4,6,-1,8,10,12,14,16,18,20,-1,22,24,26,28,30,32,-1,-1,-1,34,36,38,40,42,44,46,-1,48,50,52,54,-1,-1,-1,56,-1,-1,-1,-1,-1,-1,-1,-1,-1,-1,-1,-1,-1,-1,-1,-1,-1,-1,-1,-1],"split_conditions":[5.8386E4,6.805E3,3.0218E4,5.4559624E-3,1.1773E4,1.65434E5,1.20971E5,9.085E3,2.7278E4,1.1547E4,1.79454E5,7.3277215E-3,4.58184E5,2.1039956E10,1.121672E6,5.5346295E10,3.6255E4,9.1429E4,-5.810778E-3,-1.9981123E-3,-4.18545E-3,1.85262E5,3.37E0,2.0751708E10,3.900151E6,9.248E3,4.645677E6,1.772548E6,1.0068474E-3,3.1799525E10,5.1009E4,8.3184E4,1.18968E5,7.868688E-4,-2.3372502E-3,1.0848187E-3,1.87E5,2.1947145E-3,1.2488265E-2,-1.7454132E-3,1.2191121E-3,-2.6871767E-3,2.2782325E-3,-1.7096606E-3,-3.6652014E-3,4.0819235E-3,8.221495E-3,3.4697886E-4,-1.6813719E-3,2.0777562E-3,1.7680445E-4,-7.597413E-4,-3.5006995E-3,3.915529E-3,-2.1960275E-4,1.5996536E-3,7.6193945E-3],"split_indices":[4,5,16,0,5,4,5,4,6,7,4,0,1,2,1,2,4,6,0,0,0,4,34,2,1,6,1,1,0,2,5,6,5,0,0,0,4,0,0,0,0,0,0,0,0,0,0,0,0,0,0,0,0,0,0,0,0],"split_type":[0,0,0,0,0,0,0,0,0,0,0,0,0,0,0,0,0,0,0,0,0,0,0,0,0,0,0,0,0,0,0,0,0,0,0,0,0,0,0,0,0,0,0,0,0,0,0,0,0,0,0,0,0,0,0,0,0],"sum_hessian":[2.14E3,8.23E2,1.317E3,1.5E1,8.08E2,1.171E3,1.46E2,3.15E2,4.93E2,1.015E3,1.56E2,1.3E1,1.33E2,1.24E2,1.91E2,9.7E1,3.96E2,1.004E3,1.1E1,1.28E2,2.8E1,5.5E1,7.8E1,4.4E1,8E1,4.5E1,1.46E2,8.3E1,1.4E1,1.45E2,2.51E2,5.68E2,4.36E2,4.2E1,1.3E1,5.7E1,2.1E1,4.2E1,2E0,2.6E1,5.4E1,1E1,3.5E1,1.14E2,3.2E1,6.5E1,1.8E1,6.4E1,8.1E1,1.13E2,1.38E2,5.2E2,4.8E1,4.6E1,3.9E2,1.1E1,1E1],"tree_param":{"num_deleted":"0","num_feature":"116","num_nodes":"57","size_leaf_vector":"1"}},{"base_weights":[3.46562E-4,-2.3511848E-3,5.2940406E-2,3.3816611E-3,-3.1302903E-2,-2.7657833E-4,7.046518E-2,6.8568245E-2,1.1195182E-3,-2.4878802E-2,-3.8711473E-3,5.440017E-3,7.014761E-4,-5.021607E-4,1.22867316E-1,1.7966446E-2,-5.834899E-3,-1.0881125E-3,-7.669139E-3,-1.8033988E-3,2.189191E-3,1.3142623E-1,-6.2419064E-3,-3.2489493E-3,2.777301E-2,-1.4717541E-2,1.8335255E-2,1.44809745E-2,5.754266E-3,2.367943E-3,-1.3633645E-3,3.2905533E-3,5.2543014E-4,-6.0718093E-4,-3.3316952E-3,3.6407777E-3,3.8316209E-4],"categories":[],"categories_nodes":[],"categories_segments":[],"categories_sizes":[],"default_left":[0,0,0,0,0,0,0,0,0,0,0,0,0,0,0,0,0,0,0,0,0,0,0,0,0,0,0,0,0,0,0,0,0,0,0,0,0],"id":14,"left_children":[1,3,5,7,9,-1,11,13,15,17,-1,-1,-1,19,21,23,25,-1,-1,-1,-1,27,-1,29,31,33,35,-1,-1,-1,-1,-1,-1,-1,-1,-1,-1],"loss_changes":[3.053546E-1,3.3941346E-1,1.0872784E-1,2.506203E-1,1.0501543E-1,0E0,1.9010127E-1,2.1523455E-1,1.9322316E-1,9.112376E-2,0E0,0E0,0E0,4.2244714E-2,6.935805E-2,1.0056637E-1,2.5029883E-1,0E0,0E0,0E0,0E0,5.833769E-2,0E0,1.9870825E-1,2.243258E-1,9.790923E-2,1.8487948E-1,0E0,0E0,0E0,0E0,0E0,0E0,0E0,0E0,0E0,0E0],"parents":[2147483647,0,0,1,1,2,2,3,3,4,4,6,6,7,7,8,8,9,9,13,13,14,14,15,15,16,16,21,21,23,23,24,24,25,25,26,26],"right_children":[2,4,6,8,10,-1,12,14,16,18,-1,-1,-1,20,22,24,26,-1,-1,-1,-1,28,-1,30,32,34,36,-1,-1,-1,-1,-1,-1,-1,-1,-1,-1],"split_conditions":[5.6253E4,1.52416E5,4.00386E5,7.667E3,1.75849E5,-2.7657833E-4,2.44E5,2.899211E10,3.0896972E10,1.542E1,-3.8711473E-3,5.440017E-3,7.014761E-4,7.241E3,7.56E2,1.087E4,9.1429E4,-1.0881125E-3,-7.669139E-3,-1.8033988E-3,2.189191E-3,3.0337274E10,-6.2419064E-3,8.874E3,2.9093E4,8.6637E4,1.18968E5,1.44809745E-2,5.754266E-3,2.367943E-3,-1.3633645E-3,3.2905533E-3,5.2543014E-4,-6.0718093E-4,-3.3316952E-3,3.6407777E-3,3.8316209E-4],"split_indices":[13,5,1,5,6,0,3,2,2,20,0,0,0,5,0,5,6,0,0,0,0,2,0,5,4,4,5,0,0,0,0,0,0,0,0,0,0],"split_type":[0,0,0,0,0,0,0,0,0,0,0,0,0,0,0,0,0,0,0,0,0,0,0,0,0,0,0,0,0,0,0,0,0,0,0,0,0],"sum_hessian":[2.148E3,2.043E3,1.05E2,1.705E3,3.38E2,2.4E1,8.1E1,5.7E1,1.648E3,2.99E2,3.9E1,4.6E1,3.5E1,2.5E1,3.2E1,4.82E2,1.166E3,2.94E2,5E0,1.4E1,1.1E1,3.1E1,1E0,1.52E2,3.3E2,8.53E2,3.13E2,2E0,2.9E1,4.9E1,1.03E2,9.7E1,2.33E2,8.21E2,3.2E1,4.8E1,2.65E2],"tree_param":{"num_deleted":"0","num_feature":"116","num_nodes":"37","size_leaf_vector":"1"}},{"base_weights":[-4.0980827E-4,-3.5350206E-3,4.259207E-2,1.51104275E-2,-1.3949451E-2,6.59225E-3,3.1640053E-2,3.298111E-2,2.5602398E-3,-1.2835442E-2,-6.312817E-3,-4.4908455E-5,4.3294016E-2,5.597284E-2,1.843354E-2,8.730621E-2,-1.1990783E-3,-9.22257E-3,-3.915711E-2,8.39088E-4,8.0838464E-2,3.260595E-2,9.426616E-2,-2.1171996E-3,5.805549E-2,-5.021588E-4,1.2574597E-1,-1.41902305E-2,2.1105828E-2,-1.6407339E-2,2.2464378E-3,-1.6718106E-3,-5.299186E-3,4.8060462E-2,1.3844989E-1,5.125973E-3,9.806677E-4,6.004054E-3,2.602469E-4,1.9030026E-4,-3.3414296E-3,4.4096876E-3,9.5024094E-4,9.906753E-3,3.58559E-3,-4.0696825E-5,-3.248901E-3,3.9928746E-3,-3.607283E-4,-1.4163974E-5,-1.5278311E-3,3.5168552E-3,-2.9857946E-4,4.6448116E-3,-3.5806277E-3,8.19202E-3,-2.1110717E-3],"categories":[],"categories_nodes":[],"categories_segments":[],"categories_sizes":[],"default_left":[0,0,0,0,0,0,0,0,0,0,0,0,0,0,0,0,0,0,0,0,0,0,0,0,0,0,0,0,0,0,0,0,0,0,0,0,0,0,0,0,0,0,0,0,0,0,0,0,0,0,0,0,0,0,0,0,0],"id":15,"left_children":[1,3,5,7,9,-1,11,13,15,17,-1,-1,19,21,23,25,27,29,31,-1,33,35,37,39,41,-1,43,45,47,49,51,-1,-1,53,55,-1,-1,-1,-1,-1,-1,-1,-1,-1,-1,-1,-1,-1,-1,-1,-1,-1,-1,-1,-1,-1,-1],"loss_changes":[2.8768626E-1,3.8816118E-1,1.4736065E-1,1.6017742E-1,1.6539614E-1,0E0,4.98385E-2,9.780413E-2,1.3512193E-1,1.20307624E-1,0E0,0E0,9.2224285E-2,1.0051775E-1,1.4803731E-1,6.9003716E-2,1.1670395E-1,9.22902E-2,4.7023565E-2,0E0,7.1437865E-2,6.2730566E-2,1.138477E-1,4.918811E-2,7.801089E-2,0E0,4.9844354E-2,1.8010649E-1,2.6169598E-1,1.6879979E-1,2.570105E-1,0E0,0E0,1.4779182E-1,8.156696E-2,0E0,0E0,0E0,0E0,0E0,0E0,0E0,0E0,0E0,0E0,0E0,0E0,0E0,0E0,0E0,0E0,0E0,0E0,0E0,0E0,0E0,0E0],"parents":[2147483647,0,0,1,1,2,2,3,3,4,4,6,6,7,7,8,8,9,9,12,12,13,13,14,14,15,15,16,16,17,17,18,18,20,20,21,21,22,22,23,23,24,24,26,26,27,27,28,28,29,29,30,30,33,33,34,34],"right_children":[2,4,6,8,10,-1,12,14,16,18,-1,-1,20,22,24,26,28,30,32,-1,34,36,38,40,42,-1,44,46,48,50,52,-1,-1,54,56,-1,-1,-1,-1,-1,-1,-1,-1,-1,-1,-1,-1,-1,-1,-1,-1,-1,-1,-1,-1,-1,-1],"split_conditions":[4.8476E4,5.1794E4,1.20971E5,1.272753E6,2.096E1,6.59225E-3,5.479146E10,2.8357E4,6.805E3,1.62E5,-6.312817E-3,-4.4908455E-5,3.37E0,1.3391E4,4.4166E4,3.755932E6,1.1983E4,8.9776E4,1.825E5,8.39088E-4,5.49265E5,8.592E3,2.4040403E10,1.195745E6,4.9439E4,-5.021588E-4,7.005E3,1.0135E4,2.4366E4,4.1786147E10,1.18968E5,-1.6718106E-3,-5.299186E-3,2.002E3,7.31178E5,5.125973E-3,9.806677E-4,6.004054E-3,2.602469E-4,1.9030026E-4,-3.3414296E-3,4.4096876E-3,9.5024094E-4,9.906753E-3,3.58559E-3,-4.0696825E-5,-3.248901E-3,3.9928746E-3,-3.607283E-4,-1.4163974E-5,-1.5278311E-3,3.5168552E-3,-2.9857946E-4,4.6448116E-3,-3.5806277E-3,8.19202E-3,-2.1110717E-3],"split_indices":[18,5,5,1,20,0,2,6,5,5,0,0,34,4,4,1,6,5,6,0,1,5,2,1,5,0,4,4,4,2,5,0,0,0,1,0,0,0,0,0,0,0,0,0,0,0,0,0,0,0,0,0,0,0,0,0,0],"split_type":[0,0,0,0,0,0,0,0,0,0,0,0,0,0,0,0,0,0,0,0,0,0,0,0,0,0,0,0,0,0,0,0,0,0,0,0,0,0,0,0,0,0,0,0,0,0,0,0,0,0,0,0,0,0,0,0,0],"sum_hessian":[2.144E3,1.999E3,1.45E2,7.16E2,1.283E3,1.5E1,1.3E2,2.95E2,4.21E2,1.271E3,1.2E1,3.4E1,9.6E1,1.14E2,1.81E2,1.8E1,4.03E2,1.118E3,1.53E2,5.7E1,3.9E1,7.1E1,4.3E1,1.19E2,6.2E1,5E0,1.3E1,2.55E2,1.48E2,6.88E2,4.3E2,1.44E2,9E0,2.5E1,1.4E1,1E1,6.1E1,3.2E1,1.1E1,1.09E2,1E1,3.3E1,2.9E1,5E0,8E0,2.04E2,5.1E1,4.7E1,1.01E2,3.35E2,3.53E2,4.6E1,3.84E2,1.8E1,7E0,1.2E1,2E0],"tree_param":{"num_deleted":"0","num_feature":"116","num_nodes":"57","size_leaf_vector":"1"}},{"base_weights":[3.1608093E-4,-2.6943204E-3,4.0563144E-2,1.3089977E-2,-1.405147E-2,6.683358E-3,3.2601442E-2,2.6585132E-2,3.9102283E-4,-1.1745952E-2,-3.217025E-3,3.795981E-2,-2.0396276E-3,5.6429286E-2,1.5505433E-2,1.21347226E-1,-2.1956502E-3,-1.0673363E-2,-5.211153E-3,1.7220931E-2,6.6155605E-2,3.5568208E-2,8.6491585E-2,1.1681302E-2,1.2204056E-1,4.5004024E-4,1.0055303E-2,-1.4889297E-2,1.5997812E-2,-1.9205652E-2,-1.8162881E-3,1.659533E-1,1.2900311E-2,8.807927E-3,5.6568254E-2,4.299008E-3,9.131375E-4,5.5217734E-3,9.1183145E-4,-3.3755618E-4,9.820292E-4,7.98456E-3,-2.2187147E-3,9.5384405E-4,-1.9675607E-3,3.8702993E-3,-6.153776E-4,-7.688063E-4,-4.903019E-3,7.787588E-4,-1.1000732E-3,-0E0,1.622566E-2,1.0796432E-2,4.693391E-4,-1.9856483E-4,3.3854037E-3],"categories":[],"categories_nodes":[],"categories_segments":[],"categories_sizes":[],"default_left":[0,0,0,0,0,0,0,0,0,0,0,0,0,0,0,0,0,0,0,0,0,0,0,0,0,0,0,0,0,0,0,0,0,0,0,0,0,0,0,0,0,0,0,0,0,0,0,0,0,0,0,0,0,0,0,0,0],"id":16,"left_children":[1,3,5,7,9,-1,11,13,15,17,-1,19,-1,21,23,25,27,29,-1,31,33,35,37,39,41,-1,-1,43,45,47,49,51,53,-1,55,-1,-1,-1,-1,-1,-1,-1,-1,-1,-1,-1,-1,-1,-1,-1,-1,-1,-1,-1,-1,-1,-1],"loss_changes":[2.5766122E-1,3.5406345E-1,1.1340839E-1,1.412468E-1,1.3849565E-1,0E0,5.494225E-2,1.3143045E-1,1.3466363E-1,1.1229767E-1,0E0,7.388085E-2,0E0,6.629318E-2,1.1740938E-1,8.536893E-2,9.6295916E-2,8.205547E-2,0E0,4.5475088E-2,5.738938E-2,5.5765577E-2,8.159956E-2,4.5836564E-2,7.457711E-2,0E0,0E0,2.210127E-1,3.165565E-1,1.479844E-1,2.0168164E-1,5.9130885E-2,4.5461513E-2,0E0,4.203558E-2,0E0,0E0,0E0,0E0,0E0,0E0,0E0,0E0,0E0,0E0,0E0,0E0,0E0,0E0,0E0,0E0,0E0,0E0,0E0,0E0,0E0,0E0],"parents":[2147483647,0,0,1,1,2,2,3,3,4,4,6,6,7,7,8,8,9,9,11,11,13,13,14,14,15,15,16,16,17,17,19,19,20,20,21,21,22,22,23,23,24,24,27,27,28,28,29,29,30,30,31,31,32,32,34,34],"right_children":[2,4,6,8,10,-1,12,14,16,18,-1,20,-1,22,24,26,28,30,-1,32,34,36,38,40,42,-1,-1,44,46,48,50,52,54,-1,56,-1,-1,-1,-1,-1,-1,-1,-1,-1,-1,-1,-1,-1,-1,-1,-1,-1,-1,-1,-1,-1,-1],"split_conditions":[5.2708E4,5.8386E4,1.2017E5,1.272753E6,1.755E5,6.683358E-3,3.085E5,2.8357E4,6.805E3,1.1547E4,-3.217025E-3,1.845E5,-2.0396276E-3,1.1794E4,5.7413E4,4.5675516E10,1.1983E4,9.1429E4,-5.211153E-3,-4.606E3,1.865E5,8.602E3,2.3719508E10,3.861E4,8.42853E5,4.5004024E-4,1.0055303E-2,8.832E3,2.6362E4,8.6323E4,1.56221E5,-6.5E3,1.3091E4,8.807927E-3,4.00386E5,4.299008E-3,9.131375E-4,5.5217734E-3,9.1183145E-4,-3.3755618E-4,9.820292E-4,7.98456E-3,-2.2187147E-3,9.5384405E-4,-1.9675607E-3,3.8702993E-3,-6.153776E-4,-7.688063E-4,-4.903019E-3,7.787588E-4,-1.1000732E-3,-0E0,1.622566E-2,1.0796432E-2,4.693391E-4,-1.9856483E-4,3.3854037E-3],"split_indices":[14,4,3,1,4,0,4,6,3,7,0,6,0,4,6,2,6,6,0,0,6,6,2,4,1,0,0,6,4,3,4,0,7,0,1,0,0,0,0,0,0,0,0,0,0,0,0,0,0,0,0,0,0,0,0,0,0],"split_type":[0,0,0,0,0,0,0,0,0,0,0,0,0,0,0,0,0,0,0,0,0,0,0,0,0,0,0,0,0,0,0,0,0,0,0,0,0,0,0,0,0,0,0,0,0,0,0,0,0,0,0,0,0,0,0,0,0],"sum_hessian":[2.123E3,1.975E3,1.48E2,8.26E2,1.149E3,1.1E1,1.37E2,4E2,4.26E2,1.101E3,4.8E1,1.28E2,9E0,1.08E2,2.92E2,9E0,4.17E2,1.089E3,1.2E1,7.4E1,5.4E1,6.4E1,4.4E1,2.82E2,1E1,4E0,5E0,2.46E2,1.71E2,5.54E2,5.35E2,2E0,7.2E1,4E0,5E1,1.5E1,4.9E1,3.1E1,1.3E1,8.9E1,1.93E2,8E0,2E0,1.05E2,1.41E2,5.3E1,1.18E2,5.33E2,2.1E1,2.88E2,2.47E2,1E0,1E0,1E0,7.1E1,9E0,4.1E1],"tree_param":{"num_deleted":"0","num_feature":"116","num_nodes":"57","size_leaf_vector":"1"}},{"base_weights":[5.0630915E-4,1.0705158E-1,-6.0664536E-4,7.762565E-2,8.842283E-3,1.1107188E-2,-8.397148E-3,-2.4845904E-2,5.4390365E-3,9.811511E-3,1.16957575E-1,-1.2118225E-2,2.7182108E-2,7.331091E-3,-4.245814E-3,4.657717E-2,6.867926E-3,2.0937578E-1,-9.182063E-4,-1.1011719E-2,-6.0113836E-3,8.905776E-3,4.619901E-2,5.464186E-4,7.814702E-2,1.3066998E-2,-3.38302E-2,-3.9206874E-3,1.3020172E-2,-9.366117E-3,-3.1525902E-3,2.0955042E-4,1.2916756E-2,8.392735E-2,7.316036E-4,8.099393E-3,2.7465273E-3,3.1454216E-3,4.98195E-4,-1.8972728E-3,2.4668132E-3,-1.1218141E-3,-1.7890763E-4,-3.205672E-4,5.1157544E-3],"categories":[],"categories_nodes":[],"categories_segments":[],"categories_sizes":[],"default_left":[0,0,0,0,0,0,0,0,0,0,0,0,0,0,0,0,0,0,0,0,0,0,0,0,0,0,0,0,0,0,0,0,0,0,0,0,0,0,0,0,0,0,0,0,0],"id":17,"left_children":[1,3,5,7,-1,9,11,13,-1,15,17,19,21,-1,-1,23,25,27,-1,29,-1,31,33,-1,35,37,39,-1,-1,41,-1,-1,-1,43,-1,-1,-1,-1,-1,-1,-1,-1,-1,-1,-1],"loss_changes":[2.5249887E-1,4.6180367E-2,1.9133638E-1,5.8652E-2,0E0,1.1332021E-1,1.66648E-1,4.424441E-2,0E0,8.888227E-2,1.2808532E-1,1.4042555E-1,4.0724345E-2,0E0,0E0,6.685978E-2,1.9302464E-1,1.0815975E-1,0E0,1.0016096E-1,0E0,6.889968E-2,6.677137E-2,0E0,5.824296E-2,9.414627E-2,4.7032423E-2,0E0,0E0,8.587125E-2,0E0,0E0,0E0,5.3229406E-2,0E0,0E0,0E0,0E0,0E0,0E0,0E0,0E0,0E0,0E0,0E0],"parents":[2147483647,0,0,1,1,2,2,3,3,5,5,6,6,7,7,9,9,10,10,11,11,12,12,15,15,16,16,17,17,19,19,21,21,22,22,24,24,25,25,26,26,29,29,33,33],"right_children":[2,4,6,8,-1,10,12,14,-1,16,18,20,22,-1,-1,24,26,28,-1,30,-1,32,34,-1,36,38,40,-1,-1,42,-1,-1,-1,44,-1,-1,-1,-1,-1,-1,-1,-1,-1,-1,-1],"split_conditions":[1.374E3,2.57E3,5.8386E4,4.23962E5,8.842283E-3,5.7413E4,5.4972E4,2.48279E5,5.4390365E-3,7.751E3,6.62E2,1.247E1,1.845E5,7.331091E-3,-4.245814E-3,3.900151E6,3.374648E6,-8.78E2,-9.182063E-4,1.78252E5,-6.0113836E-3,1.835E5,2.5E5,5.464186E-4,6.784E3,8.754E3,1.9776E4,-3.9206874E-3,1.3020172E-2,6.7583E4,-3.1525902E-3,2.0955042E-4,1.2916756E-2,3.41145E5,7.316036E-4,8.099393E-3,2.7465273E-3,3.1454216E-3,4.98195E-4,-1.8972728E-3,2.4668132E-3,-1.1218141E-3,-1.7890763E-4,-3.205672E-4,5.1157544E-3],"split_indices":[12,10,4,1,0,6,13,1,0,6,0,32,6,0,0,1,1,0,0,4,0,5,4,0,6,5,4,0,0,4,0,0,0,1,0,0,0,0,0,0,0,0,0,0,0],"split_type":[0,0,0,0,0,0,0,0,0,0,0,0,0,0,0,0,0,0,0,0,0,0,0,0,0,0,0,0,0,0,0,0,0,0,0,0,0,0,0,0,0,0,0,0,0],"sum_hessian":[2.119E3,2.2E1,2.097E3,1.6E1,6E0,8.37E2,1.26E3,4E0,1.2E1,8.27E2,1E1,1.141E3,1.19E2,1E0,3E0,6.1E1,7.66E2,6E0,4E0,1.13E3,1.1E1,6.1E1,5.8E1,2.9E1,3.2E1,6.65E2,1.01E2,1E0,5E0,1.097E3,3.3E1,6E1,1E0,2.6E1,3.2E1,6E0,2.6E1,3.3E1,6.32E2,9.5E1,6E0,3.17E2,7.8E2,5E0,2.1E1],"tree_param":{"num_deleted":"0","num_feature":"116","num_nodes":"45","size_leaf_vector":"1"}},{"base_weights":[4.8150928E-4,1.1205662E-2,-8.725906E-3,1.952372E-2,1.1387969E-3,-1.4440663E-2,3.2206554E-2,4.482251E-2,1.0768102E-2,3.736274E-2,-4.6358397E-3,-1.313033E-2,-5.1590544E-3,6.1135413E-3,2.4109572E-2,1.9821383E-2,6.791978E-2,-2.1736486E-2,1.6377093E-2,-2.0936807E-4,7.4346036E-2,2.3349647E-3,-4.43672E-2,-3.7012123E-2,-8.316622E-3,1.2206823E-2,2.2220585E-2,4.001728E-3,4.396442E-3,8.883562E-2,1.2343348E-3,-1.4866032E-3,-3.8751015E-3,4.206315E-2,7.3653194E-3,7.4394266E-3,5.6110527E-2,-1.0469502E-2,1.3395887E-2,-9.778487E-4,-5.154944E-3,-2.0431977E-2,-4.8970953E-3,1.3926083E-3,-1.2542577E-3,4.28489E-3,3.91624E-2,2.6280563E-3,-6.201587E-4,3.6823575E-3,1.0755714E-2,1.1091587E-3,-2.3907449E-3,2.9824462E-4,3.250223E-3,1.4817886E-3,5.844225E-6,4.9103093E-3,9.050103E-4,1.4421432E-3,-1.3554882E-3,3.170405E-3,-5.1747233E-4,1.5628272E-4,-1.7492741E-3,6.735807E-3,-7.4192653E-6,7.198106E-4,-2.8066668E-3,1.1067276E-2,1.5918259E-3],"categories":[],"categories_nodes":[],"categories_segments":[],"categories_sizes":[],"default_left":[0,0,0,0,0,0,0,0,0,0,0,0,0,0,0,0,0,0,0,0,0,0,0,0,0,0,0,0,0,0,0,0,0,0,0,0,0,0,0,0,0,0,0,0,0,0,0,0,0,0,0,0,0,0,0,0,0,0,0,0,0,0,0,0,0,0,0,0,0,0,0],"id":18,"left_children":[1,3,5,7,9,11,13,15,17,19,21,23,-1,-1,25,27,29,31,33,-1,35,37,39,41,43,-1,45,-1,47,49,-1,51,-1,53,55,-1,57,59,61,-1,-1,63,-1,65,-1,67,69,-1,-1,-1,-1,-1,-1,-1,-1,-1,-1,-1,-1,-1,-1,-1,-1,-1,-1,-1,-1,-1,-1,-1,-1],"loss_changes":[2.1173337E-1,8.2746066E-2,2.6951328E-1,1.1941317E-1,9.430359E-2,1.212447E-1,1.0612719E-1,7.924655E-2,7.341945E-2,9.645181E-2,1.07672185E-1,1.1420572E-1,0E0,0E0,5.297272E-2,6.423476E-2,6.2421113E-2,6.906022E-2,7.905801E-2,0E0,4.553403E-2,4.6633374E-2,8.585664E-2,1.7713882E-1,1.4293054E-1,0E0,3.8699977E-2,0E0,4.714293E-2,7.689962E-2,0E0,5.2097537E-2,0E0,7.9960495E-2,4.2774744E-2,0E0,4.466133E-2,1.0812174E-1,2.2401401E-1,0E0,0E0,5.020452E-2,0E0,1.1616999E-1,0E0,4.136483E-2,7.4355096E-2,0E0,0E0,0E0,0E0,0E0,0E0,0E0,0E0,0E0,0E0,0E0,0E0,0E0,0E0,0E0,0E0,0E0,0E0,0E0,0E0,0E0,0E0,0E0,0E0],"parents":[2147483647,0,0,1,1,2,2,3,3,4,4,5,5,6,6,7,7,8,8,9,9,10,10,11,11,14,14,15,15,16,16,17,17,18,18,20,20,21,21,22,22,23,23,24,24,26,26,28,28,29,29,31,31,33,33,34,34,36,36,37,37,38,38,41,41,43,43,45,45,46,46],"right_children":[2,4,6,8,10,12,14,16,18,20,22,24,-1,-1,26,28,30,32,34,-1,36,38,40,42,44,-1,46,-1,48,50,-1,52,-1,54,56,-1,58,60,62,-1,-1,64,-1,66,-1,68,70,-1,-1,-1,-1,-1,-1,-1,-1,-1,-1,-1,-1,-1,-1,-1,-1,-1,-1,-1,-1,-1,-1,-1,-1],"split_conditions":[6.1054E4,1.272753E6,1.08961E5,3.026E4,7.751E3,1.1547E4,1.23E5,1.1794E4,3.7166E4,2.899211E10,4.645677E6,6.7583E4,-5.1590544E-3,6.1135413E-3,1.3091E4,8.592E3,2.4040403E10,3.0032366E10,5.1009E4,-2.0936807E-4,6.784E3,1.1794E4,9.112E3,6.4978E4,1.52416E5,1.2206823E-2,5.49265E5,4.001728E-3,7.31178E5,1.160475E6,1.2343348E-3,3.5279E4,-3.8751015E-3,4.4166E4,2.692217E10,7.4394266E-3,5.699263E6,8.874E3,2.5721E4,-9.778487E-4,-5.154944E-3,6.21342E5,-4.8970953E-3,6.4978E4,-1.2542577E-3,8.2552504E10,5.6824E5,2.6280563E-3,-6.201587E-4,3.6823575E-3,1.0755714E-2,1.1091587E-3,-2.3907449E-3,2.9824462E-4,3.250223E-3,1.4817886E-3,5.844225E-6,4.9103093E-3,9.050103E-4,1.4421432E-3,-1.3554882E-3,3.170405E-3,-5.1747233E-4,1.5628272E-4,-1.7492741E-3,6.735807E-3,-7.4192653E-6,7.198106E-4,-2.8066668E-3,1.1067276E-2,1.5918259E-3],"split_indices":[4,1,15,4,6,7,4,4,5,2,1,4,0,0,7,5,2,2,5,0,6,4,5,6,5,0,1,0,1,1,0,4,0,4,2,0,1,5,6,0,0,1,0,5,0,2,1,0,0,0,0,0,0,0,0,0,0,0,0,0,0,0,0,0,0,0,0,0,0,0,0],"split_type":[0,0,0,0,0,0,0,0,0,0,0,0,0,0,0,0,0,0,0,0,0,0,0,0,0,0,0,0,0,0,0,0,0,0,0,0,0,0,0,0,0,0,0,0,0,0,0,0,0,0,0,0,0,0,0,0,0,0,0,0,0,0,0,0,0,0,0,0,0,0,0],"sum_hessian":[2.144E3,9.91E2,1.153E3,5.42E2,4.49E2,1.012E3,1.41E2,1.39E2,4.03E2,6.2E1,3.87E2,9.98E2,1.4E1,1.1E1,1.3E2,6.7E1,7.2E1,5.9E1,3.44E2,2.9E1,3.3E1,3.29E2,5.8E1,1.67E2,8.31E2,1E0,1.29E2,1.3E1,5.4E1,4.8E1,2.4E1,4.4E1,1.5E1,8.9E1,2.55E2,6E0,2.7E1,1.52E2,1.77E2,4.2E1,1.6E1,1.33E2,3.4E1,5.36E2,2.95E2,6.3E1,6.6E1,1.4E1,4E1,4.4E1,4E0,2.9E1,1.5E1,3.7E1,5.2E1,6E1,1.95E2,1.2E1,1.5E1,4.6E1,1.06E2,5.6E1,1.21E2,5.3E1,8E1,6E0,5.3E2,5.4E1,9E0,2E0,6.4E1],"tree_param":{"num_deleted":"0","num_feature":"116","num_nodes":"71","size_leaf_vector":"1"}},{"base_weights":[3.2777805E-4,-2.3018501E-3,3.9265823E-2,2.4116614E-3,-2.9920297E-2,6.132357E-3,3.130442E-2,2.2915073E-2,-1.7189013E-3,-2.6534768E-2,-4.3866546E-3,-2.2187847E-5,5.0426833E-2,2.5856446E-2,-3.1645962E-3,7.195258E-2,-3.442476E-3,-1.1700556E-3,-6.0965563E-3,2.5973119E-2,1.2440052E-1,1.2097365E-2,4.3269683E-2,-7.3742744E-4,1.2484568E-1,-3.5815284E-2,2.767823E-4,1.8730748E-3,-1.3442738E-3,7.0882477E-3,-2.9406745E-3,2.4695077E-3,-4.2931395E-4,4.0930146E-3,8.924926E-4,5.026869E-3,1.1440822E-2,-1.164629E-3,-4.105328E-3,4.0408177E-3,-1.1081957E-4],"categories":[],"categories_nodes":[],"categories_segments":[],"categories_sizes":[],"default_left":[0,0,0,0,0,0,0,0,0,0,0,0,0,0,0,0,0,0,0,0,0,0,0,0,0,0,0,0,0,0,0,0,0,0,0,0,0,0,0,0,0],"id":19,"left_children":[1,3,5,7,9,-1,11,13,15,17,-1,-1,19,21,-1,23,25,-1,-1,27,29,31,33,-1,35,37,39,-1,-1,-1,-1,-1,-1,-1,-1,-1,-1,-1,-1,-1,-1],"loss_changes":[2.1688592E-1,2.5807545E-1,9.183867E-2,1.4345747E-1,5.830139E-2,0E0,7.529487E-2,7.350108E-2,1.7787468E-1,6.069702E-2,0E0,0E0,1.3753806E-1,6.524618E-2,0E0,1.4900137E-1,1.6596472E-1,0E0,0E0,4.0268604E-2,8.044189E-2,1.268813E-1,1.2338388E-1,0E0,4.2167068E-2,8.04234E-2,2.6583406E-1,0E0,0E0,0E0,0E0,0E0,0E0,0E0,0E0,0E0,0E0,0E0,0E0,0E0,0E0],"parents":[2147483647,0,0,1,1,2,2,3,3,4,4,6,6,7,7,8,8,9,9,12,12,13,13,15,15,16,16,19,19,20,20,21,21,22,22,24,24,25,25,26,26],"right_children":[2,4,6,8,10,-1,12,14,16,18,-1,-1,20,22,-1,24,26,-1,-1,28,30,32,34,-1,36,38,40,-1,-1,-1,-1,-1,-1,-1,-1,-1,-1,-1,-1,-1,-1],"split_conditions":[1.08961E5,1.56822E5,1.22173E5,2.2405575E10,1.8E5,6.132357E-3,4.00386E5,6.435E4,7.803E3,1.1547E4,-4.3866546E-3,-2.2187847E-5,8.465E1,1.1794E4,-3.1645962E-3,2.981229E10,1.2025E4,-1.1700556E-3,-6.0965563E-3,3.015E5,7.05503E5,8.933E3,2.8399E4,-7.3742744E-4,7.409E3,1.0397E4,2.4366E4,1.8730748E-3,-1.3442738E-3,7.0882477E-3,-2.9406745E-3,2.4695077E-3,-4.2931395E-4,4.0930146E-3,8.924926E-4,5.026869E-3,1.1440822E-2,-1.164629E-3,-4.105328E-3,4.0408177E-3,-1.1081957E-4],"split_indices":[15,4,4,2,3,0,1,4,4,7,0,0,28,4,0,2,3,0,0,3,1,3,3,0,3,4,4,0,0,0,0,0,0,0,0,0,0,0,0,0,0],"split_type":[0,0,0,0,0,0,0,0,0,0,0,0,0,0,0,0,0,0,0,0,0,0,0,0,0,0,0,0,0,0,0,0,0,0,0,0,0,0,0,0,0],"sum_hessian":[2.114E3,1.98E3,1.34E2,1.691E3,2.89E2,1.1E1,1.23E2,2.84E2,1.407E3,2.74E2,1.5E1,4.6E1,7.7E1,2.75E2,9E0,3.2E1,1.375E3,2.68E2,6E0,5.8E1,1.9E1,1.54E2,1.21E2,1.2E1,2E1,1.42E2,1.233E3,4.7E1,1.1E1,1.7E1,2E0,5.4E1,1E2,4.5E1,7.6E1,1.7E1,3E0,1.15E2,2.7E1,3.7E1,1.196E3],"tree_param":{"num_deleted":"0","num_feature":"116","num_nodes":"41","size_leaf_vector":"1"}},{"base_weights":[-8.171454E-4,-3.443993E-3,3.9476585E-2,1.0801154E-2,-1.4026909E-2,5.684219E-3,3.2187823E-2,9.548497E-3,1.1572594E-1,-8.595049E-3,-2.9912733E-2,7.3873084E-3,4.6910796E-2,9.778913E-2,8.373564E-3,1.5664298E-2,6.161171E-2,-1.891709E-2,1.0604783E-2,-1.332206E-3,-5.904943E-3,1.00684E-3,-3.0905246E-3,1.3246172E-3,8.310394E-2,1.741289E-5,7.3200143E-3,-2.7775024E-3,1.5800815E-2,-1.3736337E-3,1.5436216E-1,-1.4817345E-2,-8.413254E-2,7.7892266E-2,3.6579452E-3,3.6042623E-2,1.5710734E-1,9.988137E-4,-9.850608E-4,3.378633E-3,3.6586082E-4,1.1357544E-2,-3.7289578E-3,-8.480097E-4,1.9399811E-3,-4.533676E-3,3.0006678E-3,-1.0212326E-2,4.3008067E-3,-4.9720163E-4,7.244679E-4,1.1287859E-2,1.0561406E-3,4.5696716E-3,1.1927814E-2],"categories":[],"categories_nodes":[],"categories_segments":[],"categories_sizes":[],"default_left":[0,0,0,0,0,0,0,0,0,0,0,0,0,0,0,0,0,0,0,0,0,0,0,0,0,0,0,0,0,0,0,0,0,0,0,0,0,0,0,0,0,0,0,0,0,0,0,0,0,0,0,0,0,0,0],"id":20,"left_children":[1,3,5,7,9,-1,11,13,15,17,19,21,23,25,27,-1,29,31,33,-1,-1,-1,-1,-1,35,-1,-1,37,39,-1,41,43,45,47,49,51,53,-1,-1,-1,-1,-1,-1,-1,-1,-1,-1,-1,-1,-1,-1,-1,-1,-1,-1],"loss_changes":[2.266269E-1,3.0366203E-1,7.302873E-2,1.11316144E-1,9.930524E-2,0E0,4.319165E-2,8.668649E-2,1.08504325E-1,1.7093329E-1,6.079197E-2,4.2872183E-2,5.1520795E-2,5.611185E-2,6.9473416E-2,0E0,6.845672E-2,1.4884087E-1,1.3976158E-1,0E0,0E0,0E0,0E0,0E0,8.829816E-2,0E0,0E0,1.3833477E-1,2.2325246E-1,0E0,7.739154E-2,7.990241E-2,4.794514E-2,9.006758E-2,4.335254E-2,4.184062E-2,5.2057043E-2,0E0,0E0,0E0,0E0,0E0,0E0,0E0,0E0,0E0,0E0,0E0,0E0,0E0,0E0,0E0,0E0,0E0,0E0],"parents":[2147483647,0,0,1,1,2,2,3,3,4,4,6,6,7,7,8,8,9,9,10,10,11,11,12,12,13,13,14,14,16,16,17,17,18,18,24,24,27,27,28,28,30,30,31,31,32,32,33,33,34,34,35,35,36,36],"right_children":[2,4,6,8,10,-1,12,14,16,18,20,22,24,26,28,-1,30,32,34,-1,-1,-1,-1,-1,36,-1,-1,38,40,-1,42,44,46,48,50,52,54,-1,-1,-1,-1,-1,-1,-1,-1,-1,-1,-1,-1,-1,-1,-1,-1,-1,-1],"split_conditions":[1.8259E4,5.8386E4,1.22173E5,5.7413E4,1.56822E5,5.684219E-3,6.402845E10,6.805E3,2.692217E10,9.1429E4,1.1547E4,1.815E5,1.056E1,2.5270174E10,1.1983E4,1.5664298E-2,5.7601E4,8.6637E4,1.12359E5,-1.332206E-3,-5.904943E-3,1.00684E-3,-3.0905246E-3,1.3246172E-3,1.82E5,1.741289E-5,7.3200143E-3,8.933E3,2.3789E4,-1.3736337E-3,5.7915E4,8.1928E4,8.9776E4,8.7736E4,1.38396E5,1.3091E4,8.6525985E10,9.988137E-4,-9.850608E-4,3.378633E-3,3.6586082E-4,1.1357544E-2,-3.7289578E-3,-8.480097E-4,1.9399811E-3,-4.533676E-3,3.0006678E-3,-1.0212326E-2,4.3008067E-3,-4.9720163E-4,7.244679E-4,1.1287859E-2,1.0561406E-3,4.5696716E-3,1.1927814E-2],"split_indices":[17,4,4,6,4,0,2,3,2,6,7,3,23,2,6,0,3,4,4,0,0,0,0,0,5,0,0,3,6,0,3,5,5,5,3,7,2,0,0,0,0,0,0,0,0,0,0,0,0,0,0,0,0,0,0],"split_type":[0,0,0,0,0,0,0,0,0,0,0,0,0,0,0,0,0,0,0,0,0,0,0,0,0,0,0,0,0,0,0,0,0,0,0,0,0,0,0,0,0,0,0,0,0,0,0,0,0,0,0,0,0,0,0],"sum_hessian":[2.145E3,2.014E3,1.31E2,8.58E2,1.156E3,1.1E1,1.2E2,8.48E2,1E1,8.62E2,2.94E2,4.5E1,7.5E1,1.1E1,8.37E2,2E0,8E0,5.61E2,3.01E2,2.87E2,7E0,3.8E1,7E0,4.9E1,2.6E1,4E0,7E0,3.34E2,5.03E2,4E0,4E0,5.28E2,3.3E1,2.8E1,2.73E2,1.6E1,1E1,1.43E2,1.91E2,6.6E1,4.37E2,3E0,1E0,5.03E2,2.5E1,3.1E1,2E0,1E0,2.7E1,1.22E2,1.51E2,1E0,1.5E1,6E0,4E0],"tree_param":{"num_deleted":"0","num_feature":"116","num_nodes":"55","size_leaf_vector":"1"}},{"base_weights":[-0E0,4.1273874E-3,-9.333564E-4,9.598603E-3,-7.916761E-3,8.17284E-3,1.15996554E-1,-1.1205769E-2,1.0417587E-3,8.2509615E-2,6.5095043E-3,1.538066E-1,-2.3315384E-3,-1.0112062E-2,-4.468023E-3,6.78737E-3,1.1070791E-3,2.1772655E-2,-4.5779283E-4,-4.2227837E-3,1.8550275E-1,-8.05844E-3,-2.4476831E-3,3.6969178E-4,2.1534823E-3,3.1815171E-3,-2.1202328E-4,-3.5513598E-3,1.081853E-2,-1.73391E-4,-9.803385E-4],"categories":[],"categories_nodes":[],"categories_segments":[],"categories_sizes":[],"default_left":[0,0,0,0,0,0,0,0,0,0,0,0,0,0,0,0,0,0,0,0,0,0,0,0,0,0,0,0,0,0,0],"id":21,"left_children":[1,-1,3,5,7,9,11,13,-1,15,17,19,-1,21,-1,-1,-1,23,25,-1,27,29,-1,-1,-1,-1,-1,-1,-1,-1,-1],"loss_changes":[1.7024882E-1,0E0,1.5524438E-1,1.2613846E-1,1.2314325E-1,1.0159682E-1,6.973496E-2,1.0056484E-1,0E0,6.0483694E-2,8.659733E-2,7.028231E-2,0E0,9.341303E-2,0E0,0E0,0E0,8.165471E-2,1.4489274E-1,0E0,8.235243E-2,5.851373E-2,0E0,0E0,0E0,0E0,0E0,0E0,0E0,0E0,0E0],"parents":[2147483647,0,0,2,2,3,3,4,4,5,5,6,6,7,7,9,9,10,10,11,11,13,13,17,17,18,18,20,20,21,21],"right_children":[2,-1,4,6,8,10,12,14,-1,16,18,20,-1,22,-1,-1,-1,24,26,-1,28,30,-1,-1,-1,-1,-1,-1,-1,-1,-1],"split_conditions":[1.374E3,4.1273874E-3,5.8386E4,5.7413E4,5.4972E4,-1.802E3,8.42853E5,1.1547E4,1.0417587E-3,5.2013E4,2.204446E10,4.12983E5,-2.3315384E-3,1.755E5,-4.468023E-3,6.78737E-3,1.1070791E-3,1.1794E4,7.803E3,-4.2227837E-3,-8.78E2,1.349E3,-2.4476831E-3,3.6969178E-4,2.1534823E-3,3.1815171E-3,-2.1202328E-4,-3.5513598E-3,1.081853E-2,-1.73391E-4,-9.803385E-4],"split_indices":[12,0,4,6,13,0,1,7,0,3,2,1,0,4,0,0,0,4,4,0,0,0,0,0,0,0,0,0,0,0,0],"split_type":[0,0,0,0,0,0,0,0,0,0,0,0,0,0,0,0,0,0,0,0,0,0,0,0,0,0,0,0,0,0,0],"sum_hessian":[2.134E3,2.3E1,2.111E3,8.41E2,1.27E3,8.3E2,1.1E1,1.143E3,1.27E2,1.8E1,8.12E2,9E0,2E0,1.128E3,1.5E1,9E0,9E0,2.55E2,5.57E2,1E0,8E0,1.074E3,5.4E1,1.58E2,9.7E1,3.1E1,5.26E2,1E0,7E0,7.88E2,2.86E2],"tree_param":{"num_deleted":"0","num_feature":"116","num_nodes":"31","size_leaf_vector":"1"}},{"base_weights":[1.319652E-3,-9.491964E-4,3.6590967E-2,3.5551772E-3,-2.5797006E-2,5.040182E-3,1.4213551E-3,1.5697692E-2,-7.841681E-4,-2.2651682E-2,-3.9479244E-3,3.4377244E-3,6.644873E-2,-4.9317707E-3,1.3029481E-2,-9.86056E-4,-5.3080027E-3,2.3842052E-2,-1.180964E-2,1.01335466E-1,4.4490073E-2,-2.7414798E-3,-3.0737512E-3,7.0518464E-2,1.6013569E-4,4.915446E-3,9.3834515E-4,1.3594533E-3,-9.056876E-4,7.5878906E-3,3.5109643E-3,4.0570986E-3,1.4013417E-4,-1.18727105E-4,-1.1842048E-2,-9.679256E-3,3.7463387E-3],"categories":[],"categories_nodes":[],"categories_segments":[],"categories_sizes":[],"default_left":[0,0,0,0,0,0,0,0,0,0,0,0,0,0,0,0,0,0,0,0,0,0,0,0,0,0,0,0,0,0,0,0,0,0,0,0,0],"id":22,"left_children":[1,3,5,7,9,-1,-1,11,13,15,-1,17,19,21,23,-1,-1,25,27,29,31,33,-1,35,-1,-1,-1,-1,-1,-1,-1,-1,-1,-1,-1,-1,-1],"loss_changes":[1.695052E-1,2.2242749E-1,6.0381845E-2,8.869269E-2,5.2525133E-2,0E0,0E0,2.7483794E-1,7.078046E-2,5.4380834E-2,0E0,1.1121331E-1,6.415415E-2,1.2179095E-1,1.5825394E-1,0E0,0E0,5.104045E-2,5.669155E-2,4.9950898E-2,8.6293414E-2,5.9680603E-2,0E0,7.806456E-2,0E0,0E0,0E0,0E0,0E0,0E0,0E0,0E0,0E0,0E0,0E0,0E0,0E0],"parents":[2147483647,0,0,1,1,2,2,3,3,4,4,7,7,8,8,9,9,11,11,12,12,13,13,14,14,17,17,18,18,19,19,20,20,21,21,23,23],"right_children":[2,4,6,8,10,-1,-1,12,14,16,-1,18,20,22,24,-1,-1,26,28,30,32,34,-1,36,-1,-1,-1,-1,-1,-1,-1,-1,-1,-1,-1,-1,-1],"split_conditions":[5.2708E4,1.56221E5,1.22173E5,2.8452E4,1.8E5,5.040182E-3,1.4213551E-3,1.3989E4,9.1429E4,1.1547E4,-3.9479244E-3,8.933E3,2.3719508E10,8.6637E4,1.18968E5,-9.86056E-4,-5.3080027E-3,6.784E3,9.198164E9,-1.56E2,2.4366E4,1.6254445E11,-3.0737512E-3,8.7736E4,1.6013569E-4,4.915446E-3,9.3834515E-4,1.3594533E-3,-9.056876E-4,7.5878906E-3,3.5109643E-3,4.0570986E-3,1.4013417E-4,-1.18727105E-4,-1.1842048E-2,-9.679256E-3,3.7463387E-3],"split_indices":[14,4,4,4,3,0,0,6,6,7,0,3,2,4,5,0,0,6,2,0,4,2,0,5,0,0,0,0,0,0,0,0,0,0,0,0,0],"split_type":[0,0,0,0,0,0,0,0,0,0,0,0,0,0,0,0,0,0,0,0,0,0,0,0,0,0,0,0,0,0,0,0,0,0,0,0,0],"sum_hessian":[2.113E3,1.985E3,1.28E2,1.68E3,3.05E2,1.2E1,1.16E2,4.43E2,1.237E3,2.89E2,1.6E1,3.57E2,8.6E1,9.52E2,2.85E2,2.82E2,7E0,1.53E2,2.04E2,3.3E1,5.3E1,9.18E2,3.4E1,4.1E1,2.44E2,8E0,1.45E2,3E1,1.74E2,1.1E1,2.2E1,2.7E1,2.6E1,9.17E2,1E0,1E0,4E1],"tree_param":{"num_deleted":"0","num_feature":"116","num_nodes":"37","size_leaf_vector":"1"}},{"base_weights":[1.0439033E-4,-2.3018387E-3,3.3310626E-2,1.5226429E-3,-2.2039743E-2,3.0914353E-2,9.649376E-3,9.4356894E-2,1.0195324E-3,-1.9903898E-2,-5.120646E-3,4.7405185E-3,1.2202671E-3,-2.569663E-5,8.316435E-3,1.9853387E-2,-1.1960804E-3,-8.2351576E-4,-3.103545E-3,-7.3080687E-3,1.9855278E-3,-4.5516943E-3,1.3674367E-2,1.709471E-3,-1.455329E-3,8.227727E-5,-8.9970307E-4,3.6320393E-3,1.4086356E-4],"categories":[],"categories_nodes":[],"categories_segments":[],"categories_sizes":[],"default_left":[0,0,0,0,0,0,0,0,0,0,0,0,0,0,0,0,0,0,0,0,0,0,0,0,0,0,0,0,0],"id":23,"left_children":[1,3,5,7,9,11,-1,13,15,17,-1,-1,-1,-1,-1,19,21,-1,-1,23,-1,25,27,-1,-1,-1,-1,-1,-1],"loss_changes":[1.7382582E-1,1.5302382E-1,5.5981472E-2,7.806786E-2,5.7614878E-2,5.3451672E-2,0E0,6.869849E-2,7.056993E-2,3.9481834E-2,0E0,0E0,0E0,0E0,0E0,1.0337732E-1,7.514486E-2,0E0,0E0,7.6158166E-2,0E0,1.08767636E-1,1.8262951E-1,0E0,0E0,0E0,0E0,0E0,0E0],"parents":[2147483647,0,0,1,1,2,2,3,3,4,4,5,5,7,7,8,8,9,9,15,15,16,16,19,19,21,21,22,22],"right_children":[2,4,6,8,10,12,-1,14,16,18,-1,-1,-1,-1,-1,20,22,-1,-1,24,-1,26,28,-1,-1,-1,-1,-1,-1],"split_conditions":[5.2708E4,1.53016E5,2.2137E4,6.805E3,2.062E3,1.22173E5,9.649376E-3,4.5675516E10,1.8051863E10,1.805E5,-5.120646E-3,4.7405185E-3,1.2202671E-3,-2.569663E-5,8.316435E-3,9.547E3,9.1429E4,-8.2351576E-4,-3.103545E-3,8.733E3,1.9855278E-3,6.1839E4,1.205E5,1.709471E-3,-1.455329E-3,8.227727E-5,-8.9970307E-4,3.6320393E-3,1.4086356E-4],"split_indices":[14,6,17,3,10,4,0,2,2,4,0,0,0,0,0,5,6,0,0,6,0,4,6,0,0,0,0,0,0],"split_type":[0,0,0,0,0,0,0,0,0,0,0,0,0,0,0,0,0,0,0,0,0,0,0,0,0,0,0,0,0],"sum_hessian":[2.171E3,2.024E3,1.47E2,1.695E3,3.29E2,1.45E2,2E0,9E0,1.686E3,3.21E2,8E0,1.1E1,1.34E2,4E0,5E0,1.78E2,1.508E3,3.02E2,1.9E1,7.8E1,1E2,1.231E3,2.77E2,2.7E1,5.1E1,8.52E2,3.79E2,4.1E1,2.36E2],"tree_param":{"num_deleted":"0","num_feature":"116","num_nodes":"29","size_leaf_vector":"1"}},{"base_weights":[-8.664332E-4,-2.630312E-3,2.3645416E-2,7.07584E-4,-2.327896E-2,4.219537E-3,8.2588557E-4,1.0894772E-2,-2.7647184E-3,-1.0419998E-3,-5.397162E-3,2.6516838E-4,1.7850833E-3,5.273287E-2,-4.2550988E-3,-2.6418464E-3,3.0822894E-3,-9.3100555E-3,1.2361383E-2,-3.6963433E-4,-3.0448115E-3,2.8078419E-3,2.1646307E-4],"categories":[],"categories_nodes":[],"categories_segments":[],"categories_sizes":[],"default_left":[0,0,0,0,0,0,0,0,0,0,0,0,0,0,0,0,0,0,0,0,0,0,0],"id":24,"left_children":[1,3,5,7,9,-1,-1,11,13,-1,-1,-1,-1,15,17,-1,-1,19,21,-1,-1,-1,-1],"loss_changes":[9.1506094E-2,1.3672857E-1,5.7931215E-2,6.037003E-2,3.9561957E-2,0E0,0E0,6.0672455E-2,1.0449083E-1,0E0,0E0,0E0,0E0,3.9722204E-2,1.03870034E-1,0E0,0E0,8.336341E-2,1.0323168E-1,0E0,0E0,0E0,0E0],"parents":[2147483647,0,0,1,1,2,2,3,3,4,4,7,7,8,8,13,13,14,14,17,17,18,18],"right_children":[2,4,6,8,10,-1,-1,12,14,-1,-1,-1,-1,16,18,-1,-1,20,22,-1,-1,-1,-1],"split_conditions":[1.08961E5,1.52416E5,1.20971E5,2.7594789E10,1.805E5,4.219537E-3,8.2588557E-4,3.15E2,7.751E3,-1.0419998E-3,-5.397162E-3,2.6516838E-4,1.7850833E-3,2.899211E10,9.1429E4,-2.6418464E-3,3.0822894E-3,8.4754E4,1.18968E5,-3.6963433E-4,-3.0448115E-3,2.8078419E-3,2.1646307E-4],"split_indices":[15,5,5,2,5,0,0,0,6,0,0,0,0,2,6,0,0,5,5,0,0,0,0],"split_type":[0,0,0,0,0,0,0,0,0,0,0,0,0,0,0,0,0,0,0,0,0,0,0],"sum_hessian":[2.122E3,1.98E3,1.42E2,1.704E3,2.76E2,1.3E1,1.29E2,4.34E2,1.27E3,2.71E2,5E0,3.6E2,7.4E1,3.3E1,1.237E3,3E0,3E1,9.49E2,2.88E2,9.21E2,2.8E1,4.2E1,2.46E2],"tree_param":{"num_deleted":"0","num_feature":"116","num_nodes":"23","size_leaf_vector":"1"}},{"base_weights":[-1.4533732E-3,-8.2995027E-4,-4.051417E-3,1.6456919E-3,-2.111908E-2,2.4243174E-4,3.6205202E-2,-3.721612E-2,-5.5992687E-3,2.4213947E-3,-1.5235136E-3,-1.0266366E-2,5.1346924E-2,-3.9502785E-2,9.987082E-3,9.2306494E-4,-9.526127E-4,1.9327966E-2,2.9342916E-4,4.2034485E-3,-1.8801383E-3,4.6346467E-3,1.5993658E-3,-6.1349254E-2,-1.0294919E-3,1.5267284E-4,1.6074501E-3,1.7552098E-3,-4.7026468E-5,-6.0441964E-3,-1.9950417E-3],"categories":[],"categories_nodes":[],"categories_segments":[],"categories_sizes":[],"default_left":[0,0,0,0,0,0,0,0,0,0,0,0,0,0,0,0,0,0,0,0,0,0,0,0,0,0,0,0,0,0,0],"id":25,"left_children":[1,3,-1,5,7,9,11,13,15,17,-1,19,21,23,-1,-1,-1,25,27,-1,-1,-1,-1,29,-1,-1,-1,-1,-1,-1,-1],"loss_changes":[1.0983235E-1,1.07614085E-1,0E0,9.1965795E-2,5.7716437E-2,1.2661476E-1,5.2559778E-2,6.1846644E-2,4.1644648E-2,6.143841E-2,0E0,4.984051E-2,4.404722E-2,4.387985E-2,0E0,0E0,0E0,4.276765E-2,7.010196E-2,0E0,0E0,0E0,0E0,6.323214E-2,0E0,0E0,0E0,0E0,0E0,0E0,0E0],"parents":[2147483647,0,0,1,1,3,3,4,4,5,5,6,6,7,7,8,8,9,9,11,11,12,12,13,13,17,17,18,18,23,23],"right_children":[2,4,-1,6,8,10,12,14,16,18,-1,20,22,24,-1,-1,-1,26,28,-1,-1,-1,-1,30,-1,-1,-1,-1,-1,-1,-1],"split_conditions":[1.942E1,2.228E3,-4.051417E-3,2.6431E4,8.6525985E10,1.65234E5,5.5579763E10,6.5336E4,1.46207E5,1.8051863E10,-1.5235136E-3,1.2017E5,8.2552504E10,8.9776E4,9.987082E-3,9.2306494E-4,-9.526127E-4,9.799E3,7.882E3,4.2034485E-3,-1.8801383E-3,4.6346467E-3,1.5993658E-3,4.6976328E10,-1.0294919E-3,1.5267284E-4,1.6074501E-3,1.7552098E-3,-4.7026468E-5,-6.0441964E-3,-1.9950417E-3],"split_indices":[20,0,0,25,2,3,2,13,3,2,0,3,2,3,0,0,0,3,3,0,0,0,0,2,0,0,0,0,0,0,0],"split_type":[0,0,0,0,0,0,0,0,0,0,0,0,0,0,0,0,0,0,0,0,0,0,0,0,0,0,0,0,0,0,0],"sum_hessian":[2.154E3,2.138E3,1.6E1,1.905E3,2.33E2,1.831E3,7.4E1,1.14E2,1.19E2,1.714E3,1.17E2,1.8E1,5.6E1,1.13E2,1E0,4.3E1,7.6E1,1.91E2,1.523E3,4E0,1.4E1,1.6E1,4E1,5.1E1,6.2E1,8.9E1,1.02E2,5.2E1,1.471E3,1.2E1,3.9E1],"tree_param":{"num_deleted":"0","num_feature":"116","num_nodes":"31","size_leaf_vector":"1"}},{"base_weights":[5.129648E-4,-1.1787073E-3,3.306659E-2,9.268982E-3,-8.648619E-3,-1.0052656E-3,4.6680257E-2,8.625059E-2,7.46988E-3,-2.4143297E-2,-3.0576487E-3,3.428037E-3,5.061087E-4,6.323655E-3,1.6916182E-3,2.8376192E-2,2.7334474E-3,-1.1055611E-2,-4.883881E-3,6.362277E-3,-1.8186558E-2,3.886817E-3,1.7923784E-2,2.7742928E-2,-2.4378027E-3,-8.150519E-3,-4.4679036E-3,1.5598665E-2,5.7357983E-3,-7.9624815E-4,-4.560488E-3,3.117633E-4,3.315646E-3,3.3644522E-3,8.5291394E-4,-1.3096438E-3,5.54296E-4,-5.2733856E-5,-1.7573927E-3,2.997469E-4,-1.1215355E-2],"categories":[],"categories_nodes":[],"categories_segments":[],"categories_sizes":[],"default_left":[0,0,0,0,0,0,0,0,0,0,0,0,0,0,0,0,0,0,0,0,0,0,0,0,0,0,0,0,0,0,0,0,0,0,0,0,0,0,0,0,0],"id":26,"left_children":[1,3,5,7,9,-1,11,13,15,17,19,-1,-1,-1,-1,21,23,25,-1,27,29,-1,31,33,35,37,-1,-1,39,-1,-1,-1,-1,-1,-1,-1,-1,-1,-1,-1,-1],"loss_changes":[1.1706177E-1,1.5717417E-1,7.736923E-2,1.1511413E-1,1.0147763E-1,0E0,7.314858E-2,4.1645035E-2,8.0839634E-2,3.1244817E-1,1.23270914E-1,0E0,0E0,0E0,0E0,8.121581E-2,8.681584E-2,6.184952E-2,0E0,1.0182245E-1,4.1363545E-2,0E0,7.249884E-2,4.7586076E-2,1.9080168E-1,5.0852686E-2,0E0,0E0,5.7725772E-2,0E0,0E0,0E0,0E0,0E0,0E0,0E0,0E0,0E0,0E0,0E0,0E0],"parents":[2147483647,0,0,1,1,2,2,3,3,4,4,6,6,7,7,8,8,9,9,10,10,15,15,16,16,17,17,19,19,20,20,22,22,23,23,24,24,25,25,28,28],"right_children":[2,4,6,8,10,-1,12,14,16,18,20,-1,-1,-1,-1,22,24,26,-1,28,30,-1,32,34,36,38,-1,-1,40,-1,-1,-1,-1,-1,-1,-1,-1,-1,-1,-1,-1],"split_conditions":[5.6253E4,5.8386E4,6.163276E10,-1.632E3,6.7583E4,-1.0052656E-3,2.5E5,5.33E4,7.31178E5,6.4507E4,1.52416E5,3.428037E-3,5.061087E-4,6.323655E-3,1.6916182E-3,2.8452E4,8.928E3,2.603E3,-4.883881E-3,6.4036E4,1.542E1,3.886817E-3,8.78E2,2.083481E6,1.1553E4,6.278E4,-4.4679036E-3,1.5598665E-2,2.487904E6,-7.9624815E-4,-4.560488E-3,3.117633E-4,3.315646E-3,3.3644522E-3,8.5291394E-4,-1.3096438E-3,5.54296E-4,-5.2733856E-5,-1.7573927E-3,2.997469E-4,-1.1215355E-2],"split_indices":[13,4,2,0,4,0,4,4,1,6,5,0,0,0,0,4,4,0,0,5,20,0,0,1,6,4,0,0,1,0,0,0,0,0,0,0,0,0,0,0,0],"split_type":[0,0,0,0,0,0,0,0,0,0,0,0,0,0,0,0,0,0,0,0,0,0,0,0,0,0,0,0,0,0,0,0,0,0,0,0,0,0,0,0,0],"sum_hessian":[2.119E3,2.014E3,1.05E2,8.39E2,1.175E3,2.1E1,8.4E1,1.9E1,8.2E2,3.11E2,8.64E2,5E1,3.4E1,1E1,9E0,1.51E2,6.69E2,2.66E2,4.5E1,5.32E2,3.32E2,2.5E1,1.26E2,1.15E2,5.54E2,2.57E2,9E0,1E0,5.31E2,3.25E2,7E0,1.03E2,2.3E1,2.2E1,9.3E1,2E2,3.54E2,2.06E2,5.1E1,5.3E2,1E0],"tree_param":{"num_deleted":"0","num_feature":"116","num_nodes":"41","size_leaf_vector":"1"}},{"base_weights":[2.3051507E-3,4.4398247E-3,1.54566E-3,1.0810035E-2,-3.1142628E-3,5.764355E-3,6.217907E-2,-2.5298912E-3,-3.420211E-3,1.1421714E-2,-1.610265E-2,8.809888E-2,1.025706E-3,-2.364701E-3,-1.0681204E-2,-3.1725512E-4,3.5868905E-2,3.5144407E-5,-3.704843E-2,8.9497985E-3,3.5400304E-3,-9.881135E-7,-1.6430154E-2,8.802E-4,-8.310999E-4,3.2711697E-3,9.821818E-4,-2.6233194E-3,1.3236611E-4,-1.4441008E-3,2.9425422E-4],"categories":[],"categories_nodes":[],"categories_segments":[],"categories_sizes":[],"default_left":[0,0,0,0,0,0,0,0,0,0,0,0,0,0,0,0,0,0,0,0,0,0,0,0,0,0,0,0,0,0,0],"id":27,"left_children":[1,-1,3,5,7,9,11,13,-1,15,17,19,-1,21,-1,23,25,-1,27,-1,-1,-1,29,-1,-1,-1,-1,-1,-1,-1,-1],"loss_changes":[1.4616899E-1,0E0,9.2605636E-2,1.8531623E-1,5.559039E-2,8.085612E-2,6.661132E-2,4.8500936E-2,0E0,1.4964527E-1,4.7663383E-2,5.2802265E-2,0E0,4.636826E-2,0E0,1.1015013E-1,8.2679376E-2,0E0,4.1964732E-2,0E0,0E0,0E0,6.1416123E-2,0E0,0E0,0E0,0E0,0E0,0E0,0E0,0E0],"parents":[2147483647,0,0,2,2,3,3,4,4,5,5,6,6,7,7,9,9,10,10,11,11,13,13,15,15,16,16,18,18,22,22],"right_children":[2,-1,4,6,8,10,12,14,-1,16,18,20,-1,22,-1,24,26,-1,28,-1,-1,-1,30,-1,-1,-1,-1,-1,-1,-1,-1],"split_conditions":[1.374E3,4.4398247E-3,5.1009E4,4.3852E4,1.542E1,3.026E4,4.9439E4,3.022774E6,-3.420211E-3,1.1983E4,9.93915E5,-2.002E3,1.025706E-3,2.228E3,-1.0681204E-2,9.021E3,-2.2E2,3.5144407E-5,3.6098E4,8.9497985E-3,3.5400304E-3,-9.881135E-7,1.0300484E11,8.802E-4,-8.310999E-4,3.2711697E-3,9.821818E-4,-2.6233194E-3,1.3236611E-4,-1.4441008E-3,2.9425422E-4],"split_indices":[12,0,5,3,20,4,5,1,0,6,1,0,0,0,0,6,0,0,3,0,0,0,2,0,0,0,0,0,0,0,0],"split_type":[0,0,0,0,0,0,0,0,0,0,0,0,0,0,0,0,0,0,0,0,0,0,0,0,0,0,0,0,0,0,0],"sum_hessian":[2.161E3,1.8E1,2.143E3,7.18E2,1.425E3,6.54E2,6.4E1,1.413E3,1.2E1,5.2E2,1.34E2,3.9E1,2.5E1,1.412E3,1E0,3.51E2,1.69E2,7.4E1,6E1,5E0,3.4E1,1.211E3,2.01E2,1.67E2,1.84E2,5.5E1,1.14E2,4.2E1,1.8E1,1.26E2,7.5E1],"tree_param":{"num_deleted":"0","num_feature":"116","num_nodes":"31","size_leaf_vector":"1"}},{"base_weights":[-3.0519714E-5,-1.7974839E-3,2.3754787E-2,1.1807161E-3,-2.077559E-2,4.047395E-3,1.778296E-2,1.0242918E-1,6.9555745E-4,-8.782985E-4,-3.8464426E-3,8.553557E-3,7.354219E-4,1.4267342E-4,7.7029285E-3,1.5271185E-3,-4.722232E-4,-1.5692923E-2,2.5859568E-3,-4.7453586E-4,-2.2618675E-3,2.9178166E-3,-1.4980849E-6],"categories":[],"categories_nodes":[],"categories_segments":[],"categories_sizes":[],"default_left":[0,0,0,0,0,0,0,0,0,0,0,0,0,0,0,0,0,0,0,0,0,0,0],"id":28,"left_children":[1,3,5,7,9,-1,11,13,15,-1,-1,-1,-1,-1,-1,-1,17,19,21,-1,-1,-1,-1],"loss_changes":[8.876318E-2,1.1168526E-1,5.1243693E-2,8.251571E-2,3.948325E-2,0E0,5.164455E-2,4.3733567E-2,6.1669562E-2,0E0,0E0,0E0,0E0,0E0,0E0,0E0,7.621087E-2,4.939799E-2,2.0673417E-1,0E0,0E0,0E0,0E0],"parents":[2147483647,0,0,1,1,2,2,3,3,4,4,6,6,7,7,8,8,16,16,17,17,18,18],"right_children":[2,4,6,8,10,-1,12,14,16,-1,-1,-1,-1,-1,-1,-1,18,20,22,-1,-1,-1,-1],"split_conditions":[1.08961E5,1.56021E5,1.22373E5,6.784E3,1.8E5,4.047395E-3,1.3091E4,5.699263E6,1.1115732E10,-8.782985E-4,-3.8464426E-3,8.553557E-3,7.354219E-4,1.4267342E-4,7.7029285E-3,1.5271185E-3,1.2183E4,1.0502E4,2.4366E4,-4.7453586E-4,-2.2618675E-3,2.9178166E-3,-1.4980849E-6],"split_indices":[15,3,3,6,3,0,7,1,2,0,0,0,0,0,0,0,4,4,4,0,0,0,0],"split_type":[0,0,0,0,0,0,0,0,0,0,0,0,0,0,0,0,0,0,0,0,0,0,0],"sum_hessian":[2.118E3,1.972E3,1.46E2,1.704E3,2.68E2,1.3E1,1.33E2,8E0,1.696E3,2.57E2,1.1E1,2E0,1.31E2,3E0,5E0,6.2E1,1.634E3,2.74E2,1.36E3,2.31E2,4.3E1,5.9E1,1.301E3],"tree_param":{"num_deleted":"0","num_feature":"116","num_nodes":"23","size_leaf_vector":"1"}},{"base_weights":[1.0334836E-4,1.996688E-2,-1.632646E-3,1.0941938E-4,1.8823309E-3,5.2732274E-2,-2.308351E-3,2.2087519E-3,-1.1867573E-3,2.7809734E-2,6.0485E-3,4.4312584E-3,-2.7029514E-3,2.8710726E-3,-3.8643568E-3,-3.2525174E-3,-1.0741903E-4],"categories":[],"categories_nodes":[],"categories_segments":[],"categories_sizes":[],"default_left":[0,0,0,0,0,0,0,0,0,0,0,0,0,0,0,0,0],"id":29,"left_children":[1,3,5,7,-1,9,11,-1,-1,13,-1,-1,15,-1,-1,-1,-1],"loss_changes":[7.421242E-2,6.498689E-2,7.189904E-2,9.618218E-2,0E0,4.1658193E-2,7.138753E-2,0E0,0E0,6.143354E-2,0E0,0E0,5.9052654E-2,0E0,0E0,0E0,0E0],"parents":[2147483647,0,0,1,1,2,2,3,3,5,5,6,6,9,9,12,12],"right_children":[2,4,6,8,-1,10,12,-1,-1,14,-1,-1,16,-1,-1,-1,-1],"split_conditions":[1.8051863E10,9.757E3,1.374E3,8.681E3,1.8823309E-3,2.57E3,6.805E3,2.2087519E-3,-1.1867573E-3,1.22373E5,6.0485E-3,4.4312584E-3,-1.132E1,2.8710726E-3,-3.8643568E-3,-3.2525174E-3,-1.0741903E-4],"split_indices":[2,5,12,5,0,10,3,0,0,3,0,0,21,0,0,0,0],"split_type":[0,0,0,0,0,0,0,0,0,0,0,0,0,0,0,0,0],"sum_hessian":[2.146E3,1.73E2,1.973E3,8.5E1,8.8E1,2.4E1,1.949E3,3E1,5.5E1,1.8E1,6E0,8E0,1.941E3,1.4E1,4E0,1.4E1,1.927E3],"tree_param":{"num_deleted":"0","num_feature":"116","num_nodes":"17","size_leaf_vector":"1"}},{"base_weights":[3.5011555E-5,7.7410117E-3,-3.8261174E-3,3.1349666E-3,4.6047956E-2,-6.3473675E-3,9.6289604E-4,8.467045E-3,-8.6943497E-4,3.3897366E-3,9.4323925E-4,-5.3089955E-3,-2.2075179E-3,2.1426834E-2,-1.0543603E-2,-4.613923E-3,-3.2077876E-3,2.8920243E-3,1.6884187E-2,2.9788543E-2,-2.33812E-2,-1.0329031E-2,2.4302115E-3,2.6893185E-3,5.102844E-4,-1.1593121E-3,3.0463953E-3,-1.5451724E-3,1.177037E-3,-3.617033E-4,-3.970179E-3,2.802866E-3,-1.0553727E-4],"categories":[],"categories_nodes":[],"categories_segments":[],"categories_sizes":[],"default_left":[0,0,0,0,0,0,0,0,0,0,0,0,0,0,0,0,0,0,0,0,0,0,0,0,0,0,0,0,0,0,0,0,0],"id":30,"left_children":[1,3,5,7,9,11,-1,13,-1,-1,-1,15,-1,17,19,21,-1,-1,23,25,27,29,31,-1,-1,-1,-1,-1,-1,-1,-1,-1,-1],"loss_changes":[6.4135656E-2,1.2647355E-1,8.583391E-2,7.242438E-2,4.8350915E-2,5.2480664E-2,0E0,1.2676768E-1,0E0,0E0,0E0,5.2926052E-2,0E0,5.264117E-2,1.0763778E-1,5.0414275E-2,0E0,0E0,6.638823E-2,9.023806E-2,6.535832E-2,1.3978979E-1,1.4432773E-1,0E0,0E0,0E0,0E0,0E0,0E0,0E0,0E0,0E0,0E0],"parents":[2147483647,0,0,1,1,2,2,3,3,4,4,5,5,7,7,11,11,13,13,14,14,15,15,18,18,19,19,20,20,21,21,22,22],"right_children":[2,4,6,8,10,12,-1,14,-1,-1,-1,16,-1,18,20,22,-1,-1,24,26,28,30,32,-1,-1,-1,-1,-1,-1,-1,-1,-1,-1],"split_conditions":[5.2735E4,4.4166E4,5.2708E4,3.026E4,5.0224E4,1.75849E5,9.6289604E-4,2.402591E6,-8.6943497E-4,3.3897366E-3,9.4323925E-4,1.1547E4,-2.2075179E-3,7.31178E5,7.882E3,9.1429E4,-3.2077876E-3,2.8920243E-3,8.881E3,3.900151E6,1.1983E4,8.6323E4,1.205E5,2.6893185E-3,5.102844E-4,-1.1593121E-3,3.0463953E-3,-1.5451724E-3,1.177037E-3,-3.617033E-4,-3.970179E-3,2.802866E-3,-1.0553727E-4],"split_indices":[6,4,14,4,6,6,0,1,0,0,0,7,0,1,3,6,0,0,6,1,6,3,6,0,0,0,0,0,0,0,0,0,0],"split_type":[0,0,0,0,0,0,0,0,0,0,0,0,0,0,0,0,0,0,0,0,0,0,0,0,0,0,0,0,0,0,0,0,0],"sum_hessian":[2.154E3,7.2E2,1.434E3,6.43E2,7.7E1,1.297E3,1.37E2,5.14E2,1.29E2,4E1,3.7E1,1.264E3,3.3E1,3.06E2,2.08E2,1.25E3,1.4E1,3.2E1,2.74E2,5E1,1.58E2,6.91E2,5.59E2,3.8E1,2.36E2,1.9E1,3.1E1,1.34E2,2.4E1,6.65E2,2.6E1,4.3E1,5.16E2],"tree_param":{"num_deleted":"0","num_feature":"116","num_nodes":"33","size_leaf_vector":"1"}},{"base_weights":[-3.1796447E-4,1.139406E-2,-4.127925E-3,1.056095E-2,7.340328E-3,5.625776E-2,-5.2362946E-3,1.4415226E-2,-8.640633E-4,-3.0161422E-3,3.3980592E-3,-3.7647642E-3,-4.1332066E-2,-1.0100446E-3,1.7709967E-2,3.6530804E-2,-5.619598E-3,-1.9547008E-2,-4.740963E-3,7.276284E-4,6.278162E-2,1.8593198E-1,2.4260117E-2,-1.354059E-2,2.199618E-3,-4.2585363E-3,2.3717035E-3,2.168949E-3,1.17120035E-2,-0E0,1.1280088E-2,-6.860923E-3,1.5897154E-3,-5.4134487E-4,-4.7928556E-3,2.3937041E-3,-1.3008254E-4,9.93939E-4,-3.8908303E-3],"categories":[],"categories_nodes":[],"categories_segments":[],"categories_sizes":[],"default_left":[0,0,0,0,0,0,0,0,0,0,0,0,0,0,0,0,0,0,0,0,0,0,0,0,0,0,0,0,0,0,0,0,0,0,0,0,0,0,0],"id":31,"left_children":[1,3,5,7,-1,9,11,13,-1,-1,-1,15,17,-1,19,21,23,25,-1,-1,27,29,31,33,35,-1,37,-1,-1,-1,-1,-1,-1,-1,-1,-1,-1,-1,-1],"loss_changes":[9.567711E-2,5.978366E-2,1.078434E-1,5.735355E-2,0E0,4.898189E-2,8.398709E-2,5.366101E-2,0E0,0E0,0E0,1.139277E-1,7.5529404E-2,0E0,4.9095765E-2,1.2037346E-1,9.068209E-2,6.878926E-2,0E0,0E0,7.037836E-2,4.6047598E-2,8.849579E-2,1.4345738E-1,1.7115445E-1,0E0,5.0801102E-2,0E0,0E0,0E0,0E0,0E0,0E0,0E0,0E0,0E0,0E0,0E0,0E0],"parents":[2147483647,0,0,1,1,2,2,3,3,5,5,6,6,7,7,11,11,12,12,14,14,15,15,16,16,17,17,20,20,21,21,22,22,23,23,24,24,26,26],"right_children":[2,4,6,8,-1,10,12,14,-1,-1,-1,16,18,-1,20,22,24,26,-1,-1,28,30,32,34,36,-1,38,-1,-1,-1,-1,-1,-1,-1,-1,-1,-1,-1,-1],"split_conditions":[3.0896972E10,3.900151E6,8.034E3,2.402591E6,7.340328E-3,3.3569526E10,4.645677E6,3.26066E5,-8.640633E-4,-3.0161422E-3,3.3980592E-3,2.5721E4,9.112E3,-1.0100446E-3,9.97E2,-6.9E2,8.7736E4,4.535178E10,-4.740963E-3,7.276284E-4,3.0553655E10,-1.255E3,3.1158706E10,8.6323E4,1.215E5,-4.2585363E-3,5E2,2.168949E-3,1.17120035E-2,-0E0,1.1280088E-2,-6.860923E-3,1.5897154E-3,-5.4134487E-4,-4.7928556E-3,2.3937041E-3,-1.3008254E-4,9.93939E-4,-3.8908303E-3],"split_indices":[2,1,4,1,0,2,1,1,0,0,0,6,5,0,0,0,5,2,0,0,2,0,2,3,6,0,0,0,0,0,0,0,0,0,0,0,0,0,0],"split_type":[0,0,0,0,0,0,0,0,0,0,0,0,0,0,0,0,0,0,0,0,0,0,0,0,0,0,0,0,0,0,0,0,0,0,0,0,0,0,0],"sum_hessian":[2.146E3,5.26E2,1.62E3,5.23E2,3E0,2.9E1,1.591E3,4.61E2,6.2E1,3E0,2.6E1,1.529E3,6.2E1,3.9E1,4.22E2,6.7E1,1.462E3,4.5E1,1.7E1,3.99E2,2.3E1,5E0,6.2E1,7.27E2,7.35E2,1.1E1,3.4E1,2.1E1,2E0,1E0,4E0,3E0,5.9E1,7.08E2,1.9E1,6.9E1,6.66E2,2.8E1,6E0],"tree_param":{"num_deleted":"0","num_feature":"116","num_nodes":"39","size_leaf_vector":"1"}},{"base_weights":[-1.5171176E-4,2.726962E-4,-3.1200135E-3,-8.393798E-4,2.197553E-2,2.223588E-3,-1.683625E-2,-9.954086E-4,3.651273E-2,3.322428E-3,1.8166428E-3,-6.0800207E-4,-2.370293E-3,5.897773E-2,1.3488112E-4,3.5187523E-3,-1.6822321E-2,3.6817435E-2,5.014749E-3,1.6241944E-3,1.0791155E-4,6.817497E-4,-1.2634826E-3,2.2854558E-3,-5.296526E-3],"categories":[],"categories_nodes":[],"categories_segments":[],"categories_sizes":[],"default_left":[0,0,0,0,0,0,0,0,0,0,0,0,0,0,0,0,0,0,0,0,0,0,0,0,0],"id":32,"left_children":[1,3,-1,5,7,9,11,-1,13,-1,15,-1,-1,17,-1,19,21,23,-1,-1,-1,-1,-1,-1,-1],"loss_changes":[5.87064E-2,5.1000196E-2,0E0,9.816516E-2,6.399702E-2,4.468911E-2,4.3313622E-2,0E0,5.762069E-2,0E0,5.2766267E-2,0E0,0E0,4.4173136E-2,0E0,5.86821E-2,4.0439226E-2,4.732048E-2,0E0,0E0,0E0,0E0,0E0,0E0,0E0],"parents":[2147483647,0,0,1,1,3,3,4,4,5,5,6,6,8,8,10,10,13,13,15,15,16,16,17,17],"right_children":[2,4,-1,6,8,10,12,-1,14,-1,16,-1,-1,18,-1,20,22,24,-1,-1,-1,-1,-1,-1,-1],"split_conditions":[1.942E1,2.6431E4,-3.1200135E-3,1.52416E5,4.23962E5,6.784E3,1.75849E5,-9.954086E-4,2.435E5,3.322428E-3,3.374648E6,-6.0800207E-4,-2.370293E-3,1.865E5,1.3488112E-4,8.874E3,7.882E3,3.766E3,5.014749E-3,1.6241944E-3,1.0791155E-4,6.817497E-4,-1.2634826E-3,2.2854558E-3,-5.296526E-3],"split_indices":[20,25,0,5,1,6,6,0,5,0,1,0,0,6,0,5,6,0,0,0,0,0,0,0,0],"split_type":[0,0,0,0,0,0,0,0,0,0,0,0,0,0,0,0,0,0,0,0,0,0,0,0,0],"sum_hessian":[2.117E3,2.103E3,1.4E1,2E3,1.03E2,1.678E3,3.22E2,2.6E1,7.7E1,1E1,1.668E3,2.85E2,3.7E1,4.6E1,3.1E1,1.529E3,1.39E2,3.1E1,1.5E1,6.2E1,1.467E3,3.2E1,1.07E2,2.9E1,2E0],"tree_param":{"num_deleted":"0","num_feature":"116","num_nodes":"25","size_leaf_vector":"1"}},{"base_weights":[1.0056323E-3,8.2218135E-3,-5.1300307E-3,6.0642216E-2,7.076632E-3,-3.431359E-2,-2.7366402E-4,7.0716846E-3,1.2258318E-3,1.4203245E-2,5.1748723E-4,-7.4284064E-4,-9.1684245E-2,1.4898854E-2,-5.985954E-4,1.6514757E-3,4.2236107E-4,2.812281E-2,-3.3034903E-3,-3.6272884E-3,-8.198108E-3,6.4063417E-3,-9.9326E-3,2.0000064E-3,6.898096E-2,-1.4099957E-2,7.393138E-3,-7.3155207E-3,1.6711885E-2,-1.7161498E-2,1.71669E-2,-1.3175901E-3,1.8756266E-3,7.883874E-3,2.3847537E-3,-1.702818E-4,-2.2956382E-3,3.4373552E-3,-5.7704566E-4,4.54112E-4,-1.4265792E-3,2.7769203E-3,3.5961356E-4,-7.0154696E-4,-3.5195537E-3,-8.551098E-4,1.6792137E-3],"categories":[],"categories_nodes":[],"categories_segments":[],"categories_sizes":[],"default_left":[0,0,0,0,0,0,0,0,0,0,0,0,0,0,0,0,0,0,0,0,0,0,0,0,0,0,0,0,0,0,0,0,0,0,0,0,0,0,0,0,0,0,0,0,0,0,0],"id":33,"left_children":[1,3,5,7,9,11,13,-1,-1,15,17,-1,19,-1,21,-1,-1,23,25,-1,-1,27,29,31,33,35,37,39,41,43,45,-1,-1,-1,-1,-1,-1,-1,-1,-1,-1,-1,-1,-1,-1,-1,-1],"loss_changes":[9.562872E-2,5.882626E-2,1.6485615E-1,6.1592422E-2,4.5266684E-2,1.7892212E-1,9.6882805E-2,0E0,0E0,5.024606E-2,5.3766325E-2,0E0,4.996568E-2,0E0,6.5361E-2,0E0,0E0,6.536942E-2,5.1471252E-2,0E0,0E0,8.071603E-2,8.404724E-2,4.1229717E-2,4.1780464E-2,7.798126E-2,2.762725E-1,9.106337E-2,1.2252636E-1,4.854832E-2,5.5594753E-2,0E0,0E0,0E0,0E0,0E0,0E0,0E0,0E0,0E0,0E0,0E0,0E0,0E0,0E0,0E0,0E0],"parents":[2147483647,0,0,1,1,2,2,3,3,4,4,5,5,6,6,9,9,10,10,12,12,14,14,17,17,18,18,21,21,22,22,23,23,24,24,25,25,26,26,27,27,28,28,29,29,30,30],"right_children":[2,4,6,8,10,12,14,-1,-1,16,18,-1,20,-1,22,-1,-1,24,26,-1,-1,28,30,32,34,36,38,40,42,44,46,-1,-1,-1,-1,-1,-1,-1,-1,-1,-1,-1,-1,-1,-1,-1,-1],"split_conditions":[6.1054E4,-1.802E3,6.7583E4,5.2013E4,1.140644E6,6.4507E4,6.4036E4,7.0716846E-3,1.2258318E-3,2.9093E4,7.751E3,-7.4284064E-4,8.01E2,1.4898854E-2,1.52416E5,1.6514757E-3,4.2236107E-4,4.645677E6,1.1983E4,-3.6272884E-3,-8.198108E-3,8.9462E4,5.6253E4,7.435E3,5.699263E6,1.0135E4,2.3789E4,7.8507E4,1.205E5,1.8E5,5.32299E5,-1.3175901E-3,1.8756266E-3,7.883874E-3,2.3847537E-3,-1.702818E-4,-2.2956382E-3,3.4373552E-3,-5.7704566E-4,4.54112E-4,-1.4265792E-3,2.7769203E-3,3.5961356E-4,-7.0154696E-4,-3.5195537E-3,-8.551098E-4,1.6792137E-3],"split_indices":[4,0,4,3,1,3,5,0,0,4,6,0,0,0,5,0,0,1,6,0,0,6,13,4,1,4,6,6,6,3,1,0,0,0,0,0,0,0,0,0,0,0,0,0,0,0,0],"split_type":[0,0,0,0,0,0,0,0,0,0,0,0,0,0,0,0,0,0,0,0,0,0,0,0,0,0,0,0,0,0,0,0,0,0,0,0,0,0,0,0,0,0,0,0,0,0,0],"sum_hessian":[2.159E3,9.93E2,1.166E3,2.1E1,9.72E2,1.66E2,1E3,6E0,1.5E1,4.65E2,5.07E2,1.25E2,4.1E1,1E0,9.99E2,9.9E1,3.66E2,6.2E1,4.45E2,3.4E1,7E0,5.7E2,4.29E2,3.8E1,2.4E1,2.22E2,2.23E2,2.44E2,3.26E2,3.39E2,9E1,2.1E1,1.7E1,4E0,2E1,1.69E2,5.3E1,5.2E1,1.71E2,1.39E2,1.05E2,6E1,2.66E2,3.24E2,1.5E1,3E1,6E1],"tree_param":{"num_deleted":"0","num_feature":"116","num_nodes":"47","size_leaf_vector":"1"}},{"base_weights":[1.6026135E-3,2.0435855E-3,-3.086743E-3,8.98027E-4,5.669942E-4,-6.4183155E-4,2.056505E-2,1.2388135E-3,-9.669019E-4,1.2596417E-3,-2.377956E-3,-1.1904044E-2,3.1748125E-3,-3.5869845E-5,-2.8190431E-3,3.196753E-3,5.987104E-5],"categories":[],"categories_nodes":[],"categories_segments":[],"categories_sizes":[],"default_left":[0,0,0,0,0,0,0,0,0,0,0,0,0,0,0,0,0],"id":34,"left_children":[1,3,-1,-1,5,7,9,11,-1,-1,-1,13,15,-1,-1,-1,-1],"loss_changes":[6.0712326E-2,5.140244E-2,0E0,0E0,4.7079377E-2,6.686913E-2,4.272983E-2,4.2265523E-2,0E0,0E0,0E0,1.0992277E-1,1.7635994E-1,0E0,0E0,0E0,0E0],"parents":[2147483647,0,0,1,1,4,4,5,5,6,6,7,7,11,11,12,12],"right_children":[2,4,-1,-1,6,8,10,12,-1,-1,-1,14,16,-1,-1,-1,-1],"split_conditions":[1.942E1,1.8051863E10,-3.086743E-3,8.98027E-4,2.6431E4,1.65434E5,3.085E5,1.2025E4,-9.669019E-4,1.2596417E-3,-2.377956E-3,1.0135E4,2.3789E4,-3.5869845E-5,-2.8190431E-3,3.196753E-3,5.987104E-5],"split_indices":[20,2,0,0,25,4,4,3,0,0,0,4,6,0,0,0,0],"split_type":[0,0,0,0,0,0,0,0,0,0,0,0,0,0,0,0,0],"sum_hessian":[2.124E3,2.11E3,1.4E1,1.72E2,1.938E3,1.827E3,1.11E2,1.665E3,1.62E2,1.03E2,8E0,2.13E2,1.452E3,1.72E2,4.1E1,4.3E1,1.409E3],"tree_param":{"num_deleted":"0","num_feature":"116","num_nodes":"17","size_leaf_vector":"1"}},{"base_weights":[8.481328E-5,5.597289E-4,-2.8468461E-3,3.20661E-2,-1.2675818E-4,1.7301735E-3,9.393758E-2,8.941922E-4,-1.5285717E-3,3.5042956E-2,-2.0987585E-3,1.5473954E-2,2.792457E-3,1.0887417E-2,-1.239965E-3,-2.9326703E-3,6.327451E-2,-6.9079124E-3,5.445518E-2,-2.6138078E-2,8.7071967E-4,8.250885E-4,6.9394824E-3,2.0018397E-3,-5.245543E-4,3.9372034E-3,1.3061572E-3,-8.3666237E-4,-4.071919E-3,1.5795269E-3,-9.343338E-5],"categories":[],"categories_nodes":[],"categories_segments":[],"categories_sizes":[],"default_left":[0,0,0,0,0,0,0,0,0,0,0,0,0,0,0,0,0,0,0,0,0,0,0,0,0,0,0,0,0,0,0],"id":35,"left_children":[1,3,-1,5,7,9,11,13,-1,15,-1,-1,-1,17,19,-1,21,23,25,27,29,-1,-1,-1,-1,-1,-1,-1,-1,-1,-1],"loss_changes":[5.9886757E-2,4.6675097E-2,0E0,8.525976E-2,6.784761E-2,4.6650663E-2,1.18172646E-1,4.338423E-2,0E0,4.8809983E-2,0E0,0E0,0E0,2.7812076E-1,8.810636E-2,0E0,5.023699E-2,4.838817E-2,7.6045066E-2,6.59543E-2,1.3812272E-1,0E0,0E0,0E0,0E0,0E0,0E0,0E0,0E0,0E0,0E0],"parents":[2147483647,0,0,1,1,3,3,4,4,5,5,6,6,7,7,9,9,13,13,14,14,16,16,17,17,18,18,19,19,20,20],"right_children":[2,4,-1,6,8,10,12,14,-1,16,-1,-1,-1,18,20,-1,22,24,26,28,30,-1,-1,-1,-1,-1,-1,-1,-1,-1,-1],"split_conditions":[1.942E1,7.593E3,-2.8468461E-3,3.8192087E10,4.645677E6,2.1E1,5.699263E6,2.8357E4,-1.5285717E-3,-3.67E2,-2.0987585E-3,1.5473954E-2,2.792457E-3,1.4126E4,3.6255E4,-2.9326703E-3,7.435E3,7.31178E5,2.3789E4,3.4623E4,5.1009E4,8.250885E-4,6.9394824E-3,2.0018397E-3,-5.245543E-4,3.9372034E-3,1.3061572E-3,-8.3666237E-4,-4.071919E-3,1.5795269E-3,-9.343338E-5],"split_indices":[20,6,0,2,1,0,1,6,0,0,0,0,0,4,4,0,4,1,6,3,5,0,0,0,0,0,0,0,0,0,0],"split_type":[0,0,0,0,0,0,0,0,0,0,0,0,0,0,0,0,0,0,0,0,0,0,0,0,0,0,0,0,0,0,0],"sum_hessian":[2.158E3,2.141E3,1.7E1,4.6E1,2.095E3,3.1E1,1.5E1,2.029E3,6.6E1,1.8E1,1.3E1,2E0,1.3E1,3.58E2,1.671E3,4E0,1.4E1,2.54E2,1.04E2,1.31E2,1.54E3,9E0,5E0,1.9E1,2.35E2,5.2E1,5.2E1,1.14E2,1.7E1,1.25E2,1.415E3],"tree_param":{"num_deleted":"0","num_feature":"116","num_nodes":"31","size_leaf_vector":"1"}},{"base_weights":[-8.248872E-4,3.3689165E-3,-1.5036557E-3,-1.1627328E-3,-3.1421294E-3,4.849805E-3,-4.2733634E-3,-0E0,4.0612306E-2,-1.3484298E-2,4.961371E-5,5.927056E-3,-2.3320276E-2,3.2800962E-3,8.271049E-4,-4.618155E-3,-3.4651062E-3,1.3332789E-2,-1.1264151E-3,-1.08904125E-4,1.322868E-3,-1.8696311E-3,1.3039193E-4,3.00883E-4,-9.255014E-4,-3.8011025E-3,-2.1289223E-5],"categories":[],"categories_nodes":[],"categories_segments":[],"categories_sizes":[],"default_left":[0,0,0,0,0,0,0,0,0,0,0,0,0,0,0,0,0,0,0,0,0,0,0,0,0,0,0],"id":36,"left_children":[1,-1,3,5,-1,7,9,11,13,15,17,19,21,-1,-1,23,-1,-1,25,-1,-1,-1,-1,-1,-1,-1,-1],"loss_changes":[1.0088008E-1,0E0,4.47849E-2,3.9063994E-2,